
/* Species #1 : (Size 9) (AF 7.33843) (Age 25)  */


/* Organism #0 Fitness: 9 Error: 1 */
genomestart 0
trait 1 0.985116 0 0 0 0.633503 0.673391 0.538741 0.846522 
trait 2 0.2 0 0 0 0 0 0 0 
trait 3 0.289453 0 0 0 0 0 0 0.0278711 
node 1 1 1 3
node 2 1 1 1
node 3 3 1 1
node 4 3 0 2
gene 2 1 4 -4.08029 0 1 -4.08029 1
gene 3 2 4 8 0 2 8 1
gene 2 3 4 -8 0 3 -8 1
genomeend 0

/* Organism #1 Fitness: 4.10752 Error: 1.9733 */
genomestart 1
trait 1 0.873502 0 0 0 0.554315 0.589217 0.477647 0.740707 
trait 2 0.2 0 0 0 0 0 0 0 
trait 3 0.289233 0 0 0 0 0 0 0.0284518 
node 1 1 1 3
node 2 1 1 1
node 3 3 1 1
node 4 3 0 2
gene 2 1 4 -5.21638 0 1 -5.21638 1
gene 3 2 4 6.86769 0 2 6.86769 1
gene 2 3 4 -0.923338 0 3 -0.923338 1
genomeend 1

/* Organism #2 Fitness: 4 Error: 2 */
genomestart 2
trait 1 0.985116 0 0 0 0.633503 0.673391 0.538741 0.846522 
trait 2 0.2 0 0 0 0 0 0 0 
trait 3 0.289453 0 0 0 0 0 0 0.0278711 
node 1 1 1 3
node 2 1 1 1
node 3 3 1 1
node 4 3 0 2
gene 2 1 4 -4.02108 0 1 -4.02108 1
gene 3 2 4 -2.32284 0 2 -2.32284 1
gene 2 3 4 -8 0 3 -8 1
genomeend 2

/* Organism #3 Fitness: 8.9973 Error: 1.00045 */
genomestart 3
trait 1 0.873502 0 0 0 0.554315 0.589217 0.477647 0.740707 
trait 2 0.2 0 0 0 0 0 0 0 
trait 3 0.289233 0 0 0 0 0 0 0.0284518 
node 1 1 1 3
node 2 1 1 1
node 3 3 1 1
node 4 3 0 2
gene 2 1 4 -1.70583 0 1 -1.70583 1
gene 3 2 4 8 0 2 8 1
gene 2 3 4 -8 0 3 -8 1
genomeend 3

/* Organism #4 Fitness: 9 Error: 1 */
genomestart 4
trait 1 0.873502 0 0 0 0.554315 0.589217 0.477647 0.740707 
trait 2 0.2 0 0 0 0 0 0 0 
trait 3 0.289233 0 0 0 0 0 0 0.0284518 
node 1 1 1 3
node 2 1 1 1
node 3 3 1 1
node 4 3 0 2
gene 1 1 4 -4.37727 0 1 -4.37727 1
gene 3 2 4 8 0 2 8 1
gene 2 3 4 -7.03356 0 3 -7.03356 1
genomeend 4

/* Organism #5 Fitness: 9 Error: 1 */
genomestart 5
trait 1 0.985116 0 0 0 0.633503 0.673391 0.538741 0.846522 
trait 2 0.2 0 0 0 0 0 0 0 
trait 3 0.289453 0 0 0 0 0 0 0.0278711 
node 1 1 1 3
node 2 1 1 1
node 3 3 1 1
node 4 3 0 2
gene 2 1 4 -3.90221 0 1 -3.90221 1
gene 3 2 4 6.83557 0 2 6.83557 1
gene 2 3 4 -6.31652 0 3 -6.31652 1
genomeend 5

/* Organism #6 Fitness: 8.99991 Error: 1.00002 */
genomestart 6
trait 1 0.873502 0 0 0 0.554315 0.589217 0.477647 0.740707 
trait 2 0.2 0 0 0 0 0 0 0 
trait 3 0.289233 0 0 0 0 0 0 0.0284518 
node 1 1 1 3
node 2 1 1 1
node 3 3 1 1
node 4 3 0 2
gene 2 1 4 -2.39296 0 1 -2.39296 1
gene 3 2 4 8 0 2 8 1
gene 2 3 4 -8 0 3 -8 1
genomeend 6

/* Organism #7 Fitness: 8.99634 Error: 1.00061 */
genomestart 7
trait 1 0.985116 0 0 0 0.633503 0.673391 0.538741 0.846522 
trait 2 0.2 0 0 0 0 0 0 0 
trait 3 0.289453 0 0 0 0 0 0 0.0278711 
node 1 1 1 3
node 2 1 1 1
node 3 3 1 1
node 4 3 0 2
gene 2 1 4 -6.49697 0 1 -6.49697 1
gene 3 2 4 8 0 2 8 1
gene 2 3 4 -6.32263 0 3 -6.32263 1
genomeend 7

/* Organism #8 Fitness: 3.94484 Error: 2.01384 */
genomestart 8
trait 1 0.873502 0 0 0 0.554315 0.589217 0.477647 0.740707 
trait 2 0.2 0 0 0 0 0 0 0 
trait 3 0.289233 0 0 0 0 0 0 0.0284518 
node 1 1 1 3
node 2 1 1 1
node 3 3 1 1
node 4 3 0 2
gene 2 1 4 -3.48117 0 1 -3.48117 1
gene 3 2 4 2.06404 0 2 2.06404 1
gene 2 3 4 0.564135 0 3 0.564135 1
genomeend 8

/* Species #2 : (Size 8) (AF 6.15088) (Age 23)  */


/* Organism #9 Fitness: 8.99999 Error: 1 */
genomestart 9
trait 1 0.1 0 0 0 0 0 0 0 
trait 2 0.2 0 0 0 0 0 0 0 
trait 3 0.170381 0 0 0 0 0 0 0.424904 
node 1 2 1 3
node 2 3 1 1
node 3 2 1 1
node 4 2 0 2
node 5 1 0 0
gene 2 1 4 3.2717 0 1 3.2717 1
gene 3 2 4 -1.87262 0 2 -1.87262 0
gene 1 3 4 -5.94859 0 3 -5.94859 1
gene 3 2 5 -3.21059 0 4 -3.21059 1
gene 3 5 4 6.16393 0 5 6.16393 1
gene 2 1 5 0.804094 0 89 0.804094 1
genomeend 9

/* Organism #10 Fitness: 6.3662 Error: 1.47687 */
genomestart 10
trait 1 0.1 0 0 0 0 0 0 0 
trait 2 0.2 0 0 0 0 0 0 0 
trait 3 0.170381 0 0 0 0 0 0 0.424904 
node 1 2 1 3
node 2 3 1 1
node 3 2 1 1
node 4 2 0 2
node 5 1 0 0
node 71 1 0 0
gene 2 1 4 2.42786 0 1 2.42786 1
gene 3 2 4 -1.52509 0 2 -1.52509 0
gene 1 3 4 -5.122 0 3 -5.122 0
gene 3 2 5 -2.10788 0 4 -2.10788 1
gene 3 5 4 5.87477 0 5 5.87477 1
gene 2 1 5 1.37098 0 89 1.37098 1
gene 1 3 71 1 0 205 0 1
gene 1 71 4 -5.122 0 206 0 1
genomeend 10

/* Organism #11 Fitness: 4.00017 Error: 1.99996 */
genomestart 11
trait 1 0.1 0 0 0 0 0 0 0 
trait 2 0.2 0 0 0 0 0 0 0 
trait 3 0.170381 0 0 0 0 0 0 0.424904 
node 1 2 1 3
node 2 3 1 1
node 3 2 1 1
node 4 2 0 2
node 5 2 0 0
gene 2 1 4 2.10887 0 1 2.10887 1
gene 3 2 4 -3.64788 0 2 -3.64788 0
gene 1 3 4 -7.3574 0 3 -7.3574 1
gene 3 2 5 -3.33029 0 4 -3.33029 1
gene 3 5 4 5.9973 0 5 5.9973 1
gene 2 1 5 0.0426572 0 89 0.0426572 1
genomeend 11

/* Organism #12 Fitness: 4 Error: 2 */
genomestart 12
trait 1 0.1 0 0 0 0 0 0 0 
trait 2 0.2 0 0 0 0 0 0 0 
trait 3 0.170381 0 0 0 0 0 0 0.424904 
node 1 2 1 3
node 2 3 1 1
node 3 2 1 1
node 4 2 0 2
node 5 1 0 0
gene 2 1 4 4.06548 0 1 4.06548 1
gene 3 2 4 -1.2817 0 2 -1.2817 0
gene 1 3 4 -6.3776 0 3 -6.3776 1
gene 3 2 5 -1.75096 0 4 -1.75096 1
gene 3 5 4 7.37911 0 5 7.37911 1
gene 2 1 5 -1.37753 0 89 -1.37753 1
genomeend 12

/* Organism #13 Fitness: 3.84176 Error: 2.03996 */
genomestart 13
trait 1 0.1 0 0 0 0 0 0 0 
trait 2 0.2 0 0 0 0 0 0 0 
trait 3 0.170381 0 0 0 0 0 0 0.424904 
node 1 2 1 3
node 2 3 1 1
node 3 2 1 1
node 4 2 0 2
node 5 1 0 0
gene 2 1 4 0.542046 0 1 0.542046 1
gene 3 2 4 -2.51908 0 2 -2.51908 0
gene 1 3 4 -3.52687 0 3 -3.52687 1
gene 3 2 5 -3.63227 0 4 -3.63227 1
gene 3 5 4 6.95559 0 5 6.95559 1
gene 2 1 5 -0.711531 0 89 -0.711531 1
genomeend 13

/* Organism #14 Fitness: 4 Error: 2 */
genomestart 14
trait 1 0.1 0 0 0 0 0.146794 0 0 
trait 2 0.2 0 0 0 0 0 0 0 
trait 3 0.170381 0 0 0 0 0 0 0.424904 
node 1 2 1 3
node 2 3 1 1
node 3 2 1 1
node 4 2 0 2
node 5 1 0 0
gene 2 1 4 4.82646 0 1 4.82646 1
gene 3 2 4 0.222632 0 2 0.222632 0
gene 1 3 4 -1.23432 0 3 -1.23432 1
gene 3 2 5 -2.4329 0 4 -2.4329 1
gene 3 5 4 3.61663 0 5 3.61663 1
gene 2 1 5 -0.382466 0 89 -0.382466 1
genomeend 14

/* Organism #15 Fitness: 8.99999 Error: 1 */
genomestart 15
trait 1 0.1 0 0 0 0 0 0 0 
trait 2 0.2 0 0 0 0 0 0 0 
trait 3 0.170381 0 0 0 0 0 0 0.424904 
node 1 2 1 3
node 2 3 1 1
node 3 2 1 1
node 4 2 0 2
node 5 1 0 0
gene 2 1 4 3.2717 0 1 3.2717 1
gene 3 2 4 -1.87262 0 2 -1.87262 0
gene 1 3 4 -5.94859 0 3 -5.94859 1
gene 3 2 5 -3.21059 0 4 -3.21059 1
gene 3 5 4 6.16393 0 5 6.16393 1
gene 2 1 5 0.804094 0 89 0.804094 1
genomeend 15

/* Organism #16 Fitness: 8.99896 Error: 1.00017 */
genomestart 16
trait 1 0.1 0 0 0 0 0.93582 0 0 
trait 2 0.2 0 0 0 0 0 0 0 
trait 3 0.170381 0 0 0 0 0 0 0.424904 
node 1 2 1 3
node 2 3 1 1
node 3 2 1 1
node 4 2 0 2
node 5 1 0 0
gene 2 1 4 5.20573 0 1 5.20573 1
gene 3 2 4 -4.14846 0 2 -4.14846 0
gene 1 3 4 -6.96394 0 3 -6.96394 1
gene 3 2 5 -5.03582 0 4 -5.03582 1
gene 3 5 4 7.57023 0 5 7.57023 1
gene 2 1 5 2.94466 0 89 2.94466 1
genomeend 16

/* Species #3 : (Size 8) (AF 6.14373) (Age 22)  */


/* Organism #17 Fitness: 8.99482 Error: 1.00086 */
genomestart 17
trait 1 0.0987061 0 0 0 0 0 0.00829235 0 
trait 2 0.2 0 0 0 0 0 0 0 
trait 3 0.3 0 0 0 0 0 0 0 
node 1 3 1 3
node 2 1 1 1
node 3 1 1 1
node 4 3 0 2
node 8 1 0 0
gene 3 1 4 -5.78991 0 1 -5.78991 1
gene 1 2 4 1.33227 0 2 1.33227 0
gene 2 3 4 4.31754 0 3 4.31754 1
gene 1 2 8 -1.95471 0 10 -1.95471 1
gene 1 8 4 8 0 11 8 1
genomeend 17

/* Organism #18 Fitness: 8.99482 Error: 1.00086 */
genomestart 18
trait 1 0.0987061 0 0 0 0 0 0.00829235 0 
trait 2 0.2 0 0 0 0 0 0 0 
trait 3 0.3 0 0 0 0 0 0 0 
node 1 3 1 3
node 2 1 1 1
node 3 1 1 1
node 4 3 0 2
node 8 1 0 0
gene 3 1 4 -5.78991 0 1 -5.78991 1
gene 1 2 4 1.33227 0 2 1.33227 0
gene 2 3 4 4.31754 0 3 4.31754 1
gene 1 2 8 -1.95471 0 10 -1.95471 1
gene 1 8 4 8 0 11 8 1
genomeend 18

/* Organism #19 Fitness: 8.99445 Error: 1.00092 */
genomestart 19
trait 1 0.0987061 0 0 0 0 0 0.00829235 0 
trait 2 0.2 0 0 0 0 0 0 0 
trait 3 0.3 0 0 0 0 0 0 0 
node 1 3 1 3
node 2 1 1 1
node 3 1 1 1
node 4 3 0 2
node 8 1 0 0
gene 3 1 4 -5.09325 0 1 -5.09325 1
gene 1 2 4 2.92793 0 2 2.92793 0
gene 2 3 4 3.51567 0 3 3.51567 1
gene 1 2 8 -0.947066 0 10 -0.947066 1
gene 1 8 4 6.60957 0 11 6.60957 1
genomeend 19

/* Organism #20 Fitness: 8.78951 Error: 1.03529 */
genomestart 20
trait 1 0.0987061 0 0 0 0 0 0.00829235 0 
trait 2 0.2 0 0 0 0 0 0 0 
trait 3 0.3 0 0 0 0 0 0 0 
node 1 3 1 3
node 2 1 1 1
node 3 1 1 1
node 4 3 0 2
node 8 1 0 0
gene 3 1 4 -5.09325 0 1 -5.09325 1
gene 1 2 4 1.33227 0 2 1.33227 0
gene 2 3 4 4.31754 0 3 4.31754 1
gene 1 2 8 -0.947066 0 10 -0.947066 1
gene 1 8 4 8 0 11 8 1
genomeend 20

/* Organism #21 Fitness: 4.57642 Error: 1.86074 */
genomestart 21
trait 1 0.0987061 0 0 0 0 0 0.00829235 0 
trait 2 0.2 0 0 0 0 0 0 0 
trait 3 0.3 0 0 0 0 0 0 0 
node 1 3 1 3
node 2 1 1 1
node 3 1 1 1
node 4 3 0 2
node 8 1 0 0
node 71 1 0 0
gene 3 1 4 -5.78991 0 1 -5.78991 1
gene 1 2 4 1.33227 0 2 1.33227 0
gene 2 3 4 4.31754 0 3 4.31754 0
gene 1 2 8 -1.95471 0 10 -1.95471 1
gene 1 8 4 8 0 11 8 1
gene 2 3 71 1 0 205 0 1
gene 2 71 4 4.31754 0 206 0 1
genomeend 21

/* Organism #22 Fitness: 6.40317 Error: 1.46955 */
genomestart 22
trait 1 0.0987061 0 0 0 0 0 0.00829235 0 
trait 2 0.2 0 0 0 0 0 0 0 
trait 3 0.3 0 0 0 0 0 0 0 
node 1 3 1 3
node 2 1 1 1
node 3 1 1 1
node 4 3 0 2
node 8 1 0 0
gene 3 1 4 -5.4388 0 1 -5.4388 1
gene 1 2 4 0.582507 0 2 0.582507 0
gene 2 3 4 2.68442 0 3 2.68442 1
gene 1 2 8 -4.0202 0 10 -4.0202 1
gene 1 8 4 5.55829 0 11 5.55829 1
genomeend 22

/* Organism #23 Fitness: 1.00612 Error: 2.99694 */
genomestart 23
trait 1 0.0987061 0 0 0 0 0 0.00829235 0 
trait 2 0.2 0 0 0 0 0 0 0 
trait 3 0.3 0 0 0 0 0 0 0 
node 1 3 1 3
node 2 1 1 1
node 3 1 1 1
node 4 3 0 2
node 8 1 0 0
gene 3 1 4 -1.1758 0 1 -1.1758 1
gene 1 2 4 -0.969039 0 2 -0.969039 0
gene 2 3 4 6.07068 0 3 6.07068 1
gene 1 2 8 -1.95471 0 10 -1.95471 1
gene 1 8 4 8 0 11 8 1
genomeend 23

/* Organism #24 Fitness: 1.39056 Error: 2.82078 */
genomestart 24
trait 1 0.0987061 0 0 0 0 0 0.00829235 0 
trait 2 0.2 0 0 0 0 0 0 0 
trait 3 0.3 0 0 0 0 0 0 0 
node 1 3 1 3
node 2 1 1 1
node 3 1 1 1
node 4 3 0 2
node 8 1 0 0
gene 3 1 4 -5.09325 0 1 -5.09325 1
gene 1 2 4 4.19254 0 2 4.19254 0
gene 1 3 4 2.07848 0 3 2.07848 1
gene 1 2 8 0.199744 0 10 0.199744 1
gene 1 8 4 4.63037 0 11 4.63037 1
genomeend 24

/* Species #4 : (Size 8) (AF 6.28101) (Age 21)  */


/* Organism #25 Fitness: 8.99998 Error: 1 */
genomestart 25
trait 1 0.0875 0 0 0 0 0 0.0801073 0 
trait 2 0.248396 0 0.0930004 0 0 0 0 0 
trait 3 0.347815 0.138689 0.174419 0 0.224314 0 0 0.133218 
node 1 2 1 3
node 2 2 1 1
node 3 3 1 1
node 4 1 0 2
node 10 1 0 0
gene 2 1 4 -0.13271 0 1 -0.13271 1
gene 3 2 4 5.2738 0 2 5.2738 1
gene 3 3 4 -2.75535 0 3 -2.75535 1
gene 3 3 10 2.21593 0 14 2.21593 1
gene 3 10 4 -5.05442 0 15 -5.05442 1
gene 3 2 10 -0.694906 0 195 -0.694906 1
genomeend 25

/* Organism #26 Fitness: 8.99842 Error: 1.00026 */
genomestart 26
trait 1 0.0875 0 0 0 0 0 0.0801073 0 
trait 2 0.248396 0 0.0930004 0 0 0 0 0 
trait 3 0.347815 0.138689 0.174419 0 0.224314 0 0 0.133218 
node 1 2 1 3
node 2 2 1 1
node 3 3 1 1
node 4 1 0 2
node 10 1 0 0
gene 2 1 4 -0.534791 0 1 -0.534791 1
gene 3 2 4 4.79756 0 2 4.79756 1
gene 3 3 4 -3.71683 0 3 -3.71683 1
gene 3 3 10 -0.0138249 0 14 -0.0138249 1
gene 3 10 4 -4.94669 0 15 -4.94669 1
genomeend 26

/* Organism #27 Fitness: 3.97054 Error: 2.00738 */
genomestart 27
trait 1 0.0875 0 0.633503 0 0 0.964629 0.0801073 0 
trait 2 0.248396 0 0.0930004 0 0 0 0 0 
trait 3 0.347815 0.138689 0.174419 0 0.224314 0 0 0.133218 
node 1 2 1 3
node 2 2 1 1
node 3 3 1 1
node 4 1 0 2
node 10 1 0 0
gene 2 1 4 0.767815 0 1 0.767815 1
gene 3 2 4 6.80515 0 2 6.80515 1
gene 3 3 4 -0.503937 0 3 -0.503937 1
gene 3 3 10 0.596164 0 14 0.596164 1
gene 3 10 4 -3.52644 0 15 -3.52644 1
gene 3 2 10 -2.78687 0 195 -2.78687 1
genomeend 27

/* Organism #28 Fitness: 4.00038 Error: 1.9999 */
genomestart 28
trait 1 0.0875 0 0 0 0 0 0.0801073 0 
trait 2 0.248396 0 0.0930004 0 0 0 0 0 
trait 3 0.347815 0.138689 0.174419 0 0.224314 0 0 0.133218 
node 1 2 1 3
node 2 2 1 1
node 3 3 1 1
node 4 1 0 2
node 10 1 0 0
gene 2 1 4 -2.0141 0 1 -2.0141 1
gene 3 2 4 2.88459 0 2 2.88459 1
gene 3 3 4 -4.94787 0 3 -4.94787 1
gene 3 3 10 2.93335 0 14 2.93335 1
gene 1 10 4 -5.49969 0 15 -5.49969 1
genomeend 28

/* Organism #29 Fitness: 4.17201 Error: 1.95745 */
genomestart 29
trait 1 0.0875 0 0 0 0 0 0.0801073 0 
trait 2 0.248396 0 0.0930004 0 0 0 0 0 
trait 3 0.347815 0.138689 0.174419 0 0.224314 0 0 0.133218 
node 1 2 1 3
node 2 2 1 1
node 3 3 1 1
node 4 1 0 2
node 10 1 0 0
gene 2 1 4 -0.166433 0 1 -0.166433 1
gene 3 2 4 4.25517 0 2 4.25517 1
gene 3 3 4 -4.96115 0 3 -4.96115 1
gene 3 3 10 1.44458 0 14 1.44458 1
gene 3 10 4 1.11164 0 15 1.11164 1
gene 3 2 10 -1.56842 0 195 -1.56842 1
genomeend 29

/* Organism #30 Fitness: 4.06702 Error: 1.98331 */
genomestart 30
trait 1 0.0875 0 0 0 0 0 0.0801073 0 
trait 2 0.248396 0 0.0930004 0 0 0 0 0 
trait 3 0.347815 0.138689 0.975408 0 0.224314 0 0 0.133218 
node 1 2 1 3
node 2 2 1 1
node 3 3 1 1
node 4 1 0 2
node 10 1 0 0
gene 2 1 4 1.85122 0 1 1.85122 1
gene 3 2 4 6.8568 0 2 6.8568 1
gene 3 3 4 -0.373989 0 3 -0.373989 1
gene 3 3 10 -0.0977508 0 14 -0.0977508 1
gene 3 10 4 -3.31357 0 15 -3.31357 1
genomeend 30

/* Organism #31 Fitness: 7.0398 Error: 1.34674 */
genomestart 31
trait 1 0.0875 0 0 0 0 0 0.0801073 0 
trait 2 0.248396 0 0.0930004 0 0 0 0 0 
trait 3 0.347815 0.138689 0.174419 0 0.224314 0 0 0.133218 
node 1 2 1 3
node 2 2 1 1
node 3 3 1 1
node 4 1 0 2
node 10 1 0 0
gene 2 1 4 -2.26206 0 1 -2.26206 1
gene 3 2 4 3.78084 0 2 3.78084 1
gene 3 3 4 -3.01949 0 3 -3.01949 1
gene 3 3 10 0.806055 0 14 0.806055 1
gene 3 10 4 -4.22005 0 15 -4.22005 1
gene 3 2 10 -0.144353 0 195 -0.144353 1
genomeend 31

/* Organism #32 Fitness: 8.99995 Error: 1.00001 */
genomestart 32
trait 1 0.0875 0 0 0 0 0 0.0801073 0 
trait 2 0.248396 0 0.0930004 0 0 0 0 0 
trait 3 0.347815 0.138689 0.174419 0 0.224314 0 0 0.133218 
node 1 2 1 3
node 2 2 1 1
node 3 3 1 1
node 4 1 0 2
node 10 1 0 0
node 72 1 0 0
gene 2 1 4 -0.13271 0 1 -0.13271 1
gene 3 2 4 5.2738 0 2 5.2738 1
gene 3 3 4 -2.75535 0 3 -2.75535 1
gene 3 3 10 2.21593 0 14 2.21593 1
gene 3 10 4 -5.05442 0 15 -5.05442 0
gene 3 2 10 -0.694906 0 195 -0.694906 1
gene 3 10 72 1 0 207 0 1
gene 3 72 4 -5.05442 0 208 0 1
genomeend 32

/* Species #5 : (Size 8) (AF 6.64152) (Age 20)  */


/* Organism #33 Fitness: 8.99998 Error: 1 */
genomestart 33
trait 1 0.1 0 0 0 0 0 0 0 
trait 2 0.2 0 0 0 0 0 0 0 
trait 3 0 0 0 0 0 0 0 0.475936 
node 1 3 1 3
node 2 1 1 1
node 3 3 1 1
node 4 1 0 2
node 14 1 0 0
gene 2 1 4 -4.2484 0 1 -4.2484 1
gene 1 2 4 -6.07722 0 2 -6.07722 1
gene 3 3 4 6.81354 0 3 6.81354 1
gene 3 3 14 1.28973 0 25 1.28973 1
gene 3 14 4 0.896744 0 26 0.896744 1
gene 2 2 14 3.01151 0 52 3.01151 1
gene 1 1 14 1.577 0 113 1.577 1
genomeend 33

/* Organism #34 Fitness: 3.74553 Error: 2.06466 */
genomestart 34
trait 1 0.1 0 0 0 0 0 0 0 
trait 2 0.2 0 0 0 0 0 0 0 
trait 3 0 0 0 0 0 0 0 0.475936 
node 1 3 1 3
node 2 1 1 1
node 3 3 1 1
node 4 1 0 2
node 14 3 0 0
gene 2 1 4 -0.532014 0 1 -0.532014 1
gene 1 2 4 -0.671865 0 2 -0.671865 1
gene 3 3 4 -0.812098 0 3 -0.812098 1
gene 3 3 14 3.57488 0 25 3.57488 1
gene 3 14 4 0.00247581 0 26 0.00247581 1
gene 2 2 14 4.36478 0 52 4.36478 1
gene 1 1 14 1.42006 0 113 1.42006 1
genomeend 34

/* Organism #35 Fitness: 8.99984 Error: 1.00003 */
genomestart 35
trait 1 0.1 0 0 0 0 0 0 0 
trait 2 0.2 0 0 0 0 0 0 0 
trait 3 0 0 0 0 0 0 0 0.475936 
node 1 3 1 3
node 2 1 1 1
node 3 3 1 1
node 4 1 0 2
node 14 1 0 0
gene 2 1 4 -3.80447 0 1 -3.80447 1
gene 1 2 4 -5.32608 0 2 -5.32608 1
gene 3 3 4 5.71811 0 3 5.71811 1
gene 3 3 14 1.54059 0 25 1.54059 1
gene 3 14 4 1.24286 0 26 1.24286 1
gene 2 2 14 2.70667 0 52 2.70667 1
gene 1 1 14 1.37157 0 113 1.37157 1
genomeend 35

/* Organism #36 Fitness: 8.99975 Error: 1.00004 */
genomestart 36
trait 1 0.1 0 0 0 0 0 0 0 
trait 2 0.2 0 0 0 0 0 0 0 
trait 3 0 0 0 0 0 0 0 0.475936 
node 1 3 1 3
node 2 1 1 1
node 3 3 1 1
node 4 1 0 2
node 14 1 0 0
gene 2 1 4 -5.21141 0 1 -5.21141 1
gene 1 2 4 -4.87433 0 2 -4.87433 1
gene 3 3 4 4.07885 0 3 4.07885 1
gene 3 3 14 1.62986 0 25 1.62986 1
gene 3 14 4 3.18594 0 26 3.18594 1
gene 2 2 14 1.74301 0 52 1.74301 1
gene 1 1 14 0.0881527 0 113 0.0881527 1
genomeend 36

/* Organism #37 Fitness: 4.00074 Error: 1.99981 */
genomestart 37
trait 1 0.1 0 0 0 0 0 0 0 
trait 2 0.2 0 0 0 0 0 0 0 
trait 3 0 0 0 0 0 0 0 0.475936 
node 1 3 1 3
node 2 1 1 1
node 3 3 1 1
node 4 1 0 2
node 14 1 0 0
gene 2 1 4 -5.6389 0 1 -5.6389 1
gene 1 2 4 -5.77691 0 2 -5.77691 1
gene 3 3 4 4.15446 0 3 4.15446 1
gene 3 3 14 2.33537 0 25 2.33537 1
gene 3 14 4 -0.259907 0 26 -0.259907 1
gene 2 2 14 3.1773 0 52 3.1773 1
gene 3 1 14 0.139958 0 113 0.139958 1
genomeend 37

/* Organism #38 Fitness: 8.38181 Error: 1.10486 */
genomestart 38
trait 1 0.1 0 0 0 0 0 0 0 
trait 2 0.2 0 0 0 0 0 0 0 
trait 3 0 0 0 0 0 0 0 0.475936 
node 1 3 1 3
node 2 1 1 1
node 3 3 1 1
node 4 1 0 2
node 14 1 0 0
gene 2 1 4 -6.72131 0 1 -6.72131 1
gene 1 2 4 -6.98026 0 2 -6.98026 1
gene 3 3 4 6.81354 0 3 6.81354 1
gene 3 3 14 1.28973 0 25 1.28973 1
gene 3 14 4 0.962512 0 26 0.962512 1
gene 2 2 14 1.80214 0 52 1.80214 1
gene 1 1 14 -1.40957 0 113 -1.40957 1
genomeend 38

/* Organism #39 Fitness: 1.00667 Error: 2.99667 */
genomestart 39
trait 1 0.1 0 0 0 0 0 0 0 
trait 2 0.2 0 0 0 0 0 0 0 
trait 3 0 0 0 0 0 0 0 0.475936 
node 1 3 1 3
node 2 1 1 1
node 3 3 1 1
node 4 1 0 2
node 14 1 0 0
gene 2 1 4 -1.226 0 1 -1.226 1
gene 1 2 4 -3.22442 0 2 -3.22442 1
gene 3 3 4 4.15667 0 3 4.15667 1
gene 3 3 14 2.48247 0 25 2.48247 1
gene 3 14 4 3.03708 0 26 3.03708 1
gene 2 2 14 2.67329 0 52 2.67329 1
gene 1 1 14 0.291177 0 113 0.291177 1
genomeend 39

/* Organism #40 Fitness: 8.99781 Error: 1.00037 */
genomestart 40
trait 1 0.1 0 0 0 0 0 0 0 
trait 2 0.2 0 0 0 0 0 0 0 
trait 3 0 0 0 0 0 0 0 0.475936 
node 1 3 1 3
node 2 1 1 1
node 3 3 1 1
node 4 1 0 2
node 14 1 0 0
gene 2 1 4 -3.36054 0 1 -3.36054 1
gene 1 2 4 -4.57494 0 2 -4.57494 1
gene 3 3 4 4.62269 0 3 4.62269 1
gene 3 3 14 1.79146 0 25 1.79146 1
gene 3 14 4 1.58898 0 26 1.58898 1
gene 2 2 14 2.40183 0 52 2.40183 1
gene 1 1 14 1.16614 0 113 1.16614 1
genomeend 40

/* Species #6 : (Size 5) (AF 6.10304) (Age 18)  */


/* Organism #41 Fitness: 8.69952 Error: 1.0505 */
genomestart 41
trait 1 0.1 0 0 0 0 0 0 0 
trait 2 0.2 0 0 0 0 0 0 0 
trait 3 0.3 0 0 0 0 0 0 0 
node 1 3 1 3
node 2 1 1 1
node 3 3 1 1
node 4 3 0 2
node 8 1 0 0
node 22 1 0 0
gene 3 1 4 2.24937 0 1 2.24937 1
gene 1 2 4 3.14316 0 2 3.14316 0
gene 1 3 4 -2.56639 0 3 -2.56639 1
gene 1 2 8 -1.34285 0 10 -1.34285 1
gene 1 8 4 4.20369 0 11 4.20369 0
gene 2 1 8 0.227546 0 29 0.227546 1
gene 1 8 22 1.68334 0 48 1.68334 1
gene 1 22 4 -3.07033 0 49 -3.07033 1
genomeend 41

/* Organism #42 Fitness: 4 Error: 2 */
genomestart 42
trait 1 0.1 0 0 0 0 0 0 0 
trait 2 0.2 0 0 0 0 0 0 0 
trait 3 0.3 0 0 0 0 0 0 0 
node 1 3 1 3
node 2 1 1 1
node 3 3 1 1
node 4 3 0 2
node 8 1 0 0
node 22 1 0 0
gene 3 1 4 0.154118 0 1 0.154118 1
gene 1 2 4 1.6959 0 2 1.6959 0
gene 1 3 4 -1.87896 0 3 -1.87896 1
gene 1 2 8 -0.942293 0 10 -0.942293 1
gene 1 8 4 2.38097 0 11 2.38097 0
gene 2 1 8 1.44798 0 29 1.44798 1
gene 1 8 22 0.846294 0 48 0.846294 1
gene 1 22 4 -4.86726 0 49 -4.86726 1
genomeend 42

/* Organism #43 Fitness: 8.58442 Error: 1.07008 */
genomestart 43
trait 1 0.1 0 0 0 0 0 0 0 
trait 2 0.175372 0.727378 0.788537 0 0 0 1 1 
trait 3 0.3 0 0 0 0 0 0 0 
node 1 3 1 3
node 2 1 1 1
node 3 3 1 1
node 4 2 0 2
node 8 1 0 0
node 22 1 0 0
node 62 1 0 0
gene 3 1 4 0.584048 0 1 0.584048 1
gene 1 2 4 4.44485 0 2 4.44485 1
gene 1 3 4 -5.229 0 3 -5.229 1
gene 1 2 8 -1.05048 0 10 -1.05048 1
gene 1 8 4 1.72856 0 11 1.72856 0
gene 2 1 8 -2.05737 0 29 -2.05737 1
gene 3 8 22 4.51202 0 48 4.51202 0
gene 1 22 4 -1.11396 0 49 -1.11396 1
gene 3 8 62 1.97621 0 183 1.97621 1
gene 3 62 22 4.79867 0 184 4.79867 1
genomeend 43

/* Organism #44 Fitness: 4 Error: 2 */
genomestart 44
trait 1 0.1 0 0 0 0 0 0 0 
trait 2 0.187686 0.363689 0.394269 0 0 0 0.5 0.5 
trait 3 0.3 0 0 0 0 0 0 0 
node 1 3 1 3
node 2 1 1 1
node 3 3 1 1
node 4 2 0 2
node 8 1 0 0
node 22 1 0 0
gene 3 1 4 2.24937 0 1 2.24937 1
gene 1 2 4 2.6155 0 2 2.6155 0
gene 1 3 4 -6.10076 0 3 -6.10076 1
gene 1 2 8 -1.34285 0 10 -1.34285 1
gene 1 8 4 4.20369 0 11 4.20369 0
gene 2 1 8 0.227546 0 29 0.227546 1
gene 3 8 22 6.53967 0 48 6.53967 0
gene 1 22 4 -1.86838 0 49 -1.86838 1
genomeend 44

/* Organism #45 Fitness: 5.23128 Error: 1.7128 */
genomestart 45
trait 1 0.1 0 0 0 0 0 0 0 
trait 2 0.175372 0.727378 0.788537 0 0 0 1 1 
trait 3 0.3 0 0 0 0 0 0 0 
node 1 3 1 3
node 2 1 1 1
node 3 3 1 1
node 4 1 0 2
node 8 1 0 0
node 22 1 0 0
node 62 1 0 0
gene 3 1 4 -0.93173 0 1 -0.93173 1
gene 1 2 4 2.6155 0 2 2.6155 1
gene 1 3 4 -6.89554 0 3 -6.89554 1
gene 1 2 8 -2.52735 0 10 -2.52735 1
gene 1 8 4 1.66211 0 11 1.66211 0
gene 2 1 8 1.78712 0 29 1.78712 1
gene 3 8 22 5.55881 0 48 5.55881 1
gene 1 22 4 -1.86838 0 49 -1.86838 1
gene 3 8 62 -0.635243 0 183 -0.635243 1
gene 3 62 22 4.79867 0 184 4.79867 1
genomeend 45

/* Species #7 : (Size 5) (AF 4.84448) (Age 17)  */


/* Organism #46 Fitness: 7.80252 Error: 1.2067 */
genomestart 46
trait 1 0 0 0.920469 0 0 0 0.636739 0 
trait 2 0.2 0 0 0 0 0 0 0 
trait 3 0.3 0 0 0 0 0 0 0 
node 1 3 1 3
node 2 1 1 1
node 3 1 1 1
node 4 3 0 2
node 8 1 0 0
node 23 1 0 0
gene 2 1 4 -3.95389 0 1 -3.95389 1
gene 1 2 4 4.43547 0 2 4.43547 0
gene 2 3 4 -2.55351 0 3 -2.55351 1
gene 1 2 8 1.77682 0 10 1.77682 1
gene 1 8 4 -0.0454497 0 11 -0.0454497 0
gene 2 1 8 -1.20301 0 29 -1.20301 1
gene 1 8 23 3.37877 0 54 3.37877 1
gene 1 23 4 4.22703 0 55 4.22703 1
gene 2 1 23 -0.268685 0 120 -0.268685 1
gene 3 3 8 -0.181646 0 185 -0.181646 1
genomeend 46

/* Organism #47 Fitness: 4 Error: 2 */
genomestart 47
trait 1 0 0 0.920469 0 0 0 0.636739 0 
trait 2 0.2 0 0 0 0 0 0 0 
trait 3 0.3 0 0 0 0 0 0 0 
node 1 3 1 3
node 2 1 1 1
node 3 1 1 1
node 4 2 0 2
node 8 1 0 0
node 23 1 0 0
gene 2 1 4 -3.86359 0 1 -3.86359 1
gene 1 2 4 0.94821 0 2 0.94821 0
gene 2 3 4 -3.91319 0 3 -3.91319 1
gene 1 2 8 2.5103 0 10 2.5103 1
gene 1 8 4 -0.627438 0 11 -0.627438 0
gene 2 1 8 -1.8907 0 29 -1.8907 1
gene 1 8 23 0.974364 0 54 0.974364 1
gene 1 23 4 0.7725 0 55 0.7725 1
gene 2 1 23 0.422025 0 120 0.422025 1
gene 3 3 8 1.98395 0 185 1.98395 1
genomeend 47

/* Organism #48 Fitness: 4 Error: 2 */
genomestart 48
trait 1 0 0 0.920469 0 0 0 0.636739 0 
trait 2 0.2 0 0 0 0 0 0 0 
trait 3 0.3 0 0 0 0 0 0 0 
node 1 3 1 3
node 2 1 1 1
node 3 1 1 1
node 4 2 0 2
node 8 1 0 0
node 23 1 0 0
gene 2 1 4 -4.09214 0 1 -4.09214 1
gene 1 2 4 1.14284 0 2 1.14284 0
gene 2 3 4 -1.78044 0 3 -1.78044 1
gene 1 2 8 3.62964 0 10 3.62964 1
gene 1 8 4 0.764489 0 11 0.764489 0
gene 2 1 8 -0.811075 0 29 -0.811075 1
gene 1 8 23 -0.710852 0 54 -0.710852 1
gene 1 23 4 5.40661 0 55 5.40661 1
gene 2 1 23 -0.923818 0 120 -0.923818 1
gene 3 3 8 -2.23409 0 185 -2.23409 1
genomeend 48

/* Organism #49 Fitness: 4.21002 Error: 1.94817 */
genomestart 49
trait 1 0 0 0.920469 0 0 0 0.636739 0 
trait 2 0.2 0 0 0 0 0 0 0 
trait 3 0.3 0 0 0 0 0 0 0 
node 1 3 1 3
node 2 1 1 1
node 3 1 1 1
node 4 2 0 2
node 8 1 0 0
node 23 1 0 0
gene 2 1 4 -3.45022 0 1 -3.45022 1
gene 1 2 4 3.52819 0 2 3.52819 0
gene 2 3 4 -2.55351 0 3 -2.55351 1
gene 1 2 8 1.51822 0 10 1.51822 1
gene 1 8 4 -1.2359 0 11 -1.2359 0
gene 2 1 8 -0.219199 0 29 -0.219199 1
gene 1 8 23 3.37877 0 54 3.37877 1
gene 1 23 4 4.16023 0 55 4.16023 1
gene 2 1 23 -0.268685 0 120 -0.268685 1
gene 3 3 8 -0.181646 0 185 -0.181646 1
gene 3 3 23 0.448225 0 210 0.448225 1
genomeend 49

/* Organism #50 Fitness: 4.20986 Error: 1.94821 */
genomestart 50
trait 1 0 0 0.920469 0 0 0 0.636739 0 
trait 2 0.2 0 0 0 0 0 0 0 
trait 3 0.3 0 0 0 0 0 0 0 
node 1 3 1 3
node 2 1 1 1
node 3 1 1 1
node 4 2 0 2
node 8 1 0 0
node 23 1 0 0
gene 2 1 4 -3.45022 0 1 -3.45022 1
gene 1 2 4 3.52819 0 2 3.52819 0
gene 2 3 4 -2.55351 0 3 -2.55351 1
gene 1 2 8 1.51822 0 10 1.51822 1
gene 1 8 4 -1.2359 0 11 -1.2359 0
gene 2 1 8 -0.219199 0 29 -0.219199 1
gene 1 8 23 3.37877 0 54 3.37877 1
gene 1 23 4 4.16023 0 55 4.16023 1
gene 2 1 23 -0.268685 0 120 -0.268685 1
gene 3 3 8 -0.181646 0 185 -0.181646 1
gene 1 2 23 0.85461 0 211 0.85461 1
genomeend 50

/* Species #8 : (Size 10) (AF 8.05505) (Age 17)  */


/* Organism #51 Fitness: 9 Error: 1 */
genomestart 51
trait 1 0.1 0 0 0 0 0 0 0 
trait 2 0.1625 0.183638 0 0 0.0151296 0.142066 0 0 
trait 3 0.3 0 0.522401 0 0 0 0 0.476566 
node 1 3 1 3
node 2 1 1 1
node 3 3 1 1
node 4 3 0 2
node 14 1 0 0
node 24 3 0 0
gene 2 1 4 -1.04779 0 1 -1.04779 1
gene 2 2 4 6.42875 0 2 6.42875 1
gene 3 3 4 1.8456 0 3 1.8456 1
gene 3 3 14 2.93962 0 25 2.93962 1
gene 1 14 4 7.70645 0 26 7.70645 1
gene 1 2 24 -0.57741 0 58 -0.57741 1
gene 1 24 4 -4.29075 0 59 -4.29075 1
gene 2 1 14 -1.79376 0 71 -1.79376 1
genomeend 51

/* Organism #52 Fitness: 8.98913 Error: 1.00181 */
genomestart 52
trait 1 0.1 0 0 0 0 0 0 0 
trait 2 0.16875 0.153031 0 0 0.012608 0.118388 0 0 
trait 3 0.3 0 0.574641 0 0 0 0 0.524222 
node 1 3 1 3
node 2 1 1 1
node 3 3 1 1
node 4 3 0 2
node 14 1 0 0
node 24 1 0 0
gene 2 1 4 -2.21871 0 1 -2.21871 1
gene 2 2 4 6.59165 0 2 6.59165 1
gene 3 3 4 0.772874 0 3 0.772874 1
gene 3 3 14 6.4433 0 25 6.4433 1
gene 1 14 4 6.44207 0 26 6.44207 1
gene 1 2 24 -0.455527 0 58 -0.455527 1
gene 1 24 4 -3.98831 0 59 -3.98831 1
gene 2 1 14 -0.0366604 0 71 -0.0366604 1
genomeend 52

/* Organism #53 Fitness: 9 Error: 1 */
genomestart 53
trait 1 0.1 0 0 0 0 0 0 0 
trait 2 0.165625 0.168334 0 0 0.0138688 0.130227 0 0 
trait 3 0.3 0 0.548521 0 0 0 0 0.500394 
node 1 3 1 3
node 2 1 1 1
node 3 3 1 1
node 4 3 0 2
node 14 1 0 0
node 24 1 0 0
gene 2 1 4 -3.04027 0 1 -3.04027 1
gene 2 2 4 5.01773 0 2 5.01773 1
gene 3 3 4 3.13012 0 3 3.13012 1
gene 3 3 14 5.01694 0 25 5.01694 1
gene 1 14 4 8 0 26 8 1
gene 1 2 24 -3.25013 0 58 -3.25013 1
gene 1 24 4 -4.29617 0 59 -4.29617 1
gene 2 1 14 -0.200545 0 71 -0.200545 1
genomeend 53

/* Organism #54 Fitness: 4.00087 Error: 1.99978 */
genomestart 54
trait 1 0.1 0 0 0 0 0 0 0 
trait 2 0.165625 0.168334 0 0 0.0138688 0.130227 0 0 
trait 3 0.3 0 0.548521 0 0 0 0 0.500394 
node 1 3 1 3
node 2 1 1 1
node 3 3 1 1
node 4 3 0 2
node 14 1 0 0
node 24 3 0 0
gene 2 1 4 -1.37823 0 1 -1.37823 1
gene 2 2 4 8 0 2 8 1
gene 3 3 4 -0.000541704 0 3 -0.000541704 1
gene 3 3 14 5.20333 0 25 5.20333 1
gene 1 14 4 8 0 26 8 1
gene 1 2 24 -2.19068 0 58 -2.19068 1
gene 1 24 4 -4.86335 0 59 -4.86335 1
gene 2 1 14 0.162778 0 71 0.162778 1
genomeend 54

/* Organism #55 Fitness: 9 Error: 1 */
genomestart 55
trait 1 0.1 0 0 0 0 0 0 0 
trait 2 0.16875 0.153031 0 0 0.012608 0.118388 0 0 
trait 3 0.3 0 0.574641 0 0 0 0 0.524222 
node 1 3 1 3
node 2 1 1 1
node 3 3 1 1
node 4 3 0 2
node 14 1 0 0
node 24 1 0 0
gene 2 1 4 -2.65016 0 1 -2.65016 1
gene 2 2 4 7.31089 0 2 7.31089 1
gene 3 3 4 1.97492 0 3 1.97492 1
gene 3 3 14 1.60611 0 25 1.60611 1
gene 1 14 4 6.69217 0 26 6.69217 1
gene 1 2 24 -0.343753 0 58 -0.343753 1
gene 1 24 4 -5.889 0 59 -5.889 1
gene 2 1 14 -0.567606 0 71 -0.567606 1
genomeend 55

/* Organism #56 Fitness: 4.5832 Error: 1.85916 */
genomestart 56
trait 1 0.1 0 0 0 0 0 0 0 
trait 2 0.165625 0.168334 0 0 0.0138688 0.130227 0 0 
trait 3 0.3 0 0.548521 0 0 0 0 0.500394 
node 1 3 1 3
node 2 1 1 1
node 3 3 1 1
node 4 3 0 2
node 14 1 0 0
node 24 3 0 0
gene 2 1 4 -0.798223 0 1 -0.798223 1
gene 2 2 4 5.34947 0 2 5.34947 1
gene 3 3 4 1.9634 0 3 1.9634 1
gene 3 3 14 1.44528 0 25 1.44528 1
gene 1 14 4 8 0 26 8 1
gene 1 2 24 0.586051 0 58 0.586051 1
gene 1 24 4 -3.2297 0 59 -3.2297 1
gene 2 1 14 -2.36957 0 71 -2.36957 1
genomeend 56

/* Organism #57 Fitness: 8.97745 Error: 1.00376 */
genomestart 57
trait 1 0.1 0 0 0 0 0 0 0 
trait 2 0.165625 0.168334 0 0 0.0138688 0.130227 0 0 
trait 3 0.3 0 0.548521 0 0 0 0 0.500394 
node 1 3 1 3
node 2 1 1 1
node 3 3 1 1
node 4 3 0 2
node 14 1 0 0
node 24 1 0 0
node 73 1 0 0
gene 2 1 4 -1.04779 0 1 -1.04779 1
gene 2 2 4 6.42875 0 2 6.42875 1
gene 3 3 4 1.8456 0 3 1.8456 1
gene 3 3 14 4.05187 0 25 4.05187 1
gene 1 14 4 7.70645 0 26 7.70645 1
gene 1 2 24 -1.57807 0 58 -1.57807 0
gene 1 24 4 -4.29075 0 59 -4.29075 1
gene 2 1 14 -1.79376 0 71 -1.79376 1
gene 1 2 73 1 0 212 0 1
gene 1 73 24 -1.57807 0 213 0 1
genomeend 57

/* Organism #58 Fitness: 8.99991 Error: 1.00002 */
genomestart 58
trait 1 0.1 0 0 0 0 0 0 0 
trait 2 0.16875 0.153031 0 0 0.012608 0.118388 0 0 
trait 3 0.3 0 0.574641 0 0 0 0 0.524222 
node 1 3 1 3
node 2 1 1 1
node 3 3 1 1
node 4 3 0 2
node 14 1 0 0
node 24 1 0 0
gene 2 1 4 -1.04779 0 1 -1.04779 1
gene 2 2 4 6.03034 0 2 6.03034 1
gene 3 3 4 1.8456 0 3 1.8456 1
gene 3 3 14 4.05187 0 25 4.05187 1
gene 1 14 4 7.70645 0 26 7.70645 1
gene 1 2 24 -1.57807 0 58 -1.57807 1
gene 1 24 4 -4.29075 0 59 -4.29075 1
gene 2 1 14 -1.79376 0 71 -1.79376 1
gene 1 1 24 -0.190954 0 214 -0.190954 1
genomeend 58

/* Organism #59 Fitness: 9 Error: 1 */
genomestart 59
trait 1 0.1 0 0 0 0 0 0 0 
trait 2 0.16875 0.153031 0 0 0.012608 0.118388 0 0 
trait 3 0.3 0 0.574641 0 0 0 0 0.524222 
node 1 3 1 3
node 2 1 1 1
node 3 3 1 1
node 4 3 0 2
node 14 1 0 0
node 24 1 0 0
gene 2 1 4 -1.04779 0 1 -1.04779 1
gene 2 2 4 6.03034 0 2 6.03034 1
gene 3 3 4 1.8456 0 3 1.8456 1
gene 3 3 14 4.05187 0 25 4.05187 1
gene 1 14 4 7.70645 0 26 7.70645 1
gene 1 2 24 -1.57807 0 58 -1.57807 1
gene 1 24 4 -4.29075 0 59 -4.29075 1
gene 2 1 14 -1.79376 0 71 -1.79376 1
gene 1 14 24 -0.889706 0 215 -0.889706 1
genomeend 59

/* Organism #60 Fitness: 9 Error: 1 */
genomestart 60
trait 1 0.1 0 0 0 0 0 0 0 
trait 2 0.1625 0.183638 0 0 0.0151296 0.142066 0 0 
trait 3 0.3 0 0.522401 0 0 0 0 0.476566 
node 1 3 1 3
node 2 1 1 1
node 3 3 1 1
node 4 3 0 2
node 14 1 0 0
node 24 3 0 0
gene 2 1 4 -1.04779 0 1 -1.04779 1
gene 2 2 4 6.42875 0 2 6.42875 1
gene 3 3 4 1.8456 0 3 1.8456 1
gene 3 3 14 2.93962 0 25 2.93962 1
gene 1 14 4 7.70645 0 26 7.70645 1
gene 1 2 24 -0.57741 0 58 -0.57741 1
gene 1 24 4 -4.29075 0 59 -4.29075 1
gene 2 1 14 -1.79376 0 71 -1.79376 1
genomeend 60

/* Species #9 : (Size 10) (AF 7.2817) (Age 15)  */


/* Organism #61 Fitness: 9 Error: 1 */
genomestart 61
trait 1 0.235565 0.141247 0.0512735 0 0 0 0.0801073 0 
trait 2 0.277433 0 0.148801 0 0 0 0 0 
trait 3 0.27116 0 0 0 0.212432 0.895077 0.692038 0 
node 1 2 1 3
node 2 2 1 1
node 3 3 1 1
node 4 1 0 2
node 10 1 0 0
gene 3 1 4 3.85348 0 1 3.85348 1
gene 3 2 4 4.94657 0 2 4.94657 1
gene 3 3 4 -0.528447 0 3 -0.528447 1
gene 3 3 10 -6.48614 0 14 -6.48614 1
gene 3 10 4 -8 0 15 -8 1
gene 3 2 10 -0.773492 0 66 -0.773492 1
gene 3 1 10 0.935282 0 76 0.935282 1
genomeend 61

/* Organism #62 Fitness: 8.99824 Error: 1.00029 */
genomestart 62
trait 1 0.235565 0.141247 0.0512735 0 0 0 0.0801073 0 
trait 2 0.277433 0 0.148801 0 0 0 0 0 
trait 3 0.27116 0 0 0 0.212432 0.895077 0.692038 0 
node 1 2 1 3
node 2 2 1 1
node 3 3 1 1
node 4 1 0 2
node 10 1 0 0
gene 3 1 4 2.79052 0 1 2.79052 1
gene 3 2 4 6.29633 0 2 6.29633 1
gene 3 3 4 -0.559957 0 3 -0.559957 1
gene 3 3 10 -6.59456 0 14 -6.59456 1
gene 3 10 4 -7.42267 0 15 -7.42267 1
gene 3 2 10 1.39927 0 66 1.39927 1
gene 3 1 10 2.09537 0 76 2.09537 1
genomeend 62

/* Organism #63 Fitness: 8.99457 Error: 1.00091 */
genomestart 63
trait 1 0.63847 0.667753 0 0.894375 0.0561083 0.157842 0.0413793 0 
trait 2 1 0.654195 0.148801 0 0 0 0.995025 0 
trait 3 0.27116 0 0 0 0.212432 0.895077 0.692038 0 
node 1 2 1 3
node 2 2 1 1
node 3 3 1 1
node 4 1 0 2
node 10 1 0 0
gene 3 1 4 2.00383 0 1 2.00383 1
gene 3 2 4 7.34506 0 2 7.34506 1
gene 3 3 4 0.996639 0 3 0.996639 1
gene 3 3 10 -3.86891 0 14 -3.86891 1
gene 3 10 4 -7.92615 0 15 -7.92615 1
gene 3 2 10 0.125813 0 66 0.125813 1
gene 3 1 10 2.31029 0 76 2.31029 1
genomeend 63

/* Organism #64 Fitness: 4 Error: 2 */
genomestart 64
trait 1 0.235565 0.141247 0.0512735 0 0 0 0.0801073 0 
trait 2 0.277433 0 0.148801 0 0 0 0 0 
trait 3 0.27116 0 0 0 0.212432 0.895077 0.692038 0 
node 1 2 1 3
node 2 2 1 1
node 3 3 1 1
node 4 1 0 2
node 10 1 0 0
gene 3 1 4 3.9059 0 1 3.9059 1
gene 1 2 4 4.72851 0 2 4.72851 1
gene 3 3 4 -0.528447 0 3 -0.528447 1
gene 3 3 10 -1.68165 0 14 -1.68165 1
gene 3 10 4 -8 0 15 -8 1
gene 3 2 10 -2.45056 0 66 -2.45056 1
gene 3 1 10 2.07332 0 76 2.07332 1
genomeend 64

/* Organism #65 Fitness: 4 Error: 2 */
genomestart 65
trait 1 0.235565 0.141247 0.0512735 0 0.0561083 0 0.0801073 0 
trait 2 1 0.654195 0.148801 0 0 0 0.995025 0 
trait 3 0.27116 0 0 0 0.212432 0.895077 0.692038 0 
node 1 2 1 3
node 2 2 1 1
node 3 3 1 1
node 4 1 0 2
node 10 1 0 0
gene 3 1 4 5.58945 0 1 5.58945 1
gene 3 2 4 7.25091 0 2 7.25091 1
gene 3 3 4 2.32902 0 3 2.32902 1
gene 3 3 10 -7.48612 0 14 -7.48612 1
gene 3 10 4 -7.47638 0 15 -7.47638 1
gene 3 2 10 1.16298 0 66 1.16298 1
gene 3 1 10 -1.82519 0 76 -1.82519 1
genomeend 65

/* Organism #66 Fitness: 4 Error: 2 */
genomestart 66
trait 1 0.235565 0.141247 0.0512735 0 0 0 0.0801073 0 
trait 2 0.277433 0 0.148801 0 0 0 0 0 
trait 3 0.27116 0 0 0 0.212432 0.895077 0.692038 0 
node 1 2 1 3
node 2 2 1 1
node 3 3 1 1
node 4 1 0 2
node 10 1 0 0
gene 3 1 4 3.9075 0 1 3.9075 1
gene 3 2 4 2.35626 0 2 2.35626 1
gene 3 3 4 -0.752606 0 3 -0.752606 1
gene 3 3 10 -6.07704 0 14 -6.07704 1
gene 3 10 4 -8 0 15 -8 1
gene 3 2 10 -0.773492 0 66 -0.773492 1
gene 3 1 10 -1.01012 0 76 -1.01012 1
genomeend 66

/* Organism #67 Fitness: 9 Error: 1 */
genomestart 67
trait 1 0.235565 0.141247 0.0512735 0 0 0 0.0801073 0 
trait 2 0.277433 0 0.148801 0 0 0 0 0 
trait 3 0.27116 0 0 0 0.212432 0.895077 0.692038 0 
node 1 2 1 3
node 2 2 1 1
node 3 3 1 1
node 4 1 0 2
node 10 1 0 0
node 71 1 0 0
gene 3 1 4 3.85348 0 1 3.85348 1
gene 3 2 4 4.94657 0 2 4.94657 1
gene 3 3 4 -0.528447 0 3 -0.528447 0
gene 3 3 10 -6.48614 0 14 -6.48614 1
gene 3 10 4 -8 0 15 -8 1
gene 3 2 10 -0.773492 0 66 -0.773492 1
gene 3 1 10 0.935282 0 76 0.935282 1
gene 3 3 71 1 0 205 0 1
gene 3 71 4 -0.528447 0 206 0 1
genomeend 67

/* Organism #68 Fitness: 6.82421 Error: 1.38768 */
genomestart 68
trait 1 0.235565 0.141247 0.0512735 0 0 0 0.0801073 0 
trait 2 0.277433 0 0.148801 0 0 0 0 0 
trait 3 0.27116 0 0 0 0.212432 0.895077 0.692038 0 
node 1 2 1 3
node 2 2 1 1
node 3 3 1 1
node 4 1 0 2
node 10 1 0 0
gene 3 1 4 1.53461 0 1 1.53461 1
gene 3 2 4 4.43828 0 2 4.43828 1
gene 3 3 4 -1.44179 0 3 -1.44179 1
gene 3 3 10 -4.94313 0 14 -4.94313 1
gene 3 10 4 -6.20826 0 15 -6.20826 1
gene 3 2 10 -2.38174 0 66 -2.38174 1
gene 3 1 10 1.98645 0 76 1.98645 1
genomeend 68

/* Organism #69 Fitness: 9 Error: 1 */
genomestart 69
trait 1 0.235565 0.141247 0.0512735 0 0 0 0.0801073 0 
trait 2 0.277433 0 0.148801 0 0 0 0 0 
trait 3 0.27116 0 0 0 0.212432 0.895077 0.692038 0 
node 1 2 1 3
node 2 2 1 1
node 3 3 1 1
node 4 1 0 2
node 10 1 0 0
gene 3 1 4 3.85348 0 1 3.85348 1
gene 3 2 4 4.94657 0 2 4.94657 1
gene 3 3 4 -0.528447 0 3 -0.528447 1
gene 3 3 10 -6.48614 0 14 -6.48614 1
gene 3 10 4 -8 0 15 -8 1
gene 3 2 10 -0.773492 0 66 -0.773492 1
gene 3 1 10 0.935282 0 76 0.935282 1
genomeend 69

/* Organism #70 Fitness: 8.99999 Error: 1 */
genomestart 70
trait 1 0.235565 0.141247 0.0512735 0 0.0561083 0 0.0801073 0 
trait 2 1 0.654195 0.148801 0 0 0 0.995025 0 
trait 3 0.27116 0 0 0 0.212432 0.895077 0.692038 0 
node 1 2 1 3
node 2 2 1 1
node 3 3 1 1
node 4 1 0 2
node 10 1 0 0
gene 3 1 4 4.60096 0 1 4.60096 1
gene 3 2 4 8 0 2 8 1
gene 3 3 4 1.99559 0 3 1.99559 1
gene 3 3 10 -3.76897 0 14 -3.76897 1
gene 3 10 4 -8 0 15 -8 1
gene 2 2 10 2.32116 0 66 2.32116 1
gene 3 1 10 0.499325 0 76 0.499325 1
genomeend 70

/* Species #11 : (Size 6) (AF 4.82613) (Age 13)  */


/* Organism #71 Fitness: 8.9666 Error: 1.00557 */
genomestart 71
trait 1 0.0875 0 0 0 0 0 0.0801073 0 
trait 2 0.229037 0 0.0558002 0 0 0 0 0 
trait 3 0.333078 0.0924596 0.116279 0 0.140691 0 0 0.0799308 
node 1 2 1 3
node 2 2 1 1
node 3 2 1 1
node 4 1 0 2
node 10 1 0 0
node 33 1 0 0
node 67 1 0 0
gene 2 1 4 1.07091 0 1 1.07091 1
gene 3 2 4 1.56344 0 2 1.56344 0
gene 3 3 4 -8 0 3 -8 0
gene 3 3 10 1.36531 0 14 1.36531 0
gene 3 10 4 -2.56722 0 15 -2.56722 1
gene 3 3 33 1.08951 0 90 1.08951 1
gene 3 33 10 0.52591 0 91 0.52591 1
gene 1 2 33 -0.847423 0 149 -0.847423 1
gene 3 33 4 -2.17421 0 162 -2.17421 1
gene 3 2 67 1 0 196 0 1
gene 3 67 4 1.56344 0 197 0 1
genomeend 71

/* Organism #72 Fitness: 3.99395 Error: 2.00151 */
genomestart 72
trait 1 0.0875 0 0 0 0 0 0.0801073 0 
trait 2 0.229037 0 0.0558002 0 0 0 0 0 
trait 3 0.333078 0.0924596 0.116279 0 0.140691 0 0 0.0799308 
node 1 2 1 3
node 2 2 1 1
node 3 2 1 1
node 4 1 0 2
node 10 1 0 0
node 33 1 0 0
gene 2 1 4 1.45521 0 1 1.45521 1
gene 3 2 4 5.42495 0 2 5.42495 1
gene 3 3 4 -4.43895 0 3 -4.43895 0
gene 3 3 10 -1.89917 0 14 -1.89917 0
gene 3 10 4 -2.06176 0 15 -2.06176 1
gene 3 3 33 1.39813 0 90 1.39813 1
gene 1 33 10 -0.299463 0 91 -0.299463 1
gene 1 2 33 -0.863979 0 149 -0.863979 1
gene 3 33 4 -4.21163 0 162 -4.21163 1
genomeend 72

/* Organism #73 Fitness: 3.99875 Error: 2.00031 */
genomestart 73
trait 1 0.0875 0 0 0 0 0 0.0801073 0 
trait 2 0.229037 0 0.0558002 0 0 0 0 0 
trait 3 0.333078 0.0924596 0.116279 0 0.140691 0 0 0.0799308 
node 1 2 1 3
node 2 2 1 1
node 3 2 1 1
node 4 1 0 2
node 10 1 0 0
node 33 1 0 0
node 67 1 0 0
gene 2 1 4 1.07091 0 1 1.07091 1
gene 3 2 4 3.40935 0 2 3.40935 0
gene 3 3 4 -6.68282 0 3 -6.68282 0
gene 3 3 10 -0.161603 0 14 -0.161603 0
gene 3 10 4 -2.56722 0 15 -2.56722 1
gene 3 3 33 1.08951 0 90 1.08951 1
gene 3 33 10 1.06517 0 91 1.06517 1
gene 1 2 33 -2.6632 0 149 -2.6632 1
gene 3 33 4 -2.17421 0 162 -2.17421 1
gene 3 2 67 1 0 196 0 1
gene 3 67 4 1.56344 0 197 0 1
genomeend 73

/* Organism #74 Fitness: 3.99992 Error: 2.00002 */
genomestart 74
trait 1 0.0875 0 0 0 0 0 0.0801073 0 
trait 2 0.229037 0 0.0558002 0 0 0 0 0 
trait 3 0.333078 0.0924596 0.116279 0 0.140691 0 0 0.0799308 
node 1 2 1 3
node 2 2 1 1
node 3 2 1 1
node 4 1 0 2
node 10 1 0 0
node 33 1 0 0
node 67 1 0 0
gene 2 1 4 -1.32969 0 1 -1.32969 1
gene 3 2 4 0.305315 0 2 0.305315 0
gene 3 3 4 -8 0 3 -8 0
gene 3 3 10 0.634968 0 14 0.634968 0
gene 3 10 4 0.0312777 0 15 0.0312777 1
gene 3 3 33 2.82777 0 90 2.82777 1
gene 3 33 10 2.23128 0 91 2.23128 1
gene 1 2 33 0.261925 0 149 0.261925 1
gene 3 33 4 -2.36827 0 162 -2.36827 1
gene 3 2 67 1.51614 0 196 1.51614 1
gene 3 67 4 1.30571 0 197 1.30571 1
genomeend 74

/* Organism #75 Fitness: 4.00002 Error: 2 */
genomestart 75
trait 1 0.0875 0 0 0 0 0 0.0801073 0 
trait 2 0.229037 0 0.0558002 0 0 0 0 0 
trait 3 0.333078 0.0924596 0.116279 0 0.140691 0 0 0.0799308 
node 1 2 1 3
node 2 2 1 1
node 3 2 1 1
node 4 1 0 2
node 10 1 0 0
node 33 1 0 0
node 67 1 0 0
gene 1 1 4 -0.450592 0 1 -0.450592 1
gene 3 2 4 1.56344 0 2 1.56344 0
gene 3 3 4 -7.07208 0 3 -7.07208 0
gene 3 3 10 3.45202 0 14 3.45202 0
gene 3 10 4 -2.31186 0 15 -2.31186 1
gene 3 3 33 3.54961 0 90 3.54961 1
gene 3 33 10 2.40524 0 91 2.40524 1
gene 1 2 33 -3.18964 0 149 -3.18964 1
gene 3 33 4 -4.00098 0 162 -4.00098 1
gene 3 2 67 3.48695 0 196 3.48695 1
gene 3 67 4 -0.896962 0 197 -0.896962 1
genomeend 75

/* Organism #76 Fitness: 3.99758 Error: 2.00061 */
genomestart 76
trait 1 0.0875 0 0 0 0 0 0.0801073 0 
trait 2 0.229037 0 0.0558002 0 0 0 0 0 
trait 3 0.333078 0.0924596 0.116279 0 0.140691 0 0 0.0799308 
node 1 2 1 3
node 2 2 1 1
node 3 2 1 1
node 4 1 0 2
node 10 1 0 0
node 33 1 0 0
node 67 1 0 0
gene 2 1 4 2.64704 0 1 2.64704 1
gene 3 2 4 3.40935 0 2 3.40935 1
gene 3 3 4 -6.68282 0 3 -6.68282 0
gene 3 3 10 -0.161603 0 14 -0.161603 0
gene 3 10 4 -2.56722 0 15 -2.56722 1
gene 3 3 33 1.08951 0 90 1.08951 1
gene 3 33 10 1.06517 0 91 1.06517 1
gene 1 2 33 -2.6632 0 149 -2.6632 1
gene 3 33 4 -3.6111 0 162 -3.6111 1
gene 3 2 67 1 0 196 0 1
gene 3 67 4 1.56344 0 197 0 1
gene 3 1 67 -0.703818 0 216 -0.703818 1
genomeend 76

/* Species #12 : (Size 7) (AF 7.56142) (Age 13)  */


/* Organism #77 Fitness: 9 Error: 1 */
genomestart 77
trait 1 0.1 0 0 0 0 0 0 0 
trait 2 0.2 0 0 0 0 0 0 0 
trait 3 0.3 0 0 0 0 0 0 0 
node 1 3 1 3
node 2 1 1 1
node 3 3 1 1
node 4 3 0 2
node 14 1 0 0
gene 2 1 4 -3.22919 0 1 -3.22919 1
gene 1 2 4 -5.12498 0 2 -5.12498 1
gene 3 3 4 4.43078 0 3 4.43078 0
gene 3 3 14 3.7451 0 25 3.7451 1
gene 3 14 4 6.97706 0 26 6.97706 1
gene 1 1 14 -1.99288 0 60 -1.99288 1
gene 2 2 14 4.74345 0 92 4.74345 1
genomeend 77

/* Organism #78 Fitness: 3.9997 Error: 2.00007 */
genomestart 78
trait 1 0.1 0 0 0 0 0 0 0 
trait 2 0.2 0 0 0 0 0 0 0 
trait 3 0 0 0 0 0 0 0 0.707022 
node 1 1 1 3
node 2 1 1 1
node 3 3 1 1
node 4 3 0 2
node 14 1 0 0
gene 2 1 4 -2.0788 0 1 -2.0788 1
gene 1 2 4 2.39601 0 2 2.39601 1
gene 1 3 4 4.09093 0 3 4.09093 0
gene 3 3 14 -0.818354 0 25 -0.818354 1
gene 3 14 4 7.64858 0 26 7.64858 1
gene 1 1 14 -0.706427 0 60 -0.706427 1
gene 2 2 14 5.23824 0 92 5.23824 1
genomeend 78

/* Organism #79 Fitness: 9 Error: 1 */
genomestart 79
trait 1 0.1 0 0 0 0 0 0 0 
trait 2 0.2 0 0 0 0 0 0 0 
trait 3 0.15 0 0 0 0 0 0 0.353511 
node 1 1 1 3
node 2 1 1 1
node 3 1 1 1
node 4 3 0 2
node 14 1 0 0
gene 2 1 4 -3.04219 0 1 -3.04219 1
gene 1 2 4 -1.64156 0 2 -1.64156 1
gene 1 3 4 3.58674 0 3 3.58674 0
gene 3 3 14 3.4549 0 25 3.4549 1
gene 3 14 4 8 0 26 8 1
gene 1 1 14 -0.958102 0 60 -0.958102 1
gene 2 2 14 5.62529 0 92 5.62529 1
genomeend 79

/* Organism #80 Fitness: 8.99956 Error: 1.00007 */
genomestart 80
trait 1 0.1 0 0 0 0 0 0 0 
trait 2 0.2 0 0 0 0 0 0 0 
trait 3 0.3 0 0 0 0 0 0 0 
node 1 3 1 3
node 2 1 1 1
node 3 3 1 1
node 4 3 0 2
node 14 1 0 0
gene 2 1 4 -5.13111 0 1 -5.13111 1
gene 1 2 4 -7.26364 0 2 -7.26364 1
gene 3 3 4 5.95854 0 3 5.95854 0
gene 3 3 14 2.38337 0 25 2.38337 1
gene 3 14 4 8 0 26 8 1
gene 1 1 14 -0.0830103 0 60 -0.0830103 1
gene 2 2 14 5.89827 0 92 5.89827 1
genomeend 80

/* Organism #81 Fitness: 4 Error: 2 */
genomestart 81
trait 1 0.1 0 0 0 0 0 0 0 
trait 2 0.2 0 0 0 0 0 0 0 
trait 3 0 0 0 0 0 0 0 0.707022 
node 1 1 1 3
node 2 1 1 1
node 3 3 1 1
node 4 3 0 2
node 14 1 0 0
gene 2 1 4 -5.51694 0 1 -5.51694 1
gene 1 2 4 1.71651 0 2 1.71651 1
gene 1 3 4 2.64046 0 3 2.64046 0
gene 3 3 14 0.950957 0 25 0.950957 1
gene 3 14 4 8 0 26 8 1
gene 1 1 14 1.15284 0 60 1.15284 1
gene 2 2 14 7.16914 0 92 7.16914 1
genomeend 81

/* Organism #82 Fitness: 8.93071 Error: 1.01157 */
genomestart 82
trait 1 0.1 0 0 0 0 0 0 0 
trait 2 0.2 0 0 0 0 0 0 0 
trait 3 0.15 0 0 0 0 0 0 0.353511 
node 1 1 1 3
node 2 1 1 1
node 3 3 1 1
node 4 3 0 2
node 14 1 0 0
gene 2 1 4 -0.912076 0 1 -0.912076 1
gene 1 2 4 -0.618576 0 2 -0.618576 1
gene 1 3 4 3.34389 0 3 3.34389 1
gene 3 3 14 3.33366 0 25 3.33366 1
gene 3 14 4 6.84527 0 26 6.84527 1
gene 1 1 14 -1.34965 0 60 -1.34965 1
gene 2 2 14 5.42943 0 92 5.42943 1
genomeend 82

/* Organism #83 Fitness: 9 Error: 1 */
genomestart 83
trait 1 0.1 0 0 0 0 0 0 0 
trait 2 0.2 0 0 0 0 0 0 0 
trait 3 0 0 0 0 0 0 0 0.707022 
node 1 1 1 3
node 2 1 1 1
node 3 3 1 1
node 4 3 0 2
node 14 1 0 0
gene 2 1 4 -3.34944 0 1 -3.34944 1
gene 1 2 4 2.26959 0 2 2.26959 1
gene 1 3 4 2.257 0 3 2.257 0
gene 3 3 14 1.65433 0 25 1.65433 1
gene 3 14 4 8 0 26 8 1
gene 1 1 14 -0.706427 0 60 -0.706427 1
gene 2 2 14 6.7975 0 92 6.7975 1
genomeend 83

/* Species #13 : (Size 7) (AF 5.58435) (Age 12)  */


/* Organism #84 Fitness: 8.99979 Error: 1.00004 */
genomestart 84
trait 1 0.1 0 0 0 0 0 0 0 
trait 2 0.2 0 0 0 0 0 0 0 
trait 3 0.3 0 0 0 0 0 0 0 
node 1 3 1 3
node 2 1 1 1
node 3 2 1 1
node 4 3 0 2
node 14 1 0 0
node 35 1 0 0
node 52 1 0 0
gene 2 1 4 -3.42344 0 1 -3.42344 1
gene 1 2 4 -4.78211 0 2 -4.78211 1
gene 3 3 4 5.48593 0 3 5.48593 1
gene 3 3 14 0.92729 0 25 0.92729 1
gene 3 14 4 3.31164 0 26 3.31164 1
gene 2 2 14 3.81779 0 52 3.81779 0
gene 2 1 14 -1.04592 0 77 -1.04592 1
gene 2 2 35 3.94856 0 97 3.94856 1
gene 2 35 14 -0.401669 0 98 -0.401669 1
gene 1 35 4 -2.53735 0 116 -2.53735 1
gene 1 35 52 2.40233 0 152 2.40233 1
gene 1 52 4 -2.02861 0 153 -2.02861 1
gene 1 52 14 2.01965 0 172 2.01965 1
genomeend 84

/* Organism #85 Fitness: 1.00097 Error: 2.99951 */
genomestart 85
trait 1 0.1 0 0 0 0 0 0 0 
trait 2 0.2 0 0 0 0 0 0 0 
trait 3 0.3 0 0 0 0 0 0 0 
node 1 3 1 3
node 2 1 1 1
node 3 2 1 1
node 4 3 0 2
node 14 1 0 0
node 35 1 0 0
node 52 1 0 0
gene 2 1 4 0.300233 0 1 0.300233 1
gene 1 2 4 -4.55787 0 2 -4.55787 1
gene 3 3 4 5.8834 0 3 5.8834 1
gene 3 3 14 1.74538 0 25 1.74538 1
gene 3 14 4 3.74493 0 26 3.74493 1
gene 2 2 14 -0.995956 0 52 -0.995956 0
gene 2 1 14 0.784928 0 77 0.784928 1
gene 2 2 35 0.634014 0 97 0.634014 1
gene 2 35 14 -2.97507 0 98 -2.97507 1
gene 1 35 4 -3.32553 0 116 -3.32553 1
gene 1 35 52 -0.119495 0 152 -0.119495 1
gene 1 52 4 -1.16108 0 153 -1.16108 1
gene 1 52 14 3.03317 0 172 3.03317 1
genomeend 85

/* Organism #86 Fitness: 5.45286 Error: 1.66486 */
genomestart 86
trait 1 0.1 0 0 0 0 0 0 0 
trait 2 0.2 0 0 0 0 0 0 0 
trait 3 0.3 0 0 0 0 0 0 0 
node 1 3 1 3
node 2 1 1 1
node 3 2 1 1
node 4 3 0 2
node 14 1 0 0
node 35 1 0 0
node 52 1 0 0
gene 2 1 4 -2.16326 0 1 -2.16326 1
gene 1 2 4 -1.89711 0 2 -1.89711 1
gene 3 3 4 3.5593 0 3 3.5593 1
gene 3 3 14 1.05785 0 25 1.05785 1
gene 3 14 4 1.788 0 26 1.788 1
gene 2 2 14 1.96699 0 52 1.96699 0
gene 2 1 14 0.908795 0 77 0.908795 1
gene 2 2 35 1.48463 0 97 1.48463 1
gene 2 35 14 -1.95033 0 98 -1.95033 1
gene 1 35 4 -0.293558 0 116 -0.293558 1
gene 1 35 52 -1.11438 0 152 -1.11438 1
gene 1 52 4 -0.990173 0 153 -0.990173 1
gene 1 52 14 0.492035 0 172 0.492035 1
genomeend 86

/* Organism #87 Fitness: 6.93513 Error: 1.36654 */
genomestart 87
trait 1 0.1 0 0 0 0 0 0 0 
trait 2 0.2 0 0 0 0 0 0 0 
trait 3 0.3 0 0 0 0 0 0 0 
node 1 3 1 3
node 2 1 1 1
node 3 2 1 1
node 4 3 0 2
node 14 1 0 0
node 35 1 0 0
node 52 1 0 0
gene 2 1 4 -1.73997 0 1 -1.73997 1
gene 1 2 4 -6.59155 0 2 -6.59155 1
gene 3 3 4 5.12734 0 3 5.12734 1
gene 3 3 14 -0.565142 0 25 -0.565142 1
gene 3 14 4 0.935926 0 26 0.935926 1
gene 2 2 14 5.48868 0 52 5.48868 0
gene 2 1 14 0.2528 0 77 0.2528 1
gene 2 2 35 4.24169 0 97 4.24169 1
gene 2 35 14 0.428205 0 98 0.428205 1
gene 1 35 4 -2.79272 0 116 -2.79272 1
gene 1 35 52 0.707556 0 152 0.707556 1
gene 1 52 4 -3.3052 0 153 -3.3052 1
gene 1 52 14 1.46504 0 172 1.46504 1
genomeend 87

/* Organism #88 Fitness: 8.99875 Error: 1.00021 */
genomestart 88
trait 1 0.1 0 0 0 0 0 0 0 
trait 2 0.2 0 0 0 0 0 0 0 
trait 3 0.3 0 0 0 0 0 0 0 
node 1 3 1 3
node 2 1 1 1
node 3 2 1 1
node 4 2 0 2
node 14 1 0 0
node 35 1 0 0
node 52 1 0 0
gene 2 1 4 -4.43155 0 1 -4.43155 1
gene 1 2 4 -7.23869 0 2 -7.23869 1
gene 3 3 4 5.86383 0 3 5.86383 1
gene 3 3 14 2.78159 0 25 2.78159 1
gene 3 14 4 5.05898 0 26 5.05898 1
gene 2 2 14 6.15902 0 52 6.15902 0
gene 2 1 14 -0.399838 0 77 -0.399838 1
gene 2 2 35 5.20257 0 97 5.20257 1
gene 2 35 14 -1.78805 0 98 -1.78805 1
gene 1 35 4 -3.5624 0 116 -3.5624 1
gene 1 35 52 0.135258 0 152 0.135258 1
gene 1 52 4 -0.0961333 0 153 -0.0961333 1
gene 1 52 14 2.9832 0 172 2.9832 1
genomeend 88

/* Organism #89 Fitness: 4 Error: 2 */
genomestart 89
trait 1 0.1 0 0 0 0 0 0 0 
trait 2 0.2 0 0 0 0 0 0 0 
trait 3 0.3 0 0 0 0 0 0 0 
node 1 3 1 3
node 2 1 1 1
node 3 2 1 1
node 4 3 0 2
node 14 1 0 0
node 35 1 0 0
node 52 1 0 0
gene 2 1 4 -2.26722 0 1 -2.26722 1
gene 1 2 4 -5.67225 0 2 -5.67225 1
gene 3 3 4 -2.20595 0 3 -2.20595 1
gene 3 3 14 -1.53624 0 25 -1.53624 1
gene 3 14 4 2.85211 0 26 2.85211 1
gene 2 2 14 4.04332 0 52 4.04332 0
gene 2 1 14 -1.04592 0 77 -1.04592 1
gene 2 2 35 3.5683 0 97 3.5683 1
gene 2 35 14 -0.493149 0 98 -0.493149 1
gene 1 35 4 -0.180181 0 116 -0.180181 1
gene 1 35 52 0.765084 0 152 0.765084 1
gene 1 52 4 -3.92869 0 153 -3.92869 1
gene 1 52 14 2.29836 0 172 2.29836 1
genomeend 89

/* Organism #90 Fitness: 3.70296 Error: 2.07569 */
genomestart 90
trait 1 0.1 0 0 0 0 0 0 0 
trait 2 0.2 0 0 0 0 0 0 0 
trait 3 0.3 0 0 0 0 0 0 0 
node 1 3 1 3
node 2 1 1 1
node 3 2 1 1
node 4 3 0 2
node 14 1 0 0
node 35 1 0 0
node 52 1 0 0
gene 2 1 4 1.12049 0 1 1.12049 1
gene 1 2 4 -1.38158 0 2 -1.38158 1
gene 3 3 4 3.66466 0 3 3.66466 1
gene 3 3 14 4.53473 0 25 4.53473 1
gene 3 14 4 -0.554903 0 26 -0.554903 1
gene 2 2 14 -2.27924 0 52 -2.27924 0
gene 2 1 14 0.202292 0 77 0.202292 1
gene 2 2 35 0.70603 0 97 0.70603 1
gene 2 35 14 -0.92964 0 98 -0.92964 1
gene 1 35 4 0.825098 0 116 0.825098 1
gene 1 35 52 -0.182897 0 152 -0.182897 1
gene 1 52 4 -0.00225837 0 153 -0.00225837 1
gene 1 52 14 0.520875 0 172 0.520875 1
genomeend 90

/* Species #14 : (Size 8) (AF 7.03336) (Age 11)  */


/* Organism #91 Fitness: 8.99984 Error: 1.00003 */
genomestart 91
trait 1 0.0875 0 0.317881 0 0 0 0 0 
trait 2 0.2 0 0 0 0 0 0 0 
trait 3 0.3 0 0 0 0 0 0 0 
node 1 2 1 3
node 2 2 1 1
node 3 2 1 1
node 4 1 0 2
node 10 1 0 0
gene 2 1 4 3.22148 0 1 3.22148 1
gene 3 2 4 -5.52552 0 2 -5.52552 1
gene 3 3 4 -3.75467 0 3 -3.75467 0
gene 3 3 10 -7.17578 0 14 -7.17578 1
gene 3 10 4 4.56663 0 15 4.56663 1
gene 3 2 10 1.65059 0 112 1.65059 1
gene 1 1 10 2.31043 0 127 2.31043 1
genomeend 91

/* Organism #92 Fitness: 8.99734 Error: 1.00044 */
genomestart 92
trait 1 0.0875 0 0.317881 0 0 0 0 0 
trait 2 0.2 0.191748 0 0 0 0.831141 0 0 
trait 3 0.3 0 0 0 0 0 0 0 
node 1 2 1 3
node 2 2 1 1
node 3 2 1 1
node 4 1 0 2
node 10 1 0 0
gene 2 1 4 5.23845 0 1 5.23845 1
gene 3 2 4 -7.21754 0 2 -7.21754 1
gene 3 3 4 -2.90397 0 3 -2.90397 0
gene 3 3 10 -7.29388 0 14 -7.29388 1
gene 3 10 4 3.57561 0 15 3.57561 1
gene 3 2 10 -0.555818 0 112 -0.555818 1
gene 1 1 10 4.16771 0 127 4.16771 1
genomeend 92

/* Organism #93 Fitness: 4.00021 Error: 1.99995 */
genomestart 93
trait 1 0.0875 0 0.317881 0 0 0 0 0 
trait 2 0.2 0 0 0 0 0 0 0 
trait 3 0.3 0 0 0 0 0 0 0 
node 1 2 1 3
node 2 2 1 1
node 3 2 1 1
node 4 1 0 2
node 10 1 0 0
gene 2 1 4 5.18626 0 1 5.18626 1
gene 3 2 4 -3.18185 0 2 -3.18185 1
gene 3 3 4 -4.4891 0 3 -4.4891 0
gene 3 3 10 -8 0 14 -8 1
gene 3 10 4 3.77307 0 15 3.77307 1
gene 3 2 10 0.106586 0 112 0.106586 1
gene 1 1 10 1.54426 0 127 1.54426 1
genomeend 93

/* Organism #94 Fitness: 4.15015 Error: 1.96281 */
genomestart 94
trait 1 0.0875 0 0.317881 0 0 0 0 0 
trait 2 0.2 0 0 0 0 0 0 0 
trait 3 0.3 0 0 0 0 0 0 0 
node 1 2 1 3
node 2 2 1 1
node 3 2 1 1
node 4 1 0 2
node 10 1 0 0
gene 2 1 4 4.31602 0 1 4.31602 1
gene 3 2 4 -3.65527 0 2 -3.65527 1
gene 3 3 4 -5.81688 0 3 -5.81688 0
gene 3 3 10 -8 0 14 -8 1
gene 3 10 4 2.68936 0 15 2.68936 1
gene 3 2 10 0.734886 0 112 0.734886 1
gene 1 1 10 3.38598 0 127 3.38598 1
genomeend 94

/* Organism #95 Fitness: 7.93274 Error: 1.18349 */
genomestart 95
trait 1 0.0875 0 0.317881 0 0 0 0 0 
trait 2 0.2 0 0 0 0 0 0 0 
trait 3 0.3 0 0 0 0 0 0 0 
node 1 2 1 3
node 2 2 1 1
node 3 2 1 1
node 4 1 0 2
node 10 1 0 0
gene 2 1 4 4.03579 0 1 4.03579 1
gene 1 2 4 -4.33896 0 2 -4.33896 1
gene 3 3 4 -6.09476 0 3 -6.09476 0
gene 3 3 10 -8 0 14 -8 1
gene 3 10 4 4.7537 0 15 4.7537 1
gene 3 2 10 3.09198 0 112 3.09198 1
gene 1 1 10 0.810213 0 127 0.810213 1
genomeend 95

/* Organism #96 Fitness: 8.9996 Error: 1.00007 */
genomestart 96
trait 1 0.0875 0 0.317881 0 0 0 0 0 
trait 2 0.2 0 0 0 0 0 0 0 
trait 3 0.3 0 0 0 0 0 0 0 
node 1 2 1 3
node 2 2 1 1
node 3 2 1 1
node 4 1 0 2
node 10 1 0 0
gene 2 1 4 1.9571 0 1 1.9571 1
gene 3 2 4 -5.81768 0 2 -5.81768 1
gene 3 3 4 0.376293 0 3 0.376293 0
gene 3 3 10 -5.49231 0 14 -5.49231 1
gene 3 10 4 6.70544 0 15 6.70544 1
gene 3 2 10 1.82245 0 112 1.82245 1
gene 1 1 10 2.94551 0 127 2.94551 1
genomeend 96

/* Organism #97 Fitness: 4.18738 Error: 1.95369 */
genomestart 97
trait 1 0.0875 0 0.317881 0 0 0 0 0 
trait 2 0.2 0 0 0 0 0 0 0 
trait 3 0.3 0 0 0 0 0 0 0 
node 1 2 1 3
node 2 2 1 1
node 3 2 1 1
node 4 1 0 2
node 10 1 0 0
gene 2 1 4 3.31819 0 1 3.31819 1
gene 3 2 4 -5.6716 0 2 -5.6716 1
gene 3 3 4 -3.93242 0 3 -3.93242 1
gene 3 3 10 -7.28427 0 14 -7.28427 1
gene 3 10 4 4.5785 0 15 4.5785 1
gene 3 2 10 1.78199 0 112 1.78199 1
gene 1 1 10 2.56293 0 127 2.56293 1
genomeend 97

/* Organism #98 Fitness: 8.99966 Error: 1.00006 */
genomestart 98
trait 1 0.0875 0 0.317881 0 0 0 0 0 
trait 2 0.2 0 0 0 0 0 0 0 
trait 3 0.3 0 0 0 0 0 0 0 
node 1 2 1 3
node 2 2 1 1
node 3 2 1 1
node 4 1 0 2
node 10 1 0 0
gene 2 1 4 3.22148 0 1 3.22148 1
gene 3 2 4 -5.81768 0 2 -5.81768 1
gene 3 3 4 -3.75467 0 3 -3.75467 0
gene 3 3 10 -7.39277 0 14 -7.39277 1
gene 3 10 4 4.59037 0 15 4.59037 1
gene 3 2 10 1.9134 0 112 1.9134 1
gene 1 1 10 2.81543 0 127 2.81543 1
genomeend 98

/* Species #15 : (Size 6) (AF 4.94413) (Age 10)  */


/* Organism #99 Fitness: 4.04138 Error: 1.98968 */
genomestart 99
trait 1 0.1 0 0 0 0 0 0 0 
trait 2 0.2 0 0 0 0 0 0 0 
trait 3 0.3 0 0 0 0 0 0 0 
node 1 3 1 3
node 2 1 1 1
node 3 1 1 1
node 4 3 0 2
node 8 1 0 0
node 22 1 0 0
node 41 1 0 0
node 45 1 0 0
gene 3 1 4 -1.75384 0 1 -1.75384 1
gene 1 2 4 3.57126 0 2 3.57126 0
gene 1 3 4 -4.54785 0 3 -4.54785 1
gene 1 2 8 2.99469 0 10 2.99469 1
gene 1 8 4 0.760521 0 11 0.760521 0
gene 2 1 8 -0.997314 0 29 -0.997314 1
gene 1 8 22 -0.659223 0 48 -0.659223 1
gene 2 22 4 2.80666 0 49 2.80666 0
gene 1 22 41 -0.665014 0 117 -0.665014 1
gene 1 41 4 1.2773 0 118 1.2773 0
gene 1 41 45 0.955672 0 130 0.955672 1
gene 1 45 4 1.01431 0 131 1.01431 1
genomeend 99

/* Organism #100 Fitness: 4 Error: 2 */
genomestart 100
trait 1 0.1 0 0 0 0 0 0 0 
trait 2 0.384332 0.561022 0 0 0 0 0 0.769799 
trait 3 0.3 0 0 0 0 0 0 0 
node 1 3 1 3
node 2 1 1 1
node 3 1 1 1
node 4 3 0 2
node 8 1 0 0
node 22 1 0 0
node 41 1 0 0
node 45 2 0 0
gene 3 1 4 -4.28863 0 1 -4.28863 1
gene 1 2 4 3.68014 0 2 3.68014 0
gene 1 3 4 -7.65852 0 3 -7.65852 1
gene 1 2 8 1.99429 0 10 1.99429 1
gene 1 8 4 -0.109104 0 11 -0.109104 0
gene 2 1 8 0.325892 0 29 0.325892 1
gene 1 8 22 -1.25075 0 48 -1.25075 1
gene 2 22 4 1.30446 0 49 1.30446 0
gene 1 22 41 -1.64954 0 117 -1.64954 1
gene 1 41 4 -1.39605 0 118 -1.39605 0
gene 1 41 45 0.955672 0 130 0.955672 1
gene 1 45 4 -1.05541 0 131 -1.05541 1
genomeend 100

/* Organism #101 Fitness: 8.70616 Error: 1.04938 */
genomestart 101
trait 1 0.1 0 0 0 0 0 0 0 
trait 2 0.2 0 0 0 0 0 0 0 
trait 3 0.3 0 0 0 0 0 0 0 
node 1 3 1 3
node 2 1 1 1
node 3 1 1 1
node 4 3 0 2
node 8 1 0 0
node 22 1 0 0
node 41 1 0 0
node 45 1 0 0
gene 3 1 4 -0.311228 0 1 -0.311228 1
gene 1 2 4 2.53264 0 2 2.53264 1
gene 1 3 4 -4.54785 0 3 -4.54785 1
gene 1 2 8 3.84303 0 10 3.84303 1
gene 1 8 4 0.760521 0 11 0.760521 0
gene 3 1 8 -0.997314 0 29 -0.997314 1
gene 1 8 22 1.08308 0 48 1.08308 1
gene 2 22 4 5.2785 0 49 5.2785 0
gene 1 22 41 1.17777 0 117 1.17777 1
gene 1 41 4 -0.519707 0 118 -0.519707 0
gene 1 41 45 -0.0225227 0 130 -0.0225227 1
gene 1 45 4 -0.611644 0 131 -0.611644 1
genomeend 101

/* Organism #102 Fitness: 4.90428 Error: 1.78544 */
genomestart 102
trait 1 0.1 0 0 0 0 0 0 0 
trait 2 0.384332 0.561022 0 0 0 0 0 0.769799 
trait 3 0.3 0 0 0 0 0 0 0 
node 1 3 1 3
node 2 1 1 1
node 3 1 1 1
node 4 3 0 2
node 8 1 0 0
node 22 1 0 0
node 41 3 0 0
node 45 2 0 0
gene 3 1 4 -3.38986 0 1 -3.38986 1
gene 1 2 4 0.183477 0 2 0.183477 0
gene 1 3 4 -6.91166 0 3 -6.91166 1
gene 1 2 8 3.74957 0 10 3.74957 1
gene 1 8 4 2.20145 0 11 2.20145 1
gene 2 1 8 -2.57703 0 29 -2.57703 1
gene 1 8 22 1.02975 0 48 1.02975 1
gene 2 22 4 2.81284 0 49 2.81284 1
gene 1 22 41 0.874813 0 117 0.874813 1
gene 1 41 4 2.27899 0 118 2.27899 0
gene 1 41 45 1.58679 0 130 1.58679 1
gene 1 45 4 -1.86415 0 131 -1.86415 1
genomeend 102

/* Organism #103 Fitness: 4.01297 Error: 1.99676 */
genomestart 103
trait 1 0.1 0 0 0 0 0 0 0 
trait 2 0.292166 0.280511 0 0 0 0 0 0.384899 
trait 3 0.3 0 0 0 0 0 0 0 
node 1 3 1 3
node 2 1 1 1
node 3 1 1 1
node 4 3 0 2
node 8 1 0 0
node 22 1 0 0
node 41 1 0 0
node 45 2 0 0
gene 3 1 4 -0.391018 0 1 -0.391018 1
gene 1 2 4 4.85369 0 2 4.85369 0
gene 1 3 4 1.6583 0 3 1.6583 1
gene 1 2 8 3.60285 0 10 3.60285 1
gene 1 8 4 1.18431 0 11 1.18431 0
gene 2 1 8 -0.885723 0 29 -0.885723 1
gene 1 8 22 -1.79085 0 48 -1.79085 1
gene 2 22 4 3.65793 0 49 3.65793 0
gene 1 22 41 -2.7508 0 117 -2.7508 1
gene 1 41 4 0.673605 0 118 0.673605 0
gene 1 41 45 -0.245537 0 130 -0.245537 1
gene 1 45 4 -0.957621 0 131 -0.957621 1
genomeend 103

/* Organism #104 Fitness: 4 Error: 2 */
genomestart 104
trait 1 0.1 0 0 0 0 0 0 0 
trait 2 0.292166 0.280511 0 0 0 0 0 0.384899 
trait 3 0.3 0 0 0 0 0 0 0 
node 1 3 1 3
node 2 1 1 1
node 3 1 1 1
node 4 3 0 2
node 8 1 0 0
node 22 1 0 0
node 41 1 0 0
node 45 2 0 0
gene 3 1 4 -1.56867 0 1 -1.56867 1
gene 1 2 4 1.74343 0 2 1.74343 0
gene 1 3 4 -8 0 3 -8 1
gene 1 2 8 4.18842 0 10 4.18842 1
gene 1 8 4 -0.826594 0 11 -0.826594 0
gene 2 1 8 -2.16961 0 29 -2.16961 1
gene 1 8 22 0.493461 0 48 0.493461 1
gene 2 22 4 2.03065 0 49 2.03065 0
gene 1 22 41 -3.74906 0 117 -3.74906 1
gene 1 41 4 0.583155 0 118 0.583155 0
gene 1 41 45 1.16228 0 130 1.16228 1
gene 1 45 4 -1.60726 0 131 -1.60726 1
genomeend 104

/* Species #16 : (Size 6) (AF 6.48473) (Age 8)  */


/* Organism #105 Fitness: 8.81377 Error: 1.0312 */
genomestart 105
trait 1 0.1 0.404126 0.777795 0.558916 0 0 0 0.0132756 
trait 2 0.2 0 0 0 0 0 0 0 
trait 3 0.3 0 0 0 0 0 0 0 
node 1 3 1 3
node 2 1 1 1
node 3 2 1 1
node 4 3 0 2
node 14 1 0 0
node 35 1 0 0
gene 2 1 4 1.66784 0 1 1.66784 1
gene 1 2 4 -2.23915 0 2 -2.23915 1
gene 3 3 4 0.709517 0 3 0.709517 0
gene 3 3 14 -0.39407 0 25 -0.39407 1
gene 3 14 4 3.18701 0 26 3.18701 1
gene 2 2 14 -1.40713 0 52 -1.40713 0
gene 2 1 14 2.22739 0 77 2.22739 1
gene 2 2 35 0.213546 0 97 0.213546 1
gene 2 35 14 -1.9918 0 98 -1.9918 1
gene 1 3 35 1.41858 0 126 1.41858 1
gene 3 35 4 -1.94285 0 141 -1.94285 1
genomeend 105

/* Organism #106 Fitness: 8.96016 Error: 1.00665 */
genomestart 106
trait 1 0.1 0.404126 0.777795 0.558916 0 0 0 0.0132756 
trait 2 0.2 0 0 0 0 0 0 0 
trait 3 0.3 0 0 0 0 0 0 0 
node 1 3 1 3
node 2 1 1 1
node 3 2 1 1
node 4 3 0 2
node 14 1 0 0
node 35 3 0 0
gene 2 1 4 2.46972 0 1 2.46972 1
gene 1 2 4 -3.1494 0 2 -3.1494 1
gene 3 3 4 -0.490814 0 3 -0.490814 1
gene 3 3 14 -0.39407 0 25 -0.39407 1
gene 3 14 4 1.95421 0 26 1.95421 1
gene 2 2 14 -1.40713 0 52 -1.40713 1
gene 2 1 14 3.29447 0 77 3.29447 1
gene 2 2 35 -0.475105 0 97 -0.475105 1
gene 2 35 14 -0.802225 0 98 -0.802225 1
gene 1 3 35 1.87788 0 126 1.87788 1
gene 3 35 4 -2.51702 0 141 -2.51702 1
genomeend 106

/* Organism #107 Fitness: 8.81377 Error: 1.0312 */
genomestart 107
trait 1 0.1 0.404126 0.777795 0.558916 0 0 0 0.0132756 
trait 2 0.2 0 0 0 0 0 0 0 
trait 3 0.3 0 0 0 0 0 0 0 
node 1 3 1 3
node 2 1 1 1
node 3 2 1 1
node 4 3 0 2
node 14 1 0 0
node 35 1 0 0
gene 2 1 4 1.66784 0 1 1.66784 1
gene 1 2 4 -2.23915 0 2 -2.23915 1
gene 3 3 4 0.709517 0 3 0.709517 0
gene 3 3 14 -0.39407 0 25 -0.39407 1
gene 3 14 4 3.18701 0 26 3.18701 1
gene 2 2 14 -1.40713 0 52 -1.40713 0
gene 2 1 14 2.22739 0 77 2.22739 1
gene 2 2 35 0.213546 0 97 0.213546 1
gene 2 35 14 -1.9918 0 98 -1.9918 1
gene 1 3 35 1.41858 0 126 1.41858 1
gene 3 35 4 -1.94285 0 141 -1.94285 1
genomeend 107

/* Organism #108 Fitness: 4.3707 Error: 1.90938 */
genomestart 108
trait 1 0.1 0.404126 0.777795 0.558916 0 0 0 0.0132756 
trait 2 0.2 0 0 0 0 0 0 0 
trait 3 0.3 0 0 0 0 0 0 0 
node 1 3 1 3
node 2 1 1 1
node 3 2 1 1
node 4 3 0 2
node 14 1 0 0
node 35 1 0 0
gene 2 1 4 3.65895 0 1 3.65895 1
gene 1 2 4 -4.4675 0 2 -4.4675 1
gene 3 3 4 -1.35655 0 3 -1.35655 1
gene 3 3 14 1.21006 0 25 1.21006 1
gene 3 14 4 0.340854 0 26 0.340854 1
gene 2 2 14 -0.129398 0 52 -0.129398 0
gene 2 1 14 3.29447 0 77 3.29447 1
gene 2 2 35 -1.36144 0 97 -1.36144 1
gene 2 35 14 -1.03493 0 98 -1.03493 1
gene 1 3 35 1.87788 0 126 1.87788 1
gene 3 35 4 -0.426115 0 141 -0.426115 1
genomeend 108

/* Organism #109 Fitness: 3.95029 Error: 2.01247 */
genomestart 109
trait 1 0.1 0.404126 0.777795 0.558916 0 0 0 0.0132756 
trait 2 0.2 0 0 0 0 0 0 0 
trait 3 0.3 0 0 0 0 0 0 0 
node 1 3 1 3
node 2 1 1 1
node 3 2 1 1
node 4 3 0 2
node 14 1 0 0
node 35 3 0 0
gene 2 1 4 1.23196 0 1 1.23196 1
gene 1 2 4 -5.99476 0 2 -5.99476 1
gene 3 3 4 -3.00275 0 3 -3.00275 0
gene 3 3 14 -1.9863 0 25 -1.9863 1
gene 3 14 4 -1.73486 0 26 -1.73486 1
gene 2 2 14 -2.05641 0 52 -2.05641 1
gene 2 1 14 -2.49886 0 77 -2.49886 1
gene 2 2 35 -1.76778 0 97 -1.76778 1
gene 2 35 14 0.387349 0 98 0.387349 1
gene 1 3 35 4.54123 0 126 4.54123 1
gene 3 35 4 -4.2396 0 141 -4.2396 1
genomeend 109

/* Organism #110 Fitness: 3.99967 Error: 2.00008 */
genomestart 110
trait 1 0.1 0.404126 0.777795 0.558916 0 0 0 0.0132756 
trait 2 0.2 0 0 0 0 0 0 0 
trait 3 0.3 0 0 0 0 0 0 0 
node 1 3 1 3
node 2 1 1 1
node 3 2 1 1
node 4 3 0 2
node 14 1 0 0
node 35 3 0 0
gene 2 1 4 4.82208 0 1 4.82208 1
gene 1 2 4 -3.73349 0 2 -3.73349 1
gene 3 3 4 -0.228011 0 3 -0.228011 0
gene 3 3 14 -0.802332 0 25 -0.802332 1
gene 3 14 4 -0.142865 0 26 -0.142865 1
gene 2 2 14 -2.06305 0 52 -2.06305 0
gene 2 1 14 4.96932 0 77 4.96932 1
gene 2 2 35 -3.61546 0 97 -3.61546 1
gene 2 35 14 0.914403 0 98 0.914403 1
gene 1 3 35 2.3748 0 126 2.3748 1
gene 3 35 4 -3.09119 0 141 -3.09119 1
genomeend 110

/* Species #18 : (Size 6) (AF 5.18006) (Age 6)  */


/* Organism #111 Fitness: 8.79071 Error: 1.03509 */
genomestart 111
trait 1 0.0875 0 0 0 0 0 0.0801073 0 
trait 2 0.229037 0 0.0558002 0 0 0 0 0 
trait 3 0.333078 0.0924596 0.116279 0 0.140691 0 0 0.0799308 
node 1 2 1 3
node 2 2 1 1
node 3 2 1 1
node 4 1 0 2
node 10 1 0 0
node 33 1 0 0
node 56 1 0 0
gene 2 1 4 -0.305248 0 1 -0.305248 1
gene 3 2 4 -2.62408 0 2 -2.62408 1
gene 3 3 4 2.32505 0 3 2.32505 1
gene 3 3 10 1.36531 0 14 1.36531 0
gene 3 10 4 -2.44415 0 15 -2.44415 1
gene 3 3 33 -0.451079 0 90 -0.451079 1
gene 3 33 10 3.41649 0 91 3.41649 1
gene 1 2 33 -2.2393 0 149 -2.2393 0
gene 1 2 56 -1.25372 0 160 -1.25372 1
gene 1 56 33 -0.883648 0 161 -0.883648 1
genomeend 111

/* Organism #112 Fitness: 5.83612 Error: 1.58419 */
genomestart 112
trait 1 0.0875 0 0 0 0 0 0.0801073 0 
trait 2 0.229037 0 0.0558002 0 0.453139 0.99469 0 0 
trait 3 0.333078 0.0924596 0.116279 0 0.140691 0 0 0.0799308 
node 1 2 1 3
node 2 2 1 1
node 3 2 1 1
node 4 1 0 2
node 10 1 0 0
node 33 1 0 0
node 56 2 0 0
gene 2 1 4 0.200367 0 1 0.200367 1
gene 3 2 4 -0.70088 0 2 -0.70088 1
gene 3 3 4 4.13465 0 3 4.13465 1
gene 3 3 10 1.23271 0 14 1.23271 0
gene 3 10 4 -4.37696 0 15 -4.37696 1
gene 3 3 33 0.599673 0 90 0.599673 1
gene 3 33 10 2.64308 0 91 2.64308 1
gene 1 2 33 -4.65354 0 149 -4.65354 0
gene 1 2 56 0.340648 0 160 0.340648 1
gene 1 56 33 -0.883648 0 161 -0.883648 1
genomeend 112

/* Organism #113 Fitness: 4.45343 Error: 1.88969 */
genomestart 113
trait 1 0.0875 0 0 0 0 0 0.0801073 0 
trait 2 0.229037 0 0.0558002 0 0 0 0 0 
trait 3 0.333078 0.0924596 0.116279 0 0.140691 0 0 0.0799308 
node 1 2 1 3
node 2 2 1 1
node 3 2 1 1
node 4 1 0 2
node 10 1 0 0
node 33 1 0 0
node 56 1 0 0
node 75 1 0 0
gene 2 1 4 -0.305248 0 1 -0.305248 1
gene 3 2 4 -2.62408 0 2 -2.62408 1
gene 3 3 4 2.32505 0 3 2.32505 1
gene 3 3 10 1.36531 0 14 1.36531 0
gene 3 10 4 -2.44415 0 15 -2.44415 1
gene 3 3 33 -0.451079 0 90 -0.451079 1
gene 3 33 10 3.41649 0 91 3.41649 0
gene 1 2 33 -2.2393 0 149 -2.2393 0
gene 1 2 56 -1.25372 0 160 -1.25372 1
gene 1 56 33 -0.883648 0 161 -0.883648 1
gene 3 33 75 1 0 219 0 1
gene 3 75 10 3.41649 0 220 0 1
genomeend 113

/* Organism #114 Fitness: 4 Error: 2 */
genomestart 114
trait 1 0.0875 0 0 0 0 0 0.0801073 0 
trait 2 0.229037 0 0 0 0 0.223579 0 0.593951 
trait 3 0.333078 0.0924596 0.116279 0 0.140691 0 0 0.0799308 
node 1 2 1 3
node 2 2 1 1
node 3 2 1 1
node 4 1 0 2
node 10 1 0 0
node 33 1 0 0
node 56 1 0 0
gene 2 1 4 -1.5456 0 1 -1.5456 1
gene 3 2 4 -3.3505 0 2 -3.3505 1
gene 3 3 4 0.155873 0 3 0.155873 1
gene 3 3 10 3.21153 0 14 3.21153 0
gene 3 10 4 -4.25665 0 15 -4.25665 1
gene 3 3 33 -2.2886 0 90 -2.2886 1
gene 3 33 10 3.31838 0 91 3.31838 1
gene 1 2 33 -1.72323 0 149 -1.72323 0
gene 1 2 56 -2.13616 0 160 -2.13616 1
gene 1 56 33 -1.12711 0 161 -1.12711 1
genomeend 114

/* Organism #115 Fitness: 4 Error: 2 */
genomestart 115
trait 1 0.0875 0 0 0 0 0 0.0801073 0 
trait 2 0.229037 0 0.0558002 0 0.226569 0.497345 0 0 
trait 3 0.333078 0.0924596 0.116279 0 0.140691 0 0 0.0799308 
node 1 2 1 3
node 2 2 1 1
node 3 2 1 1
node 4 1 0 2
node 10 1 0 0
node 33 1 0 0
node 56 1 0 0
gene 2 1 4 -1.64631 0 1 -1.64631 1
gene 3 2 4 -4.1259 0 2 -4.1259 1
gene 3 3 4 0.0577563 0 3 0.0577563 1
gene 3 3 10 1.92212 0 14 1.92212 0
gene 3 10 4 -6.85369 0 15 -6.85369 1
gene 3 3 33 -0.514481 0 90 -0.514481 1
gene 3 33 10 4.18876 0 91 4.18876 1
gene 1 2 33 2.44987 0 149 2.44987 0
gene 1 2 56 -2.04201 0 160 -2.04201 1
gene 1 56 33 1.16056 0 161 1.16056 1
genomeend 115

/* Organism #116 Fitness: 4.00013 Error: 1.99997 */
genomestart 116
trait 1 0.0875 0 0 0 0 0 0.0801073 0 
trait 2 0.229037 0 0.0558002 0 0.226569 0.497345 0 0 
trait 3 0.333078 0.0924596 0.116279 0 0.140691 0 0 0.0799308 
node 1 2 1 3
node 2 2 1 1
node 3 2 1 1
node 4 1 0 2
node 10 1 0 0
node 33 1 0 0
node 56 1 0 0
gene 2 1 4 -2.45196 0 1 -2.45196 1
gene 3 2 4 -3.88957 0 2 -3.88957 1
gene 3 3 4 1.43178 0 3 1.43178 1
gene 3 3 10 0.376743 0 14 0.376743 0
gene 3 10 4 -1.08428 0 15 -1.08428 1
gene 3 3 33 0.444411 0 90 0.444411 1
gene 3 33 10 3.93321 0 91 3.93321 1
gene 1 2 33 -4.21915 0 149 -4.21915 0
gene 1 2 56 1.29279 0 160 1.29279 1
gene 1 56 33 -0.0298929 0 161 -0.0298929 1
genomeend 116

/* Species #19 : (Size 11) (AF 7.81882) (Age 6)  */


/* Organism #117 Fitness: 9 Error: 1 */
genomestart 117
trait 1 0.1 0 0 0 0 0 0 0 
trait 2 0.2 0 0 0 0 0 0 0 
trait 3 0.3 0 0 0 0 0 0 0 
node 1 3 1 3
node 2 1 1 1
node 3 2 1 1
node 4 3 0 2
node 14 1 0 0
node 35 1 0 0
gene 2 1 4 -1.98561 0 1 -1.98561 1
gene 1 2 4 -6.6596 0 2 -6.6596 1
gene 3 3 4 5.58435 0 3 5.58435 1
gene 3 3 14 -1.06075 0 25 -1.06075 1
gene 3 14 4 1.89848 0 26 1.89848 1
gene 2 2 14 -2.5354 0 52 -2.5354 0
gene 2 1 14 -3.67333 0 77 -3.67333 1
gene 2 2 35 4.83808 0 97 4.83808 1
gene 2 35 14 -1.81361 0 98 -1.81361 1
gene 1 35 4 -2.47143 0 116 -2.47143 1
gene 2 3 35 -2.4292 0 163 -2.4292 1
genomeend 117

/* Organism #118 Fitness: 7.78348 Error: 1.21011 */
genomestart 118
trait 1 0.1 0 0 0 0 0 0 0 
trait 2 0.2 0 0 0 0 0 0 0 
trait 3 0.3 0 0 0 0 0 0 0 
node 1 3 1 3
node 2 1 1 1
node 3 2 1 1
node 4 3 0 2
node 14 1 0 0
node 35 1 0 0
node 76 1 0 0
gene 2 1 4 -1.98561 0 1 -1.98561 1
gene 1 2 4 -6.6596 0 2 -6.6596 0
gene 3 3 4 5.58435 0 3 5.58435 1
gene 3 3 14 -1.06075 0 25 -1.06075 1
gene 3 14 4 1.89848 0 26 1.89848 1
gene 2 2 14 -2.5354 0 52 -2.5354 0
gene 2 1 14 -3.67333 0 77 -3.67333 1
gene 2 2 35 4.83808 0 97 4.83808 1
gene 2 35 14 -1.81361 0 98 -1.81361 1
gene 1 35 4 -2.47143 0 116 -2.47143 1
gene 2 3 35 -2.4292 0 163 -2.4292 1
gene 1 2 76 1 0 221 0 1
gene 1 76 4 -6.6596 0 222 0 1
genomeend 118

/* Organism #119 Fitness: 8.97417 Error: 1.00431 */
genomestart 119
trait 1 0.1 0 0 0 0 0 0 0 
trait 2 0.2 0 0 0 0 0 0 0 
trait 3 0.3 0 0 0 0 0 0 0 
node 1 3 1 3
node 2 1 1 1
node 3 2 1 1
node 4 3 0 2
node 14 1 0 0
node 35 1 0 0
gene 2 1 4 -2.94599 0 1 -2.94599 1
gene 1 2 4 -8 0 2 -8 1
gene 3 3 4 4.05133 0 3 4.05133 1
gene 3 3 14 0.842158 0 25 0.842158 1
gene 3 14 4 3.39904 0 26 3.39904 1
gene 2 2 14 -0.736946 0 52 -0.736946 0
gene 2 1 14 -4.85154 0 77 -4.85154 1
gene 2 2 35 3.48379 0 97 3.48379 1
gene 2 35 14 -1.83806 0 98 -1.83806 1
gene 1 35 4 -1.11611 0 116 -1.11611 1
gene 2 3 35 -5.47174 0 163 -5.47174 1
genomeend 119

/* Organism #120 Fitness: 5.31049 Error: 1.69555 */
genomestart 120
trait 1 0.1 0 0 0 0 0 0 0 
trait 2 0.2 0 0 0 0 0 0 0 
trait 3 0.3 0 0 0 0 0 0 0 
node 1 3 1 3
node 2 1 1 1
node 3 2 1 1
node 4 3 0 2
node 14 1 0 0
node 35 1 0 0
gene 2 1 4 -3.10617 0 1 -3.10617 1
gene 1 2 4 -7.76186 0 2 -7.76186 1
gene 3 3 4 3.80749 0 3 3.80749 1
gene 3 3 14 1.02184 0 25 1.02184 1
gene 3 14 4 0.998871 0 26 0.998871 1
gene 2 2 14 -0.870388 0 52 -0.870388 0
gene 2 1 14 -3.67333 0 77 -3.67333 1
gene 2 2 35 3.16498 0 97 3.16498 1
gene 2 35 14 -2.75945 0 98 -2.75945 1
gene 1 35 4 -4.1601 0 116 -4.1601 1
gene 2 3 35 -0.270394 0 163 -0.270394 1
genomeend 120

/* Organism #121 Fitness: 8.98095 Error: 1.00318 */
genomestart 121
trait 1 0.1 0 0 0 0 0 0 0 
trait 2 0.2 0 0 0 0 0 0 0 
trait 3 0.3 0 0 0 0 0 0 0 
node 1 3 1 3
node 2 1 1 1
node 3 2 1 1
node 4 3 0 2
node 14 1 0 0
node 35 1 0 0
gene 2 1 4 -1.89077 0 1 -1.89077 1
gene 1 2 4 -7.69693 0 2 -7.69693 1
gene 3 3 4 3.06627 0 3 3.06627 1
gene 3 3 14 -3.04888 0 25 -3.04888 1
gene 3 14 4 4.02272 0 26 4.02272 1
gene 2 2 14 -1.54965 0 52 -1.54965 0
gene 2 1 14 0.103565 0 77 0.103565 1
gene 2 2 35 5.78118 0 97 5.78118 1
gene 2 35 14 -0.447447 0 98 -0.447447 1
gene 1 35 4 -4.89262 0 116 -4.89262 1
gene 2 3 35 -1.302 0 163 -1.302 1
genomeend 121

/* Organism #122 Fitness: 8.99738 Error: 1.00044 */
genomestart 122
trait 1 0.1 0 0 0 0 0 0 0 
trait 2 0.2 0 0 0 0 0 0 0 
trait 3 0.3 0 0 0 0 0 0 0 
node 1 3 1 3
node 2 1 1 1
node 3 2 1 1
node 4 3 0 2
node 14 1 0 0
node 35 1 0 0
gene 2 1 4 -2.66034 0 1 -2.66034 1
gene 1 2 4 -7.11383 0 2 -7.11383 1
gene 3 3 4 4.23063 0 3 4.23063 1
gene 3 3 14 0.693228 0 25 0.693228 1
gene 3 14 4 3.39904 0 26 3.39904 1
gene 2 2 14 -1.86842 0 52 -1.86842 0
gene 2 1 14 -2.58447 0 77 -2.58447 1
gene 2 2 35 4.05868 0 97 4.05868 1
gene 2 35 14 -3.26289 0 98 -3.26289 1
gene 1 35 4 -1.7882 0 116 -1.7882 1
gene 2 3 35 -3.67672 0 163 -3.67672 1
genomeend 122

/* Organism #123 Fitness: 6.45393 Error: 1.45954 */
genomestart 123
trait 1 0.1 0 0 0 0 0 0 0 
trait 2 0.2 0 0 0 0 0 0 0 
trait 3 0.3 0 0 0 0 0 0 0 
node 1 3 1 3
node 2 1 1 1
node 3 2 1 1
node 4 3 0 2
node 14 1 0 0
node 35 1 0 0
gene 2 1 4 -1.87582 0 1 -1.87582 1
gene 1 2 4 0.541093 0 2 0.541093 1
gene 3 3 4 2.80015 0 3 2.80015 1
gene 3 3 14 -1.14818 0 25 -1.14818 1
gene 3 14 4 1.35395 0 26 1.35395 1
gene 2 2 14 -3.39969 0 52 -3.39969 0
gene 2 1 14 -0.313501 0 77 -0.313501 1
gene 2 2 35 4.57158 0 97 4.57158 1
gene 2 35 14 -1.55504 0 98 -1.55504 1
gene 1 35 4 -1.50693 0 116 -1.50693 1
gene 2 3 35 -1.42384 0 163 -1.42384 1
genomeend 123

/* Organism #124 Fitness: 4.00674 Error: 1.99832 */
genomestart 124
trait 1 0.1 0 0 0 0 0 0 0 
trait 2 0.2 0 0 0 0 0 0 0 
trait 3 0.3 0 0 0 0 0 0 0 
node 1 3 1 3
node 2 1 1 1
node 3 2 1 1
node 4 3 0 2
node 14 1 0 0
node 35 1 0 0
gene 2 1 4 -3.33506 0 1 -3.33506 1
gene 1 2 4 1.58963 0 2 1.58963 1
gene 3 3 4 0.89198 0 3 0.89198 1
gene 3 3 14 2.5679 0 25 2.5679 1
gene 3 14 4 5.88473 0 26 5.88473 1
gene 2 2 14 -0.654012 0 52 -0.654012 0
gene 2 1 14 1.06395 0 77 1.06395 1
gene 2 2 35 1.40292 0 97 1.40292 1
gene 2 35 14 -2.52583 0 98 -2.52583 1
gene 1 35 4 0.51709 0 116 0.51709 1
gene 2 3 35 -7.22396 0 163 -7.22396 1
genomeend 124

/* Organism #125 Fitness: 8.57591 Error: 1.07153 */
genomestart 125
trait 1 0.1 0 0 0 0 0 0 0 
trait 2 0.2 0 0 0 0 0 0 0 
trait 3 0.3 0 0 0 0 0 0 0 
node 1 3 1 3
node 2 1 1 1
node 3 2 1 1
node 4 3 0 2
node 14 1 0 0
node 35 1 0 0
gene 2 1 4 -0.471129 0 1 -0.471129 1
gene 1 2 4 -6.6596 0 2 -6.6596 1
gene 3 3 4 4.0067 0 3 4.0067 1
gene 3 3 14 -2.29316 0 25 -2.29316 1
gene 3 14 4 1.64174 0 26 1.64174 1
gene 2 2 14 -2.0687 0 52 -2.0687 0
gene 2 1 14 -2.25636 0 77 -2.25636 1
gene 2 2 35 4.21802 0 97 4.21802 1
gene 2 35 14 0.622806 0 98 0.622806 1
gene 1 35 4 -0.0990783 0 116 -0.0990783 1
gene 2 3 35 -5.42764 0 163 -5.42764 1
genomeend 125

/* Organism #126 Fitness: 8.99738 Error: 1.00044 */
genomestart 126
trait 1 0.1 0 0 0 0 0 0 0 
trait 2 0.417841 0.242256 0 0.604022 0 0 0 0 
trait 3 0.3 0 0 0 0 0 0 0 
node 1 3 1 3
node 2 1 1 1
node 3 2 1 1
node 4 3 0 2
node 14 1 0 0
node 35 1 0 0
gene 2 1 4 -2.66034 0 1 -2.66034 1
gene 1 2 4 -7.11383 0 2 -7.11383 1
gene 3 3 4 4.23063 0 3 4.23063 1
gene 3 3 14 0.693228 0 25 0.693228 1
gene 3 14 4 3.39904 0 26 3.39904 1
gene 2 2 14 -1.86842 0 52 -1.86842 0
gene 2 1 14 -2.58447 0 77 -2.58447 1
gene 2 2 35 4.05868 0 97 4.05868 1
gene 2 35 14 -3.26289 0 98 -3.26289 1
gene 1 35 4 -1.7882 0 116 -1.7882 1
gene 2 3 35 -3.67672 0 163 -3.67672 1
genomeend 126

/* Organism #127 Fitness: 8.92656 Error: 1.01227 */
genomestart 127
trait 1 0.1 0 0 0 0 0 0 0 
trait 2 0.2 0 0 0 0 0 0 0 
trait 3 0.3 0 0 0 0 0 0 0 
node 1 3 1 3
node 2 1 1 1
node 3 2 1 1
node 4 3 0 2
node 14 1 0 0
node 35 1 0 0
gene 2 1 4 -1.98561 0 1 -1.98561 1
gene 1 2 4 -6.6596 0 2 -6.6596 1
gene 3 3 4 2.8769 0 3 2.8769 1
gene 3 3 14 -1.06075 0 25 -1.06075 1
gene 3 14 4 4.89959 0 26 4.89959 1
gene 2 2 14 -2.5354 0 52 -2.5354 0
gene 2 1 14 -3.67333 0 77 -3.67333 1
gene 2 2 35 4.83808 0 97 4.83808 1
gene 2 35 14 -4.71218 0 98 -4.71218 1
gene 1 35 4 -1.10497 0 116 -1.10497 1
gene 2 3 35 -4.92424 0 163 -4.92424 1
genomeend 127

/* Species #20 : (Size 7) (AF 7.29626) (Age 6)  */


/* Organism #128 Fitness: 8.99176 Error: 1.00137 */
genomestart 128
trait 1 0.1 0 0 0 0 0 0 0 
trait 2 0.2 0 0 0 0 0 0 0 
trait 3 0.3 0 0 0 0 0 0 0 
node 1 3 1 3
node 2 1 1 1
node 3 2 1 1
node 4 3 0 2
node 14 1 0 0
node 35 1 0 0
node 53 1 0 0
node 61 1 0 0
gene 2 1 4 -2.185 0 1 -2.185 1
gene 1 2 4 -3.01432 0 2 -3.01432 1
gene 3 3 4 3.54617 0 3 3.54617 1
gene 3 3 14 3.48138 0 25 3.48138 1
gene 3 14 4 0.0801874 0 26 0.0801874 1
gene 2 2 14 1.80459 0 52 1.80459 0
gene 2 1 14 4.47649 0 77 4.47649 1
gene 2 2 35 0.708777 0 97 0.708777 1
gene 2 35 14 -2.14626 0 98 -2.14626 0
gene 1 35 4 2.24665 0 116 2.24665 0
gene 2 35 53 2.42476 0 154 2.42476 1
gene 2 53 14 -0.0660726 0 155 -0.0660726 1
gene 1 35 61 -1.99179 0 177 -1.99179 1
gene 1 61 4 -2.77219 0 178 -2.77219 1
genomeend 128

/* Organism #129 Fitness: 8.69678 Error: 1.05097 */
genomestart 129
trait 1 0.1 0 0 0 0 0 0 0 
trait 2 0.2 0 0 0 0 0 0 0 
trait 3 0.3 0 0 0 0 0 0 0 
node 1 3 1 3
node 2 1 1 1
node 3 2 1 1
node 4 3 0 2
node 14 1 0 0
node 35 1 0 0
node 53 1 0 0
node 61 1 0 0
gene 2 1 4 -1.68305 0 1 -1.68305 1
gene 1 2 4 -4.07812 0 2 -4.07812 1
gene 3 3 4 3.42029 0 3 3.42029 1
gene 3 3 14 4.09961 0 25 4.09961 1
gene 3 14 4 1.06937 0 26 1.06937 1
gene 2 2 14 1.76804 0 52 1.76804 0
gene 2 1 14 3.60877 0 77 3.60877 1
gene 2 2 35 1.60976 0 97 1.60976 1
gene 2 35 14 -1.91119 0 98 -1.91119 0
gene 1 35 4 -0.154851 0 116 -0.154851 0
gene 2 35 53 3.97151 0 154 3.97151 1
gene 2 53 14 -0.566118 0 155 -0.566118 1
gene 1 35 61 -1.99179 0 177 -1.99179 1
gene 1 61 4 1.58852 0 178 1.58852 1
genomeend 129

/* Organism #130 Fitness: 3.03136 Error: 2.25892 */
genomestart 130
trait 1 0.1 0 0 0 0 0 0 0 
trait 2 0.2 0 0 0 0 0 0 0 
trait 3 0.3 0 0 0 0 0 0 0 
node 1 3 1 3
node 2 1 1 1
node 3 2 1 1
node 4 3 0 2
node 14 1 0 0
node 35 1 0 0
node 53 1 0 0
node 61 1 0 0
gene 2 1 4 0.391293 0 1 0.391293 1
gene 1 2 4 -4.23041 0 2 -4.23041 1
gene 3 3 4 0.828272 0 3 0.828272 1
gene 3 3 14 0.528352 0 25 0.528352 1
gene 3 14 4 2.05634 0 26 2.05634 1
gene 2 2 14 1.41578 0 52 1.41578 0
gene 2 1 14 3.19013 0 77 3.19013 1
gene 2 2 35 -1.55486 0 97 -1.55486 1
gene 2 35 14 -2.06275 0 98 -2.06275 0
gene 1 35 4 -1.3448 0 116 -1.3448 0
gene 2 35 53 3.3468 0 154 3.3468 1
gene 2 53 14 1.77071 0 155 1.77071 1
gene 1 35 61 1.47954 0 177 1.47954 1
gene 1 61 4 1.49208 0 178 1.49208 1
gene 2 61 14 -0.273675 0 202 -0.273675 1
genomeend 130

/* Organism #131 Fitness: 7.42185 Error: 1.27569 */
genomestart 131
trait 1 0.1 0 0 0 0 0 0 0 
trait 2 0.2 0 0 0 0 0 0 0 
trait 3 0.3 0 0 0 0 0 0 0 
node 1 3 1 3
node 2 1 1 1
node 3 2 1 1
node 4 3 0 2
node 14 1 0 0
node 35 1 0 0
node 53 1 0 0
node 61 1 0 0
gene 2 1 4 -0.809763 0 1 -0.809763 1
gene 1 2 4 -4.61311 0 2 -4.61311 1
gene 3 3 4 2.11211 0 3 2.11211 1
gene 3 3 14 0.53032 0 25 0.53032 1
gene 3 14 4 0.781045 0 26 0.781045 1
gene 2 2 14 2.4982 0 52 2.4982 0
gene 2 1 14 2.8899 0 77 2.8899 1
gene 2 2 35 0.98703 0 97 0.98703 1
gene 2 35 14 -2.14183 0 98 -2.14183 0
gene 1 35 4 1.11449 0 116 1.11449 0
gene 2 35 53 0.533448 0 154 0.533448 1
gene 2 53 14 -1.53696 0 155 -1.53696 1
gene 1 35 61 0.0207526 0 177 0.0207526 1
gene 1 61 4 -0.323923 0 178 -0.323923 1
gene 2 61 14 -0.77633 0 202 -0.77633 1
genomeend 131

/* Organism #132 Fitness: 5.33671 Error: 1.68987 */
genomestart 132
trait 1 0.1 0 0 0 0 0 0 0 
trait 2 0.0422193 0 0 0.767937 0 0 0 0 
trait 3 0.3 0 0 0 0 0 0 0 
node 1 3 1 3
node 2 1 1 1
node 3 2 1 1
node 4 3 0 2
node 14 1 0 0
node 35 1 0 0
node 53 1 0 0
node 61 1 0 0
gene 2 1 4 -0.94393 0 1 -0.94393 1
gene 1 2 4 -4.54715 0 2 -4.54715 1
gene 3 3 4 1.4771 0 3 1.4771 1
gene 3 3 14 4.93719 0 25 4.93719 1
gene 3 14 4 -0.298547 0 26 -0.298547 1
gene 2 2 14 2.3833 0 52 2.3833 0
gene 2 1 14 2.94259 0 77 2.94259 1
gene 2 2 35 0.644612 0 97 0.644612 1
gene 2 35 14 -1.41172 0 98 -1.41172 0
gene 1 35 4 2.15395 0 116 2.15395 0
gene 2 35 53 1.97903 0 154 1.97903 1
gene 2 53 14 1.79168 0 155 1.79168 1
gene 1 35 61 -0.285501 0 177 -0.285501 1
gene 1 61 4 -1.19785 0 178 -1.19785 1
genomeend 132

/* Organism #133 Fitness: 8.66533 Error: 1.05631 */
genomestart 133
trait 1 0.1 0 0 0 0 0 0 0 
trait 2 0.2 0 0 0 0 0 0 0 
trait 3 0.344527 0 0.384075 0.867 0 0.0657979 0 0.821253 
node 1 3 1 3
node 2 1 1 1
node 3 2 1 1
node 4 3 0 2
node 14 1 0 0
node 35 1 0 0
node 53 1 0 0
node 61 1 0 0
gene 2 1 4 -1.73539 0 1 -1.73539 1
gene 1 2 4 -4.84566 0 2 -4.84566 1
gene 3 3 4 2.82121 0 3 2.82121 1
gene 3 3 14 2.63709 0 25 2.63709 1
gene 3 14 4 1.17718 0 26 1.17718 1
gene 2 2 14 1.80459 0 52 1.80459 0
gene 2 1 14 3.43344 0 77 3.43344 1
gene 2 2 35 -1.08678 0 97 -1.08678 1
gene 2 35 14 -2.4294 0 98 -2.4294 0
gene 1 35 4 0.104556 0 116 0.104556 0
gene 2 35 53 1.2855 0 154 1.2855 1
gene 2 53 14 0.474136 0 155 0.474136 1
gene 1 35 61 -1.24844 0 177 -1.24844 1
gene 1 61 4 -0.323923 0 178 -0.323923 1
gene 2 61 14 -0.77633 0 202 -0.77633 1
genomeend 133

/* Organism #134 Fitness: 8.93 Error: 1.01169 */
genomestart 134
trait 1 0.1 0 0 0 0 0 0 0 
trait 2 0.2 0 0 0 0 0 0 0 
trait 3 0.3 0 0 0 0 0 0 0 
node 1 3 1 3
node 2 1 1 1
node 3 2 1 1
node 4 3 0 2
node 14 1 0 0
node 35 1 0 0
node 53 1 0 0
node 61 1 0 0
gene 2 1 4 -3.74519 0 1 -3.74519 1
gene 1 2 4 -6.28972 0 2 -6.28972 1
gene 3 3 4 3.9021 0 3 3.9021 1
gene 3 3 14 0.683905 0 25 0.683905 1
gene 3 14 4 0.743965 0 26 0.743965 1
gene 2 2 14 0.418821 0 52 0.418821 0
gene 2 1 14 1.09122 0 77 1.09122 1
gene 2 2 35 -1.42203 0 97 -1.42203 1
gene 2 35 14 -0.643223 0 98 -0.643223 0
gene 1 35 4 -1.97879 0 116 -1.97879 0
gene 2 35 53 1.04044 0 154 1.04044 1
gene 2 53 14 0.169103 0 155 0.169103 1
gene 1 35 61 -3.56075 0 177 -3.56075 1
gene 1 61 4 1.96802 0 178 1.96802 1
gene 2 61 14 -1.98386 0 202 -1.98386 1
genomeend 134

/* Species #21 : (Size 6) (AF 5.73408) (Age 4)  */


/* Organism #135 Fitness: 7.80875 Error: 1.20559 */
genomestart 135
trait 1 0.0875 0 0 0 0 0 0.0801073 0 
trait 2 0.229037 0 0.0558002 0 0 0 0 0 
trait 3 0.333078 0.0924596 0.116279 0 0.140691 0 0 0.0799308 
node 1 2 1 3
node 2 2 1 1
node 3 2 1 1
node 4 1 0 2
node 10 1 0 0
node 33 1 0 0
gene 2 1 4 2.56696 0 1 2.56696 1
gene 3 2 4 -2.43339 0 2 -2.43339 1
gene 3 3 4 -8 0 3 -8 0
gene 3 3 10 -1.23051 0 14 -1.23051 0
gene 3 10 4 -4.58472 0 15 -4.58472 1
gene 3 3 33 -6.4295 0 90 -6.4295 1
gene 3 33 10 7.26978 0 91 7.26978 1
genomeend 135

/* Organism #136 Fitness: 4.47059 Error: 1.88562 */
genomestart 136
trait 1 0.0875 0 0 0 0 0 0.0801073 0 
trait 2 0.229037 0 0.0558002 0 0 0 0 0 
trait 3 0.333078 0.0924596 0.116279 0 0.140691 0 0 0.0799308 
node 1 2 1 3
node 2 2 1 1
node 3 2 1 1
node 4 1 0 2
node 10 1 0 0
node 33 1 0 0
gene 2 1 4 3.13987 0 1 3.13987 1
gene 3 2 4 -3.55327 0 2 -3.55327 1
gene 3 3 4 -8 0 3 -8 0
gene 3 3 10 0.358516 0 14 0.358516 0
gene 3 10 4 -2.72485 0 15 -2.72485 1
gene 3 3 33 -6.90193 0 90 -6.90193 1
gene 3 33 10 7.5095 0 91 7.5095 1
genomeend 136

/* Organism #137 Fitness: 7.80875 Error: 1.20559 */
genomestart 137
trait 1 0.0875 0 0 0 0 0 0.0801073 0 
trait 2 0.229037 0 0.0558002 0 0 0 0 0 
trait 3 0.333078 0.0924596 0.116279 0 0.140691 0 0 0.0799308 
node 1 2 1 3
node 2 2 1 1
node 3 2 1 1
node 4 1 0 2
node 10 1 0 0
node 33 1 0 0
gene 2 1 4 2.56696 0 1 2.56696 1
gene 3 2 4 -2.43339 0 2 -2.43339 1
gene 3 3 4 -8 0 3 -8 0
gene 3 3 10 -1.23051 0 14 -1.23051 0
gene 3 10 4 -4.58472 0 15 -4.58472 1
gene 3 3 33 -6.4295 0 90 -6.4295 1
gene 3 33 10 7.26978 0 91 7.26978 1
gene 1 2 33 -0.646992 0 223 -0.646992 1
genomeend 137

/* Organism #138 Fitness: 4.0052 Error: 1.9987 */
genomestart 138
trait 1 0.0875 0 0 0 0 0 0.0801073 0 
trait 2 0.229037 0 0.0558002 0 0 0 0 0 
trait 3 0.333078 0.0924596 0.116279 0 0.140691 0 0 0.0799308 
node 1 3 1 3
node 2 2 1 1
node 3 2 1 1
node 4 1 0 2
node 10 1 0 0
node 33 1 0 0
gene 2 1 4 1.57648 0 1 1.57648 1
gene 3 2 4 -2.66778 0 2 -2.66778 1
gene 3 3 4 -5.54456 0 3 -5.54456 0
gene 3 3 10 -2.80076 0 14 -2.80076 0
gene 3 10 4 -5.85185 0 15 -5.85185 1
gene 3 3 33 -5.24889 0 90 -5.24889 1
gene 3 33 10 8 0 91 8 1
genomeend 138

/* Organism #139 Fitness: 4.0001 Error: 1.99997 */
genomestart 139
trait 1 0.0875 0 0 0 0 0 0.0801073 0 
trait 2 0.229037 0 0.0558002 0 0 0 0 0 
trait 3 0.333078 0.0924596 0.116279 0 0.140691 0 0 0.0799308 
node 1 2 1 3
node 2 2 1 1
node 3 2 1 1
node 4 1 0 2
node 10 1 0 0
node 33 1 0 0
gene 2 1 4 3.9956 0 1 3.9956 1
gene 3 2 4 -2.2087 0 2 -2.2087 1
gene 3 3 4 -8 0 3 -8 0
gene 3 3 10 -0.136418 0 14 -0.136418 0
gene 3 10 4 0.62212 0 15 0.62212 1
gene 3 3 33 -6.4295 0 90 -6.4295 1
gene 3 33 10 5.22718 0 91 5.22718 1
genomeend 139

/* Organism #140 Fitness: 6.3111 Error: 1.48781 */
genomestart 140
trait 1 0.0875 0 0 0 0 0 0.0801073 0 
trait 2 0.229037 0 0.0558002 0 0 0 0 0 
trait 3 0.333078 0.0924596 0.116279 0 0.140691 0 0 0.0799308 
node 1 2 1 3
node 2 2 1 1
node 3 2 1 1
node 4 1 0 2
node 10 1 0 0
node 33 1 0 0
gene 2 1 4 2.81812 0 1 2.81812 1
gene 3 2 4 2.45338 0 2 2.45338 1
gene 3 3 4 -7.85626 0 3 -7.85626 0
gene 3 3 10 -0.162511 0 14 -0.162511 0
gene 3 10 4 -2.82884 0 15 -2.82884 1
gene 3 3 33 -6.53273 0 90 -6.53273 1
gene 3 33 10 8 0 91 8 1
genomeend 140

/* Species #22 : (Size 6) (AF 7.27533) (Age 4)  */


/* Organism #141 Fitness: 8.99766 Error: 1.00039 */
genomestart 141
trait 1 0.1 0 0 0 0 0 0 0 
trait 2 0.2 0 0 0 0 0 0 0 
trait 3 0.3 0 0 0 0 0 0 0 
node 1 3 1 3
node 2 1 1 1
node 3 2 1 1
node 4 3 0 2
node 14 2 0 0
node 35 1 0 0
node 53 1 0 0
gene 2 1 4 -2.80911 0 1 -2.80911 1
gene 1 2 4 -3.22017 0 2 -3.22017 1
gene 3 3 4 1.43315 0 3 1.43315 1
gene 3 3 14 2.42599 0 25 2.42599 1
gene 3 14 4 3.35902 0 26 3.35902 1
gene 2 2 14 -2.6135 0 52 -2.6135 0
gene 2 1 14 -2.13858 0 77 -2.13858 1
gene 2 2 35 0.0211188 0 97 0.0211188 1
gene 2 35 14 -3.27613 0 98 -3.27613 0
gene 1 35 4 -0.688849 0 116 -0.688849 1
gene 2 35 53 1.4796 0 154 1.4796 1
gene 2 53 14 0.646077 0 155 0.646077 1
gene 1 2 53 -1.90107 0 182 -1.90107 1
genomeend 141

/* Organism #142 Fitness: 4.26817 Error: 1.93405 */
genomestart 142
trait 1 0.1 0 0 0 0 0 0 0 
trait 2 0.2 0 0 0 0 0 0 0 
trait 3 0.435533 0.145848 0 0.576037 0 0 0 0 
node 1 3 1 3
node 2 1 1 1
node 3 2 1 1
node 4 3 0 2
node 14 2 0 0
node 35 1 0 0
node 53 1 0 0
gene 2 1 4 -0.427099 0 1 -0.427099 1
gene 1 2 4 -3.15968 0 2 -3.15968 1
gene 3 3 4 -0.714515 0 3 -0.714515 1
gene 3 3 14 4.77078 0 25 4.77078 1
gene 3 14 4 4.79709 0 26 4.79709 1
gene 2 2 14 -1.1818 0 52 -1.1818 0
gene 2 1 14 0.51743 0 77 0.51743 1
gene 2 2 35 -1.74745 0 97 -1.74745 0
gene 2 35 14 -2.67475 0 98 -2.67475 1
gene 1 35 4 1.41323 0 116 1.41323 1
gene 2 35 53 3.41928 0 154 3.41928 1
gene 2 53 14 -0.898648 0 155 -0.898648 1
gene 1 2 53 -2.93505 0 182 -2.93505 1
genomeend 142

/* Organism #143 Fitness: 8.9461 Error: 1.009 */
genomestart 143
trait 1 0.1 0 0 0 0 0 0 0 
trait 2 0.2 0 0 0 0 0 0 0 
trait 3 0.3 0 0 0 0 0 0 0 
node 1 3 1 3
node 2 1 1 1
node 3 3 1 1
node 4 3 0 2
node 14 2 0 0
node 35 1 0 0
node 53 1 0 0
gene 2 1 4 -2.01193 0 1 -2.01193 1
gene 1 2 4 -3.19608 0 2 -3.19608 1
gene 3 3 4 2.14728 0 3 2.14728 1
gene 3 3 14 1.60731 0 25 1.60731 1
gene 3 14 4 2.09384 0 26 2.09384 1
gene 2 2 14 -1.72533 0 52 -1.72533 0
gene 2 1 14 -0.2598 0 77 -0.2598 1
gene 2 2 35 0.0245331 0 97 0.0245331 0
gene 2 35 14 -2.12442 0 98 -2.12442 1
gene 1 35 4 -1.09722 0 116 -1.09722 1
gene 2 35 53 -1.26211 0 154 -1.26211 1
gene 2 53 14 -2.42828 0 155 -2.42828 1
gene 1 2 53 -1.72392 0 182 -1.72392 1
genomeend 143

/* Organism #144 Fitness: 8.82111 Error: 1.02996 */
genomestart 144
trait 1 0.1 0 0 0 0 0 0 0 
trait 2 0.2 0 0 0 0 0 0 0 
trait 3 0.3 0 0 0 0 0 0 0 
node 1 3 1 3
node 2 1 1 1
node 3 2 1 1
node 4 3 0 2
node 14 2 0 0
node 35 1 0 0
node 53 1 0 0
gene 2 1 4 -2.41832 0 1 -2.41832 1
gene 1 2 4 -3.88822 0 2 -3.88822 1
gene 3 3 4 1.64434 0 3 1.64434 1
gene 3 3 14 4.33821 0 25 4.33821 1
gene 3 14 4 2.25616 0 26 2.25616 1
gene 2 2 14 -0.232749 0 52 -0.232749 0
gene 2 1 14 -3.9536 0 77 -3.9536 1
gene 2 2 35 0.533906 0 97 0.533906 0
gene 2 35 14 -4.93683 0 98 -4.93683 1
gene 1 35 4 0.647099 0 116 0.647099 1
gene 2 35 53 3.19146 0 154 3.19146 1
gene 2 53 14 -0.506912 0 155 -0.506912 1
gene 1 2 53 -1.70591 0 182 -1.70591 1
genomeend 144

/* Organism #145 Fitness: 8.44134 Error: 1.0946 */
genomestart 145
trait 1 0.1 0 0 0 0 0 0 0 
trait 2 0.2 0 0 0 0 0 0 0 
trait 3 0.3 0 0 0 0 0 0 0 
node 1 3 1 3
node 2 1 1 1
node 3 2 1 1
node 4 3 0 2
node 14 2 0 0
node 35 1 0 0
node 53 1 0 0
gene 2 1 4 -2.05885 0 1 -2.05885 1
gene 1 2 4 -3.15068 0 2 -3.15068 1
gene 3 3 4 2.51755 0 3 2.51755 1
gene 3 3 14 1.72595 0 25 1.72595 1
gene 3 14 4 5.52046 0 26 5.52046 1
gene 2 2 14 -1.16181 0 52 -1.16181 0
gene 2 1 14 -3.15463 0 77 -3.15463 1
gene 2 2 35 0.184984 0 97 0.184984 0
gene 2 35 14 -3.72618 0 98 -3.72618 1
gene 1 35 4 -0.60229 0 116 -0.60229 1
gene 2 35 53 1.22629 0 154 1.22629 1
gene 2 53 14 -1.63826 0 155 -1.63826 1
gene 1 2 53 -0.153737 0 182 -0.153737 1
genomeend 145

/* Organism #146 Fitness: 4.17761 Error: 1.95608 */
genomestart 146
trait 1 0.1 0 0 0 0 0 0 0 
trait 2 0.2 0 0 0 0 0 0 0 
trait 3 0.3 0 0 0 0 0 0 0 
node 1 3 1 3
node 2 1 1 1
node 3 2 1 1
node 4 3 0 2
node 14 2 0 0
node 35 1 0 0
node 53 1 0 0
gene 2 1 4 -3.24178 0 1 -3.24178 1
gene 1 2 4 -2.93711 0 2 -2.93711 1
gene 3 3 4 2.1688 0 3 2.1688 1
gene 3 3 14 0.394986 0 25 0.394986 1
gene 3 14 4 5.52545 0 26 5.52545 1
gene 2 2 14 -4.20878 0 52 -4.20878 0
gene 2 1 14 -2.21702 0 77 -2.21702 1
gene 2 2 35 0.477294 0 97 0.477294 1
gene 2 35 14 -3.629 0 98 -3.629 0
gene 1 35 4 0.894833 0 116 0.894833 1
gene 2 35 53 0.704199 0 154 0.704199 1
gene 2 53 14 -1.58895 0 155 -1.58895 1
gene 1 2 53 0.000534074 0 182 0.000534074 1
genomeend 146

/* Species #23 : (Size 1) (AF 8.22149) (Age 1)  */


/* Organism #147 Fitness: 8.22149 Error: 1.13269 */
genomestart 147
trait 1 0.1 0 0 0 0 0 0 0 
trait 2 0.175372 0.727378 0.788537 0 0 0 1 1 
trait 3 0.3 0 0 0 0 0 0 0 
node 1 3 1 3
node 2 1 1 1
node 3 3 1 1
node 4 2 0 2
node 8 1 0 0
node 22 1 0 0
node 62 1 0 0
gene 3 1 4 1.48709 0 1 1.48709 1
gene 1 2 4 2.6155 0 2 2.6155 1
gene 1 3 4 -6.10076 0 3 -6.10076 1
gene 1 2 8 -2.48142 0 10 -2.48142 1
gene 1 8 4 3.16491 0 11 3.16491 0
gene 2 1 8 -0.0579546 0 29 -0.0579546 1
gene 3 8 22 6.53967 0 48 6.53967 0
gene 1 22 4 -1.86838 0 49 -1.86838 1
gene 3 8 62 3.3632 0 183 3.3632 1
gene 3 62 22 4.79867 0 184 4.79867 1
gene 3 1 22 0.509415 0 209 0.509415 1
genomeend 147

/* Species #24 : (Size 1) (AF 4) (Age 1)  */


/* Organism #148 Fitness: 4 Error: 2 */
genomestart 148
trait 1 0.0875 0 0 0 0 0 0.0801073 0 
trait 2 0.229037 0 0.0558002 0 0 0 0 0 
trait 3 0.333078 0.0924596 0.116279 0 0.140691 0 0 0.0799308 
node 1 2 1 3
node 2 2 1 1
node 3 2 1 1
node 4 1 0 2
node 10 1 0 0
node 33 1 0 0
node 74 1 0 0
gene 2 1 4 2.64704 0 1 2.64704 1
gene 3 2 4 3.40935 0 2 3.40935 1
gene 3 3 4 -6.68282 0 3 -6.68282 0
gene 3 3 10 -0.161603 0 14 -0.161603 0
gene 3 10 4 -1.25447 0 15 -1.25447 1
gene 3 3 33 -0.169225 0 90 -0.169225 1
gene 3 33 10 1.06517 0 91 1.06517 1
gene 1 2 33 -2.6632 0 149 -2.6632 0
gene 3 33 4 -3.6111 0 162 -3.6111 1
gene 1 2 74 1 0 217 0 1
gene 1 74 33 -2.6632 0 218 0 1
genomeend 148

/* Species #25 : (Size 1) (AF 7.81263) (Age 1)  */


/* Organism #149 Fitness: 7.81263 Error: 1.20489 */
genomestart 149
trait 1 0.1 0 0 0 0 0 0 0 
trait 2 0.2 0 0 0 0 0 0 0 
trait 3 0.3 0 0 0 0 0 0 0 
node 1 3 1 3
node 2 1 1 1
node 3 2 1 1
node 4 3 0 2
node 14 2 0 0
node 35 1 0 0
node 53 1 0 0
node 70 1 0 0
gene 2 1 4 -2.92378 0 1 -2.92378 1
gene 1 2 4 -3.15505 0 2 -3.15505 1
gene 3 3 4 1.45711 0 3 1.45711 1
gene 3 3 14 2.58373 0 25 2.58373 1
gene 3 14 4 3.63483 0 26 3.63483 1
gene 2 2 14 -2.6135 0 52 -2.6135 0
gene 2 1 14 0.129223 0 77 0.129223 1
gene 2 2 35 0.407903 0 97 0.407903 0
gene 2 35 14 -2.46552 0 98 -2.46552 1
gene 1 35 4 -0.515732 0 116 -0.515732 1
gene 2 35 53 0.471877 0 154 0.471877 1
gene 2 53 14 -0.173864 0 155 -0.173864 1
gene 1 2 53 -0.866962 0 182 -0.866962 1
gene 2 2 70 1 0 203 0 1
gene 2 70 35 0.407903 0 204 0 1
gene 1 1 35 0.90051 0 224 0.90051 1
genomeend 149
