
/* Species #1 : (Size 7) (AF 8.23822) (Age 30)  */


/* Organism #0 Fitness: 9 Error: 1 */
genomestart 0
trait 1 0.985116 0 0 0 0.633503 0.673391 0.538741 0.846522 
trait 2 0.2 0 0 0 0 0 0 0 
trait 3 0.289453 0 0 0 0 0 0 0.0278711 
node 1 1 1 3
node 2 1 1 1
node 3 3 1 1
node 4 3 0 2
gene 2 1 4 -4.08029 0 1 -4.08029 1
gene 3 2 4 8 0 2 8 1
gene 2 3 4 -8 0 3 -8 1
genomeend 0

/* Organism #1 Fitness: 8.99821 Error: 1.0003 */
genomestart 1
trait 1 0.985116 0 0 0 0.633503 0.673391 0.538741 0.846522 
trait 2 0.2 0 0 0 0 0 0 0 
trait 3 0.289453 0 0 0 0 0 0 0.0278711 
node 1 1 1 3
node 2 1 1 1
node 3 3 1 1
node 4 3 0 2
gene 2 1 4 -1.78941 0 1 -1.78941 1
gene 3 2 4 8 0 2 8 1
gene 2 3 4 -8 0 3 -8 1
genomeend 1

/* Organism #2 Fitness: 8.67037 Error: 1.05545 */
genomestart 2
trait 1 0.985116 0 0 0 0.633503 0.673391 0.538741 0.846522 
trait 2 0.2 0 0 0 0 0 0 0 
trait 3 0.289453 0 0 0 0 0 0 0.0278711 
node 1 1 1 3
node 2 1 1 1
node 3 3 1 1
node 4 3 0 2
gene 2 1 4 -2.85337 0 1 -2.85337 1
gene 3 2 4 8 0 2 8 1
gene 2 3 4 -5.7224 0 3 -5.7224 1
genomeend 2

/* Organism #3 Fitness: 8.99994 Error: 1.00001 */
genomestart 3
trait 1 0.985116 0 0 0 0.633503 0.673391 0.538741 0.846522 
trait 2 0.2 0 0 0 0 0 0 0 
trait 3 0.289453 0 0 0 0 0 0 0.0278711 
node 1 1 1 3
node 2 1 1 1
node 3 3 1 1
node 4 3 0 2
gene 2 1 4 -2.46921 0 1 -2.46921 1
gene 3 2 4 8 0 2 8 1
gene 2 3 4 -8 0 3 -8 1
genomeend 3

/* Organism #4 Fitness: 9 Error: 1 */
genomestart 4
trait 1 0.985116 0 0 0 0.633503 0.673391 0.538741 0.846522 
trait 2 0.2 0 0 0 0 0 0 0 
trait 3 0.289453 0 0 0 0 0 0 0.0278711 
node 1 1 1 3
node 2 1 1 1
node 3 3 1 1
node 4 3 0 2
gene 2 1 4 -3.2128 0 1 -3.2128 1
gene 3 2 4 6.70479 0 2 6.70479 1
gene 2 3 4 -8 0 3 -8 1
genomeend 4

/* Organism #5 Fitness: 4 Error: 2 */
genomestart 5
trait 1 0.985116 0 0 0 0.633503 0.673391 0.538741 0.846522 
trait 2 0.2 0 0 0 0 0 0 0 
trait 3 0.289453 0 0 0 0 0 0 0.0278711 
node 1 1 1 3
node 2 1 1 1
node 3 3 1 1
node 4 3 0 2
gene 2 1 4 -4.08029 0 1 -4.08029 1
gene 3 2 4 -0.0745415 0 2 -0.0745415 1
gene 2 3 4 0.233009 0 3 0.233009 1
genomeend 5

/* Organism #6 Fitness: 8.99904 Error: 1.00016 */
genomestart 6
trait 1 0.985116 0 0 0 0.633503 0.673391 0.538741 0.846522 
trait 2 0.2 0 0 0 0 0 0 0 
trait 3 0.289453 0 0 0 0 0 0 0.0278711 
node 1 1 1 3
node 2 1 1 1
node 3 3 1 1
node 4 3 0 2
gene 2 1 4 -6.22528 0 1 -6.22528 1
gene 3 2 4 8 0 2 8 1
gene 2 3 4 -8 0 3 -8 1
genomeend 6

/* Species #2 : (Size 7) (AF 5.06731) (Age 28)  */


/* Organism #7 Fitness: 9 Error: 1 */
genomestart 7
trait 1 0.1 0 0 0 0 0 0 0 
trait 2 0.2 0 0 0 0 0 0 0 
trait 3 0.170381 0 0 0 0 0 0 0.424904 
node 1 2 1 3
node 2 3 1 1
node 3 2 1 1
node 4 2 0 2
node 5 3 0 0
gene 2 1 4 1.17836 0 1 1.17836 1
gene 3 2 4 -1.26324 0 2 -1.26324 1
gene 1 3 4 -4.14227 0 3 -4.14227 1
gene 3 2 5 -2.46868 0 4 -2.46868 1
gene 3 5 4 8 0 5 8 1
gene 2 1 5 4.36858 0 89 4.36858 1
gene 3 3 5 -3.24963 0 240 -3.24963 1
genomeend 7

/* Organism #8 Fitness: 1.80563 Error: 2.65626 */
genomestart 8
trait 1 0.1 0 0 0 0 0 0 0 
trait 2 0.2 0 0 0 0 0 0 0 
trait 3 0.170381 0 0 0 0 0 0 0.424904 
node 1 2 1 3
node 2 3 1 1
node 3 2 1 1
node 4 2 0 2
node 5 3 0 0
gene 2 1 4 -1.69546 0 1 -1.69546 1
gene 3 2 4 -0.769373 0 2 -0.769373 0
gene 1 3 4 -6.63228 0 3 -6.63228 1
gene 3 2 5 -1.70244 0 4 -1.70244 1
gene 3 5 4 1.82989 0 5 1.82989 1
gene 2 1 5 1.36304 0 89 1.36304 1
gene 3 3 5 0.465316 0 240 0.465316 1
genomeend 8

/* Organism #9 Fitness: 4.00001 Error: 2 */
genomestart 9
trait 1 0.1 0 0 0 0 0 0 0 
trait 2 0.2 0 0 0 0 0 0 0 
trait 3 0.170381 0 0 0 0 0 0 0.424904 
node 1 2 1 3
node 2 3 1 1
node 3 2 1 1
node 4 2 0 2
node 5 3 0 0
gene 2 1 4 1.14944 0 1 1.14944 1
gene 3 2 4 0.146793 0 2 0.146793 1
gene 1 3 4 -5.84696 0 3 -5.84696 1
gene 3 2 5 -2.523 0 4 -2.523 1
gene 3 5 4 8 0 5 8 1
gene 2 1 5 5.89275 0 89 5.89275 1
gene 3 3 5 -2.93246 0 240 -2.93246 1
genomeend 9

/* Organism #10 Fitness: 8.66542 Error: 1.05629 */
genomestart 10
trait 1 0.1 0 0 0 0 0 0 0 
trait 2 0.2 0 0 0 0 0 0 0 
trait 3 0.170381 0 0 0 0 0 0 0.424904 
node 1 2 1 3
node 2 3 1 1
node 3 2 1 1
node 4 2 0 2
node 5 1 0 0
gene 2 1 4 0.569284 0 1 0.569284 1
gene 3 2 4 -2.32643 0 2 -2.32643 0
gene 1 3 4 -7.34077 0 3 -7.34077 1
gene 3 2 5 -3.05036 0 4 -3.05036 1
gene 3 5 4 8 0 5 8 1
gene 2 1 5 1.7391 0 89 1.7391 1
gene 3 3 5 -0.0952177 0 240 -0.0952177 1
genomeend 10

/* Organism #11 Fitness: 4 Error: 2 */
genomestart 11
trait 1 0.1 0 0 0 0 0 0 0 
trait 2 0.2 0 0 0 0 0 0 0 
trait 3 0.170381 0 0 0 0 0 0 0.424904 
node 1 2 1 3
node 2 3 1 1
node 3 2 1 1
node 4 2 0 2
node 5 1 0 0
gene 2 1 4 2.57603 0 1 2.57603 1
gene 3 2 4 0.73786 0 2 0.73786 0
gene 1 3 4 -5.60686 0 3 -5.60686 1
gene 3 2 5 -1.47843 0 4 -1.47843 1
gene 3 5 4 7.6276 0 5 7.6276 1
gene 2 1 5 4.44434 0 89 4.44434 1
gene 3 3 5 -2.27532 0 240 -2.27532 1
genomeend 11

/* Organism #12 Fitness: 4.00007 Error: 1.99998 */
genomestart 12
trait 1 0.1 0 0 0 0 0 0 0 
trait 2 0.2 0 0 0 0 0 0 0 
trait 3 0.170381 0 0 0 0 0 0 0.424904 
node 1 2 1 3
node 2 3 1 1
node 3 2 1 1
node 4 2 0 2
node 5 3 0 0
gene 2 1 4 1.80612 0 1 1.80612 1
gene 3 2 4 -2.80465 0 2 -2.80465 1
gene 1 3 4 -4.78026 0 3 -4.78026 1
gene 3 2 5 -1.00196 0 4 -1.00196 1
gene 3 5 4 8 0 5 8 1
gene 2 1 5 4.63508 0 89 4.63508 1
gene 3 3 5 -2.22771 0 240 -2.22771 1
genomeend 12

/* Organism #13 Fitness: 4 Error: 2 */
genomestart 13
trait 1 0.1 0 0 0 0 0 0 0 
trait 2 0.2 0 0 0 0 0 0 0 
trait 3 0.170381 0 0 0 0 0 0 0.424904 
node 1 2 1 3
node 2 3 1 1
node 3 2 1 1
node 4 2 0 2
node 5 3 0 0
gene 2 1 4 1.17836 0 1 1.17836 1
gene 3 2 4 -1.26324 0 2 -1.26324 1
gene 1 3 4 -1.91481 0 3 -1.91481 1
gene 3 2 5 -1.54641 0 4 -1.54641 1
gene 3 5 4 8 0 5 8 1
gene 2 1 5 3.3163 0 89 3.3163 1
gene 3 3 5 -1.5444 0 240 -1.5444 1
genomeend 13

/* Species #3 : (Size 5) (AF 5.5271) (Age 27)  */


/* Organism #14 Fitness: 8.99483 Error: 1.00086 */
genomestart 14
trait 1 0.0987061 0.806665 0 0 0 0 0 0.136753 
trait 2 0.2 0 0 0 0 0 0 0 
trait 3 0.3 0 0 0 0 0 0 0 
node 1 3 1 3
node 2 1 1 1
node 3 1 1 1
node 4 3 0 2
node 8 1 0 0
gene 3 1 4 -5.78991 0 1 -5.78991 1
gene 1 2 4 -0.639058 0 2 -0.639058 0
gene 2 3 4 4.31754 0 3 4.31754 1
gene 1 2 8 -3.07161 0 10 -3.07161 1
gene 1 8 4 8 0 11 8 1
genomeend 14

/* Organism #15 Fitness: 1.00113 Error: 2.99943 */
genomestart 15
trait 1 0.0987061 0 0 0 0 0 0.00829235 0 
trait 2 0.2 0 0 0 0 0 0 0 
trait 3 0.3 0 0 0 0 0 0 0 
node 1 3 1 3
node 2 1 1 1
node 3 1 1 1
node 4 3 0 2
node 8 1 0 0
node 92 1 0 0
gene 3 1 4 -5.78991 0 1 -5.78991 1
gene 1 2 4 1.33227 0 2 1.33227 0
gene 2 3 4 4.31754 0 3 4.31754 1
gene 1 2 8 -1.95471 0 10 -1.95471 1
gene 1 8 4 8 0 11 8 0
gene 1 8 92 1 0 276 0 1
gene 1 92 4 8 0 277 0 1
genomeend 15

/* Organism #16 Fitness: 8.69057 Error: 1.05202 */
genomestart 16
trait 1 0.0987061 0 0 0 0 0 0.00829235 0 
trait 2 0.2 0 0 0 0 0 0 0 
trait 3 0.3 0 0 0 0 0 0 0 
node 1 3 1 3
node 2 1 1 1
node 3 1 1 1
node 4 3 0 2
node 8 1 0 0
gene 3 1 4 -5.60361 0 1 -5.60361 1
gene 1 2 4 -1.45665 0 2 -1.45665 1
gene 2 3 4 6.47058 0 3 6.47058 1
gene 1 2 8 -3.07161 0 10 -3.07161 1
gene 1 8 4 7.20156 0 11 7.20156 1
genomeend 16

/* Organism #17 Fitness: 5.93549 Error: 1.56371 */
genomestart 17
trait 1 0.0987061 0 0 0 0 0 0.00829235 0 
trait 2 0.2 0 0 0 0 0 0 0 
trait 3 0.3 0 0 0 0 0 0 0 
node 1 3 1 3
node 2 3 1 1
node 3 1 1 1
node 4 3 0 2
node 8 1 0 0
gene 3 1 4 -5.46245 0 1 -5.46245 1
gene 1 2 4 2.74757 0 2 2.74757 0
gene 2 3 4 4.47647 0 3 4.47647 1
gene 1 2 8 -2.41714 0 10 -2.41714 1
gene 1 8 4 1.88063 0 11 1.88063 1
genomeend 17

/* Organism #18 Fitness: 3.01348 Error: 2.26406 */
genomestart 18
trait 1 0.0987061 0 0 0 0 0 0.00829235 0 
trait 2 0.2 0 0 0 0 0 0 0 
trait 3 0.3 0 0 0 0 0 0 0 
node 1 3 1 3
node 2 1 1 1
node 3 1 1 1
node 4 3 0 2
node 8 1 0 0
gene 3 1 4 -1.32717 0 1 -1.32717 1
gene 1 2 4 -0.510117 0 2 -0.510117 1
gene 2 3 4 7.12383 0 3 7.12383 1
gene 1 2 8 -1.86262 0 10 -1.86262 1
gene 1 8 4 2.2383 0 11 2.2383 1
genomeend 18

/* Species #4 : (Size 5) (AF 7.04697) (Age 26)  */


/* Organism #19 Fitness: 4.17345 Error: 1.9571 */
genomestart 19
trait 1 0.0875 0 0 0 0 0 0.0801073 0 
trait 2 0.248396 0 0.0930004 0 0 0 0 0 
trait 3 0.347815 0.138689 0.174419 0 0.224314 0 0 0.133218 
node 1 2 1 3
node 2 2 1 1
node 3 3 1 1
node 4 3 0 2
node 10 1 0 0
gene 2 1 4 -1.65558 0 1 -1.65558 1
gene 3 2 4 1.02504 0 2 1.02504 1
gene 3 3 4 -2.22694 0 3 -2.22694 1
gene 3 3 10 -0.946455 0 14 -0.946455 1
gene 3 10 4 -6.12883 0 15 -6.12883 1
gene 3 2 10 -3.05109 0 195 -3.05109 1
genomeend 19

/* Organism #20 Fitness: 8.28982 Error: 1.1208 */
genomestart 20
trait 1 0.0875 0 0 0 0 0 0.0801073 0 
trait 2 0.248396 0 0.0930004 0 0 0 0 0 
trait 3 0.347815 0.138689 0.174419 0 0.224314 0 0 0.133218 
node 1 2 1 3
node 2 2 1 1
node 3 3 1 1
node 4 3 0 2
node 10 1 0 0
gene 2 1 4 -2.07048 0 1 -2.07048 1
gene 3 2 4 5.39271 0 2 5.39271 1
gene 3 3 4 -3.3909 0 3 -3.3909 1
gene 3 3 10 1.51504 0 14 1.51504 1
gene 3 10 4 -4.58283 0 15 -4.58283 1
gene 3 2 10 -2.03124 0 195 -2.03124 1
genomeend 20

/* Organism #21 Fitness: 5.66738 Error: 1.61937 */
genomestart 21
trait 1 0.0875 0 0 0 0 0 0.0801073 0 
trait 2 0.248396 0 0.0930004 0 0 0 0 0 
trait 3 0.347815 0.138689 0.174419 0 0.224314 0 0 0.133218 
node 1 2 1 3
node 2 2 1 1
node 3 3 1 1
node 4 1 0 2
node 10 1 0 0
gene 2 1 4 -2.77271 0 1 -2.77271 1
gene 3 2 4 7.59016 0 2 7.59016 1
gene 3 3 4 -4.71815 0 3 -4.71815 1
gene 3 3 10 0.0893429 0 14 0.0893429 1
gene 3 10 4 -5.30597 0 15 -5.30597 1
gene 3 2 10 -2.00537 0 195 -2.00537 1
genomeend 21

/* Organism #22 Fitness: 8.99999 Error: 1 */
genomestart 22
trait 1 0.0875 0 0 0 0 0 0.0801073 0 
trait 2 0.248396 0 0.0930004 0 0 0 0 0 
trait 3 0.347815 0.138689 0.174419 0 0.224314 0 0 0.133218 
node 1 2 1 3
node 2 2 1 1
node 3 3 1 1
node 4 3 0 2
node 10 1 0 0
gene 2 1 4 -1.98282 0 1 -1.98282 1
gene 3 2 4 4.95084 0 2 4.95084 1
gene 3 3 4 -4.60401 0 3 -4.60401 1
gene 3 3 10 1.29122 0 14 1.29122 1
gene 3 10 4 -5.30597 0 15 -5.30597 1
gene 3 2 10 -1.01138 0 195 -1.01138 1
gene 1 1 10 0.408124 0 278 0.408124 1
genomeend 22

/* Organism #23 Fitness: 8.10423 Error: 1.15321 */
genomestart 23
trait 1 0.0875 0 0 0 0 0 0.0801073 0 
trait 2 0.248396 0 0.0930004 0 0 0 0 0 
trait 3 0.347815 0.138689 0.174419 0 0.224314 0 0 0.133218 
node 1 2 1 3
node 2 2 1 1
node 3 3 1 1
node 4 1 0 2
node 10 1 0 0
gene 2 1 4 -2.4232 0 1 -2.4232 1
gene 3 2 4 5.20094 0 2 5.20094 1
gene 3 3 4 -3.68151 0 3 -3.68151 1
gene 3 3 10 1.03754 0 14 1.03754 1
gene 3 10 4 -2.43464 0 15 -2.43464 1
gene 3 2 10 1.29727 0 195 1.29727 1
genomeend 23

/* Species #5 : (Size 7) (AF 8.98568) (Age 25)  */


/* Organism #24 Fitness: 9 Error: 1 */
genomestart 24
trait 1 0.1 0 0 0 0 0 0 0 
trait 2 0.2 0 0 0 0 0 0 0 
trait 3 0 0 0 0 0 0 0 0.475936 
node 1 3 1 3
node 2 1 1 1
node 3 3 1 1
node 4 1 0 2
node 14 1 0 0
gene 2 1 4 -3.27528 0 1 -3.27528 1
gene 1 2 4 -8 0 2 -8 1
gene 3 3 4 7.81214 0 3 7.81214 1
gene 3 3 14 3.25436 0 25 3.25436 1
gene 3 14 4 -0.697848 0 26 -0.697848 1
gene 2 2 14 1.66271 0 52 1.66271 1
gene 1 1 14 3.43569 0 113 3.43569 1
genomeend 24

/* Organism #25 Fitness: 8.99998 Error: 1 */
genomestart 25
trait 1 0.1 0 0 0 0 0 0 0 
trait 2 0.2 0 0 0 0 0 0 0 
trait 3 0 0 0 0 0 0 0 0.475936 
node 1 3 1 3
node 2 1 1 1
node 3 3 1 1
node 4 1 0 2
node 14 1 0 0
gene 2 1 4 -4.34632 0 1 -4.34632 1
gene 1 2 4 -8 0 2 -8 1
gene 3 3 4 7.5403 0 3 7.5403 1
gene 3 3 14 3.25436 0 25 3.25436 1
gene 3 14 4 -0.641541 0 26 -0.641541 1
gene 2 2 14 1.32288 0 52 1.32288 1
gene 1 1 14 5.84764 0 113 5.84764 1
genomeend 25

/* Organism #26 Fitness: 9 Error: 1 */
genomestart 26
trait 1 0.1 0 0 0 0 0 0 0 
trait 2 0.2 0 0 0 0 0 0 0 
trait 3 0 0 0 0 0 0 0 0.475936 
node 1 3 1 3
node 2 1 1 1
node 3 3 1 1
node 4 1 0 2
node 14 1 0 0
node 93 1 0 0
gene 2 1 4 -3.27528 0 1 -3.27528 1
gene 1 2 4 -8 0 2 -8 1
gene 3 3 4 7.81214 0 3 7.81214 1
gene 3 3 14 3.25436 0 25 3.25436 1
gene 3 14 4 -0.697848 0 26 -0.697848 0
gene 2 2 14 1.66271 0 52 1.66271 1
gene 1 1 14 3.43569 0 113 3.43569 1
gene 3 14 93 1 0 279 0 1
gene 3 93 4 -0.697848 0 280 0 1
genomeend 26

/* Organism #27 Fitness: 9 Error: 1 */
genomestart 27
trait 1 0.1 0 0 0 0 0 0 0 
trait 2 0.2 0 0 0 0 0 0 0 
trait 3 0 0 0 0 0 0 0 0.475936 
node 1 3 1 3
node 2 1 1 1
node 3 3 1 1
node 4 1 0 2
node 14 1 0 0
gene 2 1 4 -4.99484 0 1 -4.99484 1
gene 1 2 4 -8 0 2 -8 1
gene 3 3 4 7.27555 0 3 7.27555 1
gene 3 3 14 5.71537 0 25 5.71537 1
gene 3 14 4 1.42685 0 26 1.42685 1
gene 2 2 14 0.229251 0 52 0.229251 1
gene 1 1 14 4.96696 0 113 4.96696 1
genomeend 27

/* Organism #28 Fitness: 9 Error: 1 */
genomestart 28
trait 1 0.1 0 0 0 0 0 0 0 
trait 2 0.2 0 0 0 0 0 0 0 
trait 3 0 0 0 0 0 0 0 0.475936 
node 1 3 1 3
node 2 1 1 1
node 3 3 1 1
node 4 1 0 2
node 14 3 0 0
gene 2 1 4 -4.31367 0 1 -4.31367 1
gene 1 2 4 -8 0 2 -8 1
gene 3 3 4 8 0 3 8 1
gene 3 3 14 4.35944 0 25 4.35944 1
gene 3 14 4 0.450758 0 26 0.450758 1
gene 2 2 14 -0.888394 0 52 -0.888394 1
gene 1 1 14 1.95692 0 113 1.95692 1
genomeend 28

/* Organism #29 Fitness: 8.99997 Error: 1.00001 */
genomestart 29
trait 1 0.1 0 0 0 0 0 0 0 
trait 2 0.2 0 0 0 0 0 0 0 
trait 3 0 0 0 0 0 0 0 0.475936 
node 1 3 1 3
node 2 1 1 1
node 3 3 1 1
node 4 1 0 2
node 14 1 0 0
gene 2 1 4 -0.887738 0 1 -0.887738 1
gene 1 2 4 -7.07239 0 2 -7.07239 1
gene 3 3 4 8 0 3 8 1
gene 3 3 14 3.63477 0 25 3.63477 1
gene 3 14 4 -2.51141 0 26 -2.51141 1
gene 2 2 14 0.552061 0 52 0.552061 1
gene 1 1 14 4.30509 0 113 4.30509 1
genomeend 29

/* Organism #30 Fitness: 8.89983 Error: 1.01674 */
genomestart 30
trait 1 0.1 0 0 0 0 0 0 0 
trait 2 0.2 0 0 0 0 0 0 0 
trait 3 0 0 0 0 0 0 0 0.475936 
node 1 3 1 3
node 2 1 1 1
node 3 3 1 1
node 4 1 0 2
node 14 1 0 0
gene 2 1 4 -3.27528 0 1 -3.27528 1
gene 1 2 4 -8 0 2 -8 1
gene 3 3 4 8 0 3 8 1
gene 3 3 14 3.25436 0 25 3.25436 1
gene 3 14 4 2.30567 0 26 2.30567 1
gene 2 2 14 0.842139 0 52 0.842139 1
gene 1 1 14 3.43569 0 113 3.43569 1
genomeend 30

/* Species #6 : (Size 3) (AF 3.03214) (Age 23)  */


/* Organism #31 Fitness: 4 Error: 2 */
genomestart 31
trait 1 0.1 0 0 0 0 0 0 0 
trait 2 0.2 0 0 0 0 0 0 0 
trait 3 0.3 0 0 0 0 0 0 0 
node 1 3 1 3
node 2 1 1 1
node 3 3 1 1
node 4 3 0 2
node 8 1 0 0
node 22 1 0 0
gene 3 1 4 -0.680639 0 1 -0.680639 1
gene 1 2 4 3.63062 0 2 3.63062 0
gene 1 3 4 -6.16262 0 3 -6.16262 1
gene 1 2 8 2.26627 0 10 2.26627 1
gene 1 8 4 2.37281 0 11 2.37281 0
gene 2 1 8 -0.193609 0 29 -0.193609 1
gene 1 8 22 3.48599 0 48 3.48599 1
gene 1 22 4 -4.43794 0 49 -4.43794 1
genomeend 31

/* Organism #32 Fitness: 1.09634 Error: 2.95294 */
genomestart 32
trait 1 0.1 0 0 0 0 0 0 0 
trait 2 0.2 0 0 0 0 0 0 0 
trait 3 0.3 0 0 0 0 0 0 0 
node 1 3 1 3
node 2 1 1 1
node 3 3 1 1
node 4 3 0 2
node 8 1 0 0
node 22 1 0 0
gene 3 1 4 -0.655232 0 1 -0.655232 1
gene 1 2 4 3.31155 0 2 3.31155 0
gene 1 3 4 1.86117 0 3 1.86117 1
gene 1 2 8 2.13588 0 10 2.13588 1
gene 1 8 4 0.682318 0 11 0.682318 0
gene 2 1 8 -0.481811 0 29 -0.481811 1
gene 1 8 22 -0.515992 0 48 -0.515992 1
gene 1 22 4 -8 0 49 -8 1
genomeend 32

/* Organism #33 Fitness: 4.00008 Error: 1.99998 */
genomestart 33
trait 1 0.1 0 0 0 0 0 0 0 
trait 2 0.2 0 0 0 0 0 0 0 
trait 3 0.3 0 0 0 0 0 0 0 
node 1 3 1 3
node 2 1 1 1
node 3 3 1 1
node 4 3 0 2
node 8 1 0 0
node 22 1 0 0
gene 3 1 4 2.81533 0 1 2.81533 1
gene 1 2 4 2.12127 0 2 2.12127 1
gene 1 3 4 -2.47467 0 3 -2.47467 1
gene 1 2 8 0.473079 0 10 0.473079 1
gene 1 8 4 -1.22097 0 11 -1.22097 0
gene 2 1 8 1.0773 0 29 1.0773 1
gene 1 8 22 3.05271 0 48 3.05271 1
gene 1 22 4 -7.13906 0 49 -7.13906 1
genomeend 33

/* Species #7 : (Size 5) (AF 7.07291) (Age 22)  */


/* Organism #34 Fitness: 9.00436 Error: 0.999273 */
genomestart 34
trait 1 0 0 0.920469 0 0 0 0.636739 0 
trait 2 0.2 0 0 0 0 0 0 0 
trait 3 0.3 0 0 0 0 0 0 0 
node 1 3 1 3
node 2 1 1 1
node 3 1 1 1
node 4 3 0 2
node 8 1 0 0
node 23 1 0 0
gene 2 1 4 -2.66807 0 1 -2.66807 1
gene 1 2 4 2.81166 0 2 2.81166 0
gene 2 3 4 1.8497 0 3 1.8497 1
gene 1 2 8 3.39148 0 10 3.39148 1
gene 1 8 4 -0.693587 0 11 -0.693587 0
gene 2 1 8 -2.50264 0 29 -2.50264 1
gene 1 8 23 3.27134 0 54 3.27134 1
gene 1 23 4 5.46326 0 55 5.46326 1
gene 2 1 23 -1.30158 0 120 -1.30158 1
gene 3 3 8 -2.46084 0 185 -2.46084 1
gene 1 2 23 -0.574175 0 244 -0.574175 1
genomeend 34

/* Organism #35 Fitness: 4.00578 Error: 1.99856 */
genomestart 35
trait 1 0 0 0.920469 0 0 0 0.636739 0 
trait 2 0.2 0 0 0 0 0 0 0 
trait 3 0.3 0 0 0 0 0 0 0 
node 1 3 1 3
node 2 1 1 1
node 3 1 1 1
node 4 3 0 2
node 8 1 0 0
node 23 1 0 0
gene 2 1 4 -2.68325 0 1 -2.68325 1
gene 1 2 4 2.33618 0 2 2.33618 0
gene 2 3 4 2.48296 0 3 2.48296 1
gene 1 2 8 1.23 0 10 1.23 1
gene 1 8 4 -2.25186 0 11 -2.25186 0
gene 2 1 8 -0.326365 0 29 -0.326365 1
gene 1 8 23 2.40057 0 54 2.40057 1
gene 1 23 4 3.88018 0 55 3.88018 1
gene 2 1 23 0.368007 0 120 0.368007 1
gene 3 3 8 -0.341182 0 185 -0.341182 1
gene 1 2 23 1.20208 0 244 1.20208 1
genomeend 35

/* Organism #36 Fitness: 8.99998 Error: 1 */
genomestart 36
trait 1 0 0 0.920469 0 0 0 0.636739 0 
trait 2 0.2 0 0 0 0 0 0 0 
trait 3 0.3 0 0 0 0 0 0 0 
node 1 3 1 3
node 2 1 1 1
node 3 1 1 1
node 4 3 0 2
node 8 1 0 0
node 23 1 0 0
gene 2 1 4 -2.66807 0 1 -2.66807 1
gene 1 2 4 2.81166 0 2 2.81166 0
gene 2 3 4 0.0404065 0 3 0.0404065 1
gene 1 2 8 3.39148 0 10 3.39148 1
gene 1 8 4 -0.37215 0 11 -0.37215 0
gene 2 1 8 -1.10016 0 29 -1.10016 1
gene 1 8 23 3.27134 0 54 3.27134 1
gene 1 23 4 6.63372 0 55 6.63372 1
gene 2 1 23 -1.30158 0 120 -1.30158 1
gene 3 3 8 -2.46084 0 185 -2.46084 1
gene 1 2 23 -0.574175 0 244 -0.574175 1
genomeend 36

/* Organism #37 Fitness: 8.99931 Error: 1.00012 */
genomestart 37
trait 1 0 0 0.920469 0 0 0 0.636739 0 
trait 2 0.2 0 0 0 0 0 0 0 
trait 3 0.3 0 0 0 0 0 0 0 
node 1 3 1 3
node 2 1 1 1
node 3 1 1 1
node 4 3 0 2
node 8 1 0 0
node 23 1 0 0
gene 2 1 4 -4.46187 0 1 -4.46187 1
gene 1 2 4 2.84027 0 2 2.84027 0
gene 2 3 4 -1.63742 0 3 -1.63742 1
gene 1 2 8 2.60639 0 10 2.60639 1
gene 1 8 4 0.656171 0 11 0.656171 0
gene 2 1 8 -2.36874 0 29 -2.36874 1
gene 1 8 23 2.93922 0 54 2.93922 1
gene 1 23 4 8 0 55 8 1
gene 2 1 23 0.99147 0 120 0.99147 1
gene 3 3 8 -3.54219 0 185 -3.54219 1
gene 1 2 23 -1.20385 0 244 -1.20385 1
genomeend 37

/* Organism #38 Fitness: 4.35513 Error: 1.9131 */
genomestart 38
trait 1 0 0 0.920469 0 0 0 0.636739 0 
trait 2 0.2 0 0 0 0 0 0 0 
trait 3 0.3 0 0 0 0 0 0 0 
node 1 3 1 3
node 2 1 1 1
node 3 1 1 1
node 4 3 0 2
node 8 1 0 0
node 23 1 0 0
gene 2 1 4 -5.09818 0 1 -5.09818 1
gene 1 2 4 1.10804 0 2 1.10804 0
gene 2 3 4 -0.207404 0 3 -0.207404 1
gene 1 2 8 4.38913 0 10 4.38913 1
gene 1 8 4 0.950903 0 11 0.950903 0
gene 2 1 8 -1.30837 0 29 -1.30837 1
gene 1 8 23 3.49207 0 54 3.49207 1
gene 1 23 4 5.66865 0 55 5.66865 1
gene 2 1 23 -0.960463 0 120 -0.960463 1
gene 3 3 8 -2.46084 0 185 -2.46084 1
gene 1 2 23 -0.574175 0 244 -0.574175 1
genomeend 38

/* Species #8 : (Size 7) (AF 6.95273) (Age 22)  */


/* Organism #39 Fitness: 9 Error: 1 */
genomestart 39
trait 1 0.1 0 0 0 0 0 0 0 
trait 2 0.16875 0.153031 0 0 0.012608 0.118388 0 0 
trait 3 0.3 0 0.574641 0 0 0 0 0.524222 
node 1 3 1 3
node 2 1 1 1
node 3 3 1 1
node 4 3 0 2
node 14 1 0 0
node 24 1 0 0
gene 2 1 4 -1.04779 0 1 -1.04779 1
gene 2 2 4 6.03034 0 2 6.03034 1
gene 3 3 4 1.8456 0 3 1.8456 1
gene 3 3 14 4.05187 0 25 4.05187 1
gene 1 14 4 7.70645 0 26 7.70645 1
gene 1 2 24 -1.57807 0 58 -1.57807 1
gene 1 24 4 -4.29075 0 59 -4.29075 1
gene 2 1 14 -1.79376 0 71 -1.79376 1
gene 1 14 24 -0.889706 0 215 -0.889706 1
gene 2 1 24 0.848567 0 227 0.848567 1
gene 2 2 14 0.270455 0 264 0.270455 1
genomeend 39

/* Organism #40 Fitness: 8.99973 Error: 1.00005 */
genomestart 40
trait 1 0.1 0 0 0 0 0 0 0 
trait 2 0.16875 0.153031 0 0 0.012608 0.118388 0 0 
trait 3 0.3 0 0.574641 0.642659 0.994293 0 0 0.807495 
node 1 3 1 3
node 2 1 1 1
node 3 3 1 1
node 4 3 0 2
node 14 1 0 0
node 24 1 0 0
gene 2 1 4 0.725337 0 1 0.725337 1
gene 2 2 4 4.83844 0 2 4.83844 1
gene 3 3 4 2.60528 0 3 2.60528 1
gene 3 3 14 4.19416 0 25 4.19416 1
gene 1 14 4 7.23441 0 26 7.23441 1
gene 1 2 24 -2.40238 0 58 -2.40238 1
gene 1 24 4 -2.75674 0 59 -2.75674 1
gene 2 1 14 -3.41323 0 71 -3.41323 1
gene 1 14 24 0.437773 0 215 0.437773 1
gene 2 1 24 2.856 0 227 2.856 1
genomeend 40

/* Organism #41 Fitness: 4.00229 Error: 1.99943 */
genomestart 41
trait 1 0.1 0 0 0 0 0 0 0 
trait 2 0.16875 0.153031 0 0 0.012608 0.118388 0 0 
trait 3 0.3 0 0.574641 0 0 0 0 0.524222 
node 1 3 1 3
node 2 1 1 1
node 3 3 1 1
node 4 3 0 2
node 14 1 0 0
node 24 1 0 0
gene 2 1 4 -0.784948 0 1 -0.784948 1
gene 2 2 4 3.70566 0 2 3.70566 1
gene 3 3 4 -0.264222 0 3 -0.264222 1
gene 3 3 14 2.75918 0 25 2.75918 1
gene 1 14 4 8 0 26 8 1
gene 1 2 24 -2.20477 0 58 -2.20477 1
gene 1 24 4 -2.33169 0 59 -2.33169 1
gene 2 1 14 -3.00062 0 71 -3.00062 1
gene 1 14 24 -0.0153508 0 215 -0.0153508 1
gene 2 1 24 1.94731 0 227 1.94731 1
gene 2 2 14 -0.159246 0 264 -0.159246 1
genomeend 41

/* Organism #42 Fitness: 9 Error: 1 */
genomestart 42
trait 1 0.1 0 0 0 0 0 0 0 
trait 2 0.16875 0.153031 0 0 0.012608 0.118388 0 0 
trait 3 0.3 0 0.574641 0 0 0 0 0.524222 
node 1 3 1 3
node 2 1 1 1
node 3 3 1 1
node 4 3 0 2
node 14 1 0 0
node 24 1 0 0
gene 2 1 4 -1.04779 0 1 -1.04779 1
gene 2 2 4 6.03034 0 2 6.03034 1
gene 3 3 4 1.8456 0 3 1.8456 1
gene 3 3 14 4.05187 0 25 4.05187 1
gene 1 14 4 7.70645 0 26 7.70645 1
gene 1 2 24 -1.57807 0 58 -1.57807 1
gene 1 24 4 -4.29075 0 59 -4.29075 1
gene 2 1 14 -1.79376 0 71 -1.79376 1
gene 1 14 24 -0.889706 0 215 -0.889706 1
gene 2 1 24 0.848567 0 227 0.848567 1
gene 2 2 14 0.270455 0 264 0.270455 1
genomeend 42

/* Organism #43 Fitness: 4.66683 Error: 1.83972 */
genomestart 43
trait 1 0.1 0 0 0 0 0 0 0 
trait 2 0.16875 0.153031 0 0 0.012608 0.118388 0 0 
trait 3 0.3 0 0.574641 0 0 0 0 0.524222 
node 1 3 1 3
node 2 1 1 1
node 3 3 1 1
node 4 3 0 2
node 14 1 0 0
node 24 1 0 0
gene 2 1 4 -1.04779 0 1 -1.04779 1
gene 2 2 4 4.52738 0 2 4.52738 1
gene 3 3 4 4.30104 0 3 4.30104 1
gene 3 3 14 6.27499 0 25 6.27499 1
gene 1 14 4 8 0 26 8 1
gene 1 2 24 0.647412 0 58 0.647412 1
gene 1 24 4 -4.29075 0 59 -4.29075 1
gene 2 1 14 -2.6859 0 71 -2.6859 1
gene 1 14 24 1.25767 0 215 1.25767 1
gene 2 1 24 -0.224235 0 227 -0.224235 1
gene 2 2 14 -0.22982 0 264 -0.22982 1
genomeend 43

/* Organism #44 Fitness: 8.99994 Error: 1.00001 */
genomestart 44
trait 1 0.1 0 0 0 0 0 0 0 
trait 2 0.16875 0 0 0.404675 0.436571 0.923863 0 0 
trait 3 0.3 0 0.574641 0 0 0 0 0.524222 
node 1 3 1 3
node 2 1 1 1
node 3 3 1 1
node 4 3 0 2
node 14 1 0 0
node 24 3 0 0
gene 2 1 4 -2.32575 0 1 -2.32575 1
gene 2 2 4 6.45859 0 2 6.45859 1
gene 3 3 4 1.53942 0 3 1.53942 1
gene 3 3 14 3.37176 0 25 3.37176 1
gene 1 14 4 6.43635 0 26 6.43635 1
gene 1 2 24 -0.182844 0 58 -0.182844 1
gene 1 24 4 -4.46394 0 59 -4.46394 1
gene 2 1 14 -3.2057 0 71 -3.2057 1
gene 1 14 24 0.194006 0 215 0.194006 1
gene 2 1 24 -1.14147 0 227 -1.14147 1
genomeend 44

/* Organism #45 Fitness: 4.00034 Error: 1.99992 */
genomestart 45
trait 1 0.1 0 0 0 0 0 0 0 
trait 2 0.16875 0.153031 0 0 0.012608 0.118388 0 0 
trait 3 0.3 0 0.574641 0 0 0 0 0.524222 
node 1 3 1 3
node 2 1 1 1
node 3 3 1 1
node 4 3 0 2
node 14 1 0 0
node 24 1 0 0
gene 2 1 4 -1.95838 0 1 -1.95838 1
gene 2 2 4 5.00247 0 2 5.00247 1
gene 3 3 4 2.11843 0 3 2.11843 1
gene 3 3 14 1.66028 0 25 1.66028 1
gene 1 14 4 7.71179 0 26 7.71179 1
gene 3 2 24 -3.47839 0 58 -3.47839 1
gene 1 24 4 -2.09525 0 59 -2.09525 1
gene 2 1 14 -3.57688 0 71 -3.57688 1
gene 1 14 24 0.289377 0 215 0.289377 1
gene 2 1 24 0.848567 0 227 0.848567 1
genomeend 45

/* Species #9 : (Size 8) (AF 6.04789) (Age 20)  */


/* Organism #46 Fitness: 9 Error: 1 */
genomestart 46
trait 1 0.235565 0.141247 0.0512735 0 0 0 0.0801073 0 
trait 2 0.277433 0 0.148801 0 0 0 0 0 
trait 3 0.27116 0 0 0 0.212432 0.895077 0.692038 0 
node 1 2 1 3
node 2 2 1 1
node 3 3 1 1
node 4 1 0 2
node 10 1 0 0
gene 3 1 4 3.85348 0 1 3.85348 1
gene 3 2 4 4.94657 0 2 4.94657 1
gene 3 3 4 -0.528447 0 3 -0.528447 1
gene 3 3 10 -6.48614 0 14 -6.48614 1
gene 3 10 4 -8 0 15 -8 1
gene 3 2 10 -0.773492 0 66 -0.773492 1
gene 3 1 10 0.935282 0 76 0.935282 1
genomeend 46

/* Organism #47 Fitness: 8.99998 Error: 1 */
genomestart 47
trait 1 0.235565 0.141247 0.0512735 0 0 0 0.0801073 0 
trait 2 0.277433 0 0.148801 0 0 0 0 0 
trait 3 0.27116 0 0 0 0.212432 0.895077 0.692038 0 
node 1 2 1 3
node 2 2 1 1
node 3 1 1 1
node 4 1 0 2
node 10 1 0 0
gene 3 1 4 2.55874 0 1 2.55874 1
gene 3 2 4 7.27239 0 2 7.27239 1
gene 3 3 4 -0.0116161 0 3 -0.0116161 1
gene 3 3 10 -6.48614 0 14 -6.48614 1
gene 3 10 4 -8 0 15 -8 1
gene 3 2 10 -2.36503 0 66 -2.36503 1
gene 3 1 10 2.20523 0 76 2.20523 1
genomeend 47

/* Organism #48 Fitness: 4.00189 Error: 1.99953 */
genomestart 48
trait 1 0.235565 0.141247 0.0512735 0 0 0 0.0801073 0 
trait 2 0.277433 0 0.148801 0 0 0 0 0 
trait 3 0.27116 0 0 0 0.212432 0.895077 0.692038 0 
node 1 2 1 3
node 2 2 1 1
node 3 1 1 1
node 4 1 0 2
node 10 1 0 0
gene 3 1 4 -1.7378 0 1 -1.7378 1
gene 3 2 4 4.40174 0 2 4.40174 1
gene 3 3 4 -1.15865 0 3 -1.15865 1
gene 3 3 10 -0.570849 0 14 -0.570849 1
gene 3 10 4 -0.514924 0 15 -0.514924 1
gene 3 2 10 -0.343486 0 66 -0.343486 1
gene 3 1 10 -0.351608 0 76 -0.351608 1
genomeend 48

/* Organism #49 Fitness: 3.98801 Error: 2.003 */
genomestart 49
trait 1 0.235565 0.141247 0.0512735 0 0 0 0.0801073 0 
trait 2 0.277433 0 0.148801 0 0 0 0 0 
trait 3 0.27116 0 0 0 0.212432 0.895077 0.692038 0 
node 1 2 1 3
node 2 2 1 1
node 3 1 1 1
node 4 1 0 2
node 10 1 0 0
gene 3 1 4 5.8146 0 1 5.8146 1
gene 3 2 4 -1.34373 0 2 -1.34373 1
gene 3 3 4 -0.794416 0 3 -0.794416 1
gene 3 3 10 -6.5632 0 14 -6.5632 1
gene 3 10 4 -6.99342 0 15 -6.99342 1
gene 3 2 10 -0.773492 0 66 -0.773492 1
gene 3 1 10 3.21463 0 76 3.21463 1
genomeend 49

/* Organism #50 Fitness: 9 Error: 1 */
genomestart 50
trait 1 0.235565 0.141247 0.0512735 0 0 0 0.0801073 0 
trait 2 0.277433 0 0.148801 0 0 0 0 0 
trait 3 0.27116 0 0 0 0.212432 0.895077 0.692038 0 
node 1 2 1 3
node 2 2 1 1
node 3 3 1 1
node 4 1 0 2
node 10 1 0 0
gene 3 1 4 3.85348 0 1 3.85348 1
gene 3 2 4 4.94657 0 2 4.94657 1
gene 3 3 4 -0.528447 0 3 -0.528447 1
gene 3 3 10 -6.48614 0 14 -6.48614 1
gene 3 10 4 -8 0 15 -8 1
gene 3 2 10 -0.773492 0 66 -0.773492 1
gene 3 1 10 0.935282 0 76 0.935282 1
genomeend 50

/* Organism #51 Fitness: 7.85417 Error: 1.19747 */
genomestart 51
trait 1 0.235565 0.141247 0.0512735 0 0 0 0.0801073 0 
trait 2 0.277433 0 0.148801 0 0 0 0 0 
trait 3 0.27116 0 0 0 0.212432 0.895077 0.692038 0 
node 1 2 1 3
node 2 2 1 1
node 3 3 1 1
node 4 1 0 2
node 10 1 0 0
gene 3 1 4 3.85348 0 1 3.85348 1
gene 3 2 4 4.43126 0 2 4.43126 1
gene 3 3 4 -2.12823 0 3 -2.12823 1
gene 3 3 10 -4.43911 0 14 -4.43911 1
gene 3 10 4 -8 0 15 -8 1
gene 3 2 10 0.261086 0 66 0.261086 1
gene 3 1 10 1.83706 0 76 1.83706 1
genomeend 51

/* Organism #52 Fitness: 1.53909 Error: 2.7594 */
genomestart 52
trait 1 0.235565 0.141247 0.0512735 0 0 0 0.0801073 0 
trait 2 0.277433 0 0.148801 0 0 0 0 0 
trait 3 0.27116 0 0 0 0.212432 0.895077 0.692038 0 
node 1 2 1 3
node 2 2 1 1
node 3 1 1 1
node 4 1 0 2
node 10 1 0 0
gene 3 1 4 -2.12043 0 1 -2.12043 1
gene 3 2 4 5.89142 0 2 5.89142 1
gene 3 3 4 1.88702 0 3 1.88702 1
gene 3 3 10 -4.0188 0 14 -4.0188 1
gene 3 10 4 -8 0 15 -8 1
gene 3 2 10 -0.426496 0 66 -0.426496 1
gene 3 1 10 0.935282 0 76 0.935282 1
genomeend 52

/* Organism #53 Fitness: 4 Error: 2 */
genomestart 53
trait 1 0.235565 0.141247 0.0512735 0 0 0 0.0801073 0 
trait 2 0.277433 0 0.148801 0 0 0 0 0 
trait 3 0.27116 0 0 0 0.212432 0.895077 0.692038 0 
node 1 2 1 3
node 2 2 1 1
node 3 3 1 1
node 4 1 0 2
node 10 1 0 0
gene 3 1 4 4.96321 0 1 4.96321 1
gene 3 2 4 6.78615 0 2 6.78615 1
gene 3 3 4 -0.924806 0 3 -0.924806 1
gene 3 3 10 -5.01958 0 14 -5.01958 1
gene 3 10 4 -8 0 15 -8 1
gene 3 2 10 -2.25532 0 66 -2.25532 1
gene 3 1 10 -0.423631 0 76 -0.423631 1
genomeend 53

/* Species #11 : (Size 4) (AF 4.01144) (Age 18)  */


/* Organism #54 Fitness: 4 Error: 2 */
genomestart 54
trait 1 0.199137 0 0.309732 0 0 0 0 0 
trait 2 0.229037 0 0.0558002 0 0 0 0 0 
trait 3 0.333078 0.0924596 0.116279 0 0.140691 0 0 0.0799308 
node 1 2 1 3
node 2 2 1 1
node 3 2 1 1
node 4 1 0 2
node 10 1 0 0
node 33 1 0 0
node 67 1 0 0
gene 1 1 4 -3.81114 0 1 -3.81114 1
gene 3 2 4 0.990303 0 2 0.990303 0
gene 3 3 4 -8 0 3 -8 0
gene 3 3 10 -0.479682 0 14 -0.479682 1
gene 3 10 4 1.47526 0 15 1.47526 1
gene 3 3 33 -2.47223 0 90 -2.47223 1
gene 3 33 10 0.329447 0 91 0.329447 1
gene 1 2 33 -4.57297 0 149 -4.57297 1
gene 3 33 4 -2.51114 0 162 -2.51114 1
gene 3 2 67 -2.16796 0 196 -2.16796 1
gene 3 67 4 0.811541 0 197 0.811541 1
genomeend 54

/* Organism #55 Fitness: 4.04577 Error: 1.98859 */
genomestart 55
trait 1 0.199137 0 0.309732 0 0 0 0 0 
trait 2 0.229037 0 0.0558002 0 0 0 0 0 
trait 3 0.333078 0.0924596 0.116279 0 0.140691 0 0 0.0799308 
node 1 2 1 3
node 2 2 1 1
node 3 2 1 1
node 4 1 0 2
node 10 1 0 0
node 33 1 0 0
node 67 1 0 0
gene 1 1 4 -3.03986 0 1 -3.03986 1
gene 3 2 4 -0.942434 0 2 -0.942434 0
gene 3 3 4 -8 0 3 -8 0
gene 3 3 10 -1.22395 0 14 -1.22395 1
gene 3 10 4 1.43795 0 15 1.43795 1
gene 3 3 33 -3.28692 0 90 -3.28692 1
gene 3 33 10 -0.348521 0 91 -0.348521 1
gene 1 2 33 -0.859783 0 149 -0.859783 1
gene 3 33 4 -0.734428 0 162 -0.734428 1
gene 3 2 67 1.44627 0 196 1.44627 1
gene 3 67 4 1.44221 0 197 1.44221 1
genomeend 55

/* Organism #56 Fitness: 4 Error: 2 */
genomestart 56
trait 1 0.199137 0 0.309732 0 0 0 0 0 
trait 2 0.229037 0 0.0558002 0 0 0 0 0 
trait 3 0.333078 0.0924596 0.116279 0 0.140691 0 0 0.0799308 
node 1 2 1 3
node 2 2 1 1
node 3 2 1 1
node 4 1 0 2
node 10 1 0 0
node 33 1 0 0
node 67 1 0 0
gene 1 1 4 -4.20109 0 1 -4.20109 1
gene 3 2 4 2.10324 0 2 2.10324 0
gene 3 3 4 -8 0 3 -8 0
gene 3 3 10 2.41591 0 14 2.41591 1
gene 3 10 4 -0.942644 0 15 -0.942644 1
gene 3 3 33 -0.257424 0 90 -0.257424 1
gene 3 33 10 1.08127 0 91 1.08127 1
gene 1 2 33 -2.57881 0 149 -2.57881 1
gene 3 33 4 -1.82859 0 162 -1.82859 1
gene 3 2 67 -0.857265 0 196 -0.857265 1
gene 3 67 4 1.11515 0 197 1.11515 1
genomeend 56

/* Organism #57 Fitness: 4 Error: 2 */
genomestart 57
trait 1 0.199137 0 0.309732 0 0 0 0 0 
trait 2 0.229037 0 0.0558002 0 0 0 0 0 
trait 3 0.333078 0.0924596 0.116279 0 0.140691 0 0 0.0799308 
node 1 1 1 3
node 2 2 1 1
node 3 2 1 1
node 4 1 0 2
node 10 1 0 0
node 33 1 0 0
node 67 1 0 0
gene 1 1 4 -4.30226 0 1 -4.30226 1
gene 3 2 4 1.98093 0 2 1.98093 0
gene 3 3 4 -8 0 3 -8 0
gene 3 3 10 -0.154576 0 14 -0.154576 1
gene 3 10 4 0.278706 0 15 0.278706 1
gene 3 3 33 -0.289163 0 90 -0.289163 1
gene 3 33 10 -0.344325 0 91 -0.344325 1
gene 1 2 33 -2.97945 0 149 -2.97945 1
gene 3 33 4 -2.5515 0 162 -2.5515 1
gene 3 2 67 -0.757927 0 196 -0.757927 1
gene 3 67 4 -0.586512 0 197 -0.586512 1
genomeend 57

/* Species #12 : (Size 6) (AF 7.85151) (Age 18)  */


/* Organism #58 Fitness: 8.99986 Error: 1.00002 */
genomestart 58
trait 1 0 0 0 0 0.190802 0 0 0 
trait 2 0.2 0 0 0 0 0 0 0 
trait 3 0.3 0 0 0 0 0 0 0 
node 1 3 1 3
node 2 1 1 1
node 3 3 1 1
node 4 3 0 2
node 14 1 0 0
gene 2 1 4 -2.17963 0 1 -2.17963 1
gene 1 2 4 -5.68431 0 2 -5.68431 1
gene 3 3 4 5.90986 0 3 5.90986 0
gene 3 3 14 4.39644 0 25 4.39644 1
gene 3 14 4 5.05622 0 26 5.05622 1
gene 1 1 14 -3.224 0 60 -3.224 1
gene 2 2 14 1.12381 0 92 1.12381 1
genomeend 58

/* Organism #59 Fitness: 8.99984 Error: 1.00003 */
genomestart 59
trait 1 0.1 0 0 0 0 0 0 0 
trait 2 0.2 0 0 0 0 0 0 0 
trait 3 0.3 0 0 0 0 0 0 0 
node 1 3 1 3
node 2 1 1 1
node 3 3 1 1
node 4 3 0 2
node 14 1 0 0
node 89 1 0 0
gene 2 1 4 -2.17193 0 1 -2.17193 1
gene 1 2 4 -4.96865 0 2 -4.96865 0
gene 3 3 4 5.38567 0 3 5.38567 0
gene 3 3 14 4.58791 0 25 4.58791 1
gene 3 14 4 7.41424 0 26 7.41424 1
gene 1 1 14 -1.97934 0 60 -1.97934 1
gene 2 2 14 6.17321 0 92 6.17321 1
gene 1 2 89 -0.44406 0 266 -0.44406 1
gene 1 89 4 -6.20717 0 267 -6.20717 1
genomeend 59

/* Organism #60 Fitness: 4.77656 Error: 1.81447 */
genomestart 60
trait 1 0 0 0 0 0.190802 0 0 0 
trait 2 0.2 0 0 0 0 0 0 0 
trait 3 0.3 0 0 0 0 0 0 0 
node 1 3 1 3
node 2 1 1 1
node 3 3 1 1
node 4 3 0 2
node 14 1 0 0
gene 2 1 4 0.298013 0 1 0.298013 1
gene 1 2 4 -5.36463 0 2 -5.36463 1
gene 3 3 4 8 0 3 8 0
gene 3 3 14 3.0917 0 25 3.0917 1
gene 3 14 4 6.76015 0 26 6.76015 1
gene 1 1 14 -1.98792 0 60 -1.98792 1
gene 2 2 14 -1.05949 0 92 -1.05949 1
genomeend 60

/* Organism #61 Fitness: 6.36595 Error: 1.47692 */
genomestart 61
trait 1 0 0 0 0 0.190802 0 0 0 
trait 2 0.2 0 0 0 0 0 0 0 
trait 3 0.3 0 0 0 0 0 0 0 
node 1 3 1 3
node 2 1 1 1
node 3 3 1 1
node 4 3 0 2
node 14 1 0 0
node 94 1 0 0
gene 2 1 4 -2.17963 0 1 -2.17963 1
gene 1 2 4 -5.68431 0 2 -5.68431 0
gene 3 3 4 5.90986 0 3 5.90986 0
gene 3 3 14 4.39644 0 25 4.39644 1
gene 3 14 4 5.05622 0 26 5.05622 1
gene 1 1 14 -3.224 0 60 -3.224 1
gene 2 2 14 1.12381 0 92 1.12381 1
gene 1 2 94 1 0 281 0 1
gene 1 94 4 -5.68431 0 282 0 1
genomeend 61

/* Organism #62 Fitness: 8.96697 Error: 1.00551 */
genomestart 62
trait 1 0.05 0 0 0 0.0954009 0 0 0 
trait 2 0.2 0 0 0 0 0 0 0 
trait 3 0.3 0 0 0 0 0 0 0 
node 1 3 1 3
node 2 1 1 1
node 3 3 1 1
node 4 3 0 2
node 14 1 0 0
gene 2 1 4 -1.09321 0 1 -1.09321 1
gene 1 2 4 -5.69854 0 2 -5.69854 0
gene 3 3 4 4.13413 0 3 4.13413 0
gene 3 3 14 2.60194 0 25 2.60194 1
gene 3 14 4 3.8108 0 26 3.8108 1
gene 1 1 14 -0.933412 0 60 -0.933412 1
gene 2 2 14 4.32808 0 92 4.32808 1
genomeend 62

/* Organism #63 Fitness: 8.99986 Error: 1.00002 */
genomestart 63
trait 1 0 0 0 0 0.190802 0 0 0 
trait 2 0.2 0 0 0 0 0 0 0 
trait 3 0.3 0 0 0 0 0 0 0 
node 1 3 1 3
node 2 1 1 1
node 3 3 1 1
node 4 3 0 2
node 14 1 0 0
gene 2 1 4 -2.17963 0 1 -2.17963 1
gene 1 2 4 -5.68431 0 2 -5.68431 1
gene 3 3 4 5.90986 0 3 5.90986 0
gene 3 3 14 4.39644 0 25 4.39644 1
gene 3 14 4 5.05622 0 26 5.05622 1
gene 1 1 14 -3.224 0 60 -3.224 1
gene 2 2 14 1.12381 0 92 1.12381 1
genomeend 63

/* Species #13 : (Size 8) (AF 6.75988) (Age 17)  */


/* Organism #64 Fitness: 9 Error: 1 */
genomestart 64
trait 1 0.1 0 0 0 0 0 0 0 
trait 2 0.2 0 0 0 0 0 0 0 
trait 3 0.3 0 0 0 0 0 0 0 
node 1 3 1 3
node 2 1 1 1
node 3 2 1 1
node 4 2 0 2
node 14 1 0 0
node 35 1 0 0
node 52 1 0 0
gene 2 1 4 -4.70383 0 1 -4.70383 1
gene 1 2 4 -6.84489 0 2 -6.84489 1
gene 3 3 4 6.47017 0 3 6.47017 1
gene 3 3 14 1.75595 0 25 1.75595 1
gene 3 14 4 3.50635 0 26 3.50635 1
gene 2 2 14 6.19835 0 52 6.19835 0
gene 2 1 14 -0.60065 0 77 -0.60065 1
gene 2 2 35 4.88907 0 97 4.88907 1
gene 2 35 14 -1.70365 0 98 -1.70365 1
gene 1 35 4 -3.88549 0 116 -3.88549 1
gene 1 35 52 -0.584101 0 152 -0.584101 1
gene 1 52 4 -0.706248 0 153 -0.706248 1
gene 1 52 14 3.13531 0 172 3.13531 1
gene 3 3 35 -0.80221 0 247 -0.80221 1
genomeend 64

/* Organism #65 Fitness: 9 Error: 1 */
genomestart 65
trait 1 0.1 0 0 0 0 0 0 0 
trait 2 0.2 0 0 0 0 0 0 0 
trait 3 0.3 0 0 0 0 0 0 0 
node 1 3 1 3
node 2 1 1 1
node 3 2 1 1
node 4 3 0 2
node 14 1 0 0
node 35 1 0 0
node 52 1 0 0
gene 2 1 4 -2.42455 0 1 -2.42455 1
gene 1 2 4 -5.15905 0 2 -5.15905 1
gene 3 3 4 6.12157 0 3 6.12157 1
gene 3 3 14 3.73019 0 25 3.73019 1
gene 3 14 4 1.39599 0 26 1.39599 1
gene 2 2 14 5.37046 0 52 5.37046 0
gene 2 1 14 0.628101 0 77 0.628101 1
gene 2 2 35 2.59552 0 97 2.59552 1
gene 2 35 14 -2.54016 0 98 -2.54016 1
gene 1 35 4 -4.96768 0 116 -4.96768 1
gene 1 35 52 -2.21394 0 152 -2.21394 1
gene 1 52 4 0.114853 0 153 0.114853 1
gene 1 52 14 3.13531 0 172 3.13531 1
gene 3 3 35 -0.80221 0 247 -0.80221 1
gene 2 2 52 0.548051 0 283 0.548051 1
genomeend 65

/* Organism #66 Fitness: 9 Error: 1 */
genomestart 66
trait 1 0.1 0 0 0 0 0 0 0 
trait 2 0.2 0 0 0 0 0 0 0 
trait 3 0.3 0 0 0 0 0 0 0 
node 1 3 1 3
node 2 1 1 1
node 3 2 1 1
node 4 2 0 2
node 14 1 0 0
node 35 1 0 0
node 52 1 0 0
gene 2 1 4 -4.64623 0 1 -4.64623 1
gene 1 2 4 -6.66391 0 2 -6.66391 1
gene 3 3 4 7.33228 0 3 7.33228 1
gene 3 3 14 3.82045 0 25 3.82045 1
gene 3 14 4 3.03919 0 26 3.03919 1
gene 2 2 14 4.32722 0 52 4.32722 0
gene 2 1 14 2.38578 0 77 2.38578 1
gene 2 2 35 5.59973 0 97 5.59973 1
gene 2 35 14 -1.46705 0 98 -1.46705 1
gene 1 35 4 -3.71802 0 116 -3.71802 1
gene 1 35 52 -3.17253 0 152 -3.17253 1
gene 1 52 4 -0.706629 0 153 -0.706629 1
gene 1 52 14 2.99805 0 172 2.99805 1
gene 3 3 35 0.146001 0 247 0.146001 1
genomeend 66

/* Organism #67 Fitness: 9 Error: 1 */
genomestart 67
trait 1 0.1 0 0 0 0 0 0 0 
trait 2 0.2 0 0 0 0 0 0 0 
trait 3 0.3 0 0 0 0 0 0 0 
node 1 3 1 3
node 2 1 1 1
node 3 2 1 1
node 4 3 0 2
node 14 1 0 0
node 35 1 0 0
node 52 1 0 0
gene 2 1 4 -3.56419 0 1 -3.56419 1
gene 1 2 4 -6.00197 0 2 -6.00197 1
gene 3 3 4 6.29587 0 3 6.29587 1
gene 3 3 14 2.74307 0 25 2.74307 1
gene 3 14 4 2.45117 0 26 2.45117 1
gene 2 2 14 5.7844 0 52 5.7844 0
gene 2 1 14 0.0137257 0 77 0.0137257 1
gene 2 2 35 3.74229 0 97 3.74229 1
gene 2 35 14 -2.1219 0 98 -2.1219 1
gene 1 35 4 -4.42658 0 116 -4.42658 1
gene 1 35 52 -1.39902 0 152 -1.39902 1
gene 1 52 4 -0.295698 0 153 -0.295698 1
gene 1 52 14 3.13531 0 172 3.13531 1
gene 3 3 35 -0.80221 0 247 -0.80221 1
genomeend 67

/* Organism #68 Fitness: 4.00001 Error: 2 */
genomestart 68
trait 1 0.1 0 0 0 0 0 0 0 
trait 2 0.2 0 0 0 0 0 0 0 
trait 3 0.3 0 0 0 0 0 0 0 
node 1 3 1 3
node 2 1 1 1
node 3 2 1 1
node 4 2 0 2
node 14 1 0 0
node 35 1 0 0
node 52 1 0 0
gene 2 1 4 -7.15965 0 1 -7.15965 1
gene 1 2 4 -4.95289 0 2 -4.95289 1
gene 3 3 4 4.45496 0 3 4.45496 1
gene 3 3 14 2.84867 0 25 2.84867 1
gene 3 14 4 1.50693 0 26 1.50693 1
gene 2 2 14 7.7303 0 52 7.7303 0
gene 2 1 14 -1.7158 0 77 -1.7158 1
gene 2 2 35 4.66231 0 97 4.66231 1
gene 2 35 14 -1.82534 0 98 -1.82534 1
gene 1 35 4 -2.20453 0 116 -2.20453 1
gene 1 35 52 1.88134 0 152 1.88134 1
gene 1 52 4 -2.5076 0 153 -2.5076 1
gene 1 52 14 5.46387 0 172 5.46387 1
gene 3 3 35 -0.80221 0 247 -0.80221 1
genomeend 68

/* Organism #69 Fitness: 8.99953 Error: 1.00008 */
genomestart 69
trait 1 0.1 0 0 0 0 0 0 0 
trait 2 0.2 0 0 0 0 0 0 0 
trait 3 0.3 0 0 0 0 0 0 0 
node 1 3 1 3
node 2 1 1 1
node 3 2 1 1
node 4 3 0 2
node 14 1 0 0
node 35 1 0 0
node 52 1 0 0
gene 2 1 4 -3.41412 0 1 -3.41412 1
gene 1 2 4 -5.52573 0 2 -5.52573 1
gene 3 3 4 6.29587 0 3 6.29587 1
gene 3 3 14 4.28662 0 25 4.28662 1
gene 3 14 4 2.48871 0 26 2.48871 1
gene 2 2 14 5.60625 0 52 5.60625 0
gene 2 1 14 -1.80716 0 77 -1.80716 1
gene 2 2 35 2.47738 0 97 2.47738 1
gene 2 35 14 0.139824 0 98 0.139824 1
gene 1 35 4 -4.41682 0 116 -4.41682 1
gene 1 35 52 1.2785 0 152 1.2785 1
gene 1 52 4 -0.295698 0 153 -0.295698 1
gene 1 52 14 3.13531 0 172 3.13531 1
gene 3 3 35 0.186895 0 247 0.186895 1
genomeend 69

/* Organism #70 Fitness: 1.00635 Error: 2.99683 */
genomestart 70
trait 1 0.1 0 0 0 0 0 0 0 
trait 2 0.2 0 0 0 0 0 0 0 
trait 3 0.3 0 0 0 0 0 0 0 
node 1 3 1 3
node 2 1 1 1
node 3 2 1 1
node 4 3 0 2
node 14 1 0 0
node 35 1 0 0
node 52 1 0 0
gene 2 1 4 0.0878933 0 1 0.0878933 1
gene 1 2 4 -4.94099 0 2 -4.94099 1
gene 3 3 4 8 0 3 8 1
gene 3 3 14 1.28001 0 25 1.28001 1
gene 3 14 4 2.90704 0 26 2.90704 1
gene 2 2 14 6.22925 0 52 6.22925 0
gene 2 1 14 0.759102 0 77 0.759102 1
gene 2 2 35 2.33062 0 97 2.33062 1
gene 2 35 14 1.07074 0 98 1.07074 1
gene 1 35 4 0.777535 0 116 0.777535 1
gene 1 35 52 -1.49432 0 152 -1.49432 1
gene 1 52 4 1.63246 0 153 1.63246 1
gene 1 52 14 1.64327 0 172 1.64327 1
gene 3 3 35 1.2758 0 247 1.2758 1
genomeend 70

/* Organism #71 Fitness: 4.07317 Error: 1.98179 */
genomestart 71
trait 1 0.1 0 0 0 0 0 0 0 
trait 2 0.2 0 0 0 0 0 0 0 
trait 3 0.3 0 0 0 0 0 0 0 
node 1 3 1 3
node 2 1 1 1
node 3 2 1 1
node 4 3 0 2
node 14 1 0 0
node 35 1 0 0
node 52 1 0 0
gene 2 1 4 -0.272389 0 1 -0.272389 1
gene 1 2 4 -6.82376 0 2 -6.82376 1
gene 3 3 4 5.36723 0 3 5.36723 1
gene 3 3 14 2.81868 0 25 2.81868 1
gene 3 14 4 1.47328 0 26 1.47328 1
gene 2 2 14 5.26601 0 52 5.26601 0
gene 2 1 14 1.62751 0 77 1.62751 1
gene 2 2 35 4.50323 0 97 4.50323 1
gene 2 35 14 0.513447 0 98 0.513447 1
gene 1 35 4 -3.46884 0 116 -3.46884 1
gene 1 35 52 0.612758 0 152 0.612758 1
gene 3 52 4 1.64009 0 153 1.64009 1
gene 1 52 14 3.69288 0 172 3.69288 1
gene 3 3 35 -1.36242 0 247 -1.36242 1
genomeend 71

/* Species #14 : (Size 5) (AF 4.00401) (Age 16)  */


/* Organism #72 Fitness: 4.00022 Error: 1.99994 */
genomestart 72
trait 1 0.0875 0 0.317881 0 0 0 0 0 
trait 2 0.2 0 0 0 0 0 0 0 
trait 3 0.3 0 0 0 0 0 0 0 
node 1 2 1 3
node 2 2 1 1
node 3 2 1 1
node 4 1 0 2
node 10 1 0 0
gene 2 1 4 5.95971 0 1 5.95971 1
gene 3 2 4 -3.97235 0 2 -3.97235 1
gene 3 3 4 -2.86712 0 3 -2.86712 0
gene 3 3 10 -8 0 14 -8 1
gene 3 10 4 5.80224 0 15 5.80224 1
gene 3 2 10 2.30613 0 112 2.30613 1
gene 1 1 10 2.57292 0 127 2.57292 1
genomeend 72

/* Organism #73 Fitness: 4 Error: 2 */
genomestart 73
trait 1 0.0875 0 0.317881 0 0 0 0 0 
trait 2 0.2 0 0 0 0 0 0 0 
trait 3 0.3 0 0 0 0 0 0 0 
node 1 2 1 3
node 2 2 1 1
node 3 2 1 1
node 4 1 0 2
node 10 1 0 0
gene 2 1 4 4.17545 0 1 4.17545 1
gene 1 2 4 2.28805 0 2 2.28805 1
gene 3 3 4 -2.27371 0 3 -2.27371 0
gene 3 3 10 -7.25734 0 14 -7.25734 1
gene 3 10 4 7.11279 0 15 7.11279 1
gene 3 2 10 -0.250328 0 112 -0.250328 1
gene 1 1 10 2.30825 0 127 2.30825 1
genomeend 73

/* Organism #74 Fitness: 4.01933 Error: 1.99517 */
genomestart 74
trait 1 0.0875 0 0.317881 0 0 0 0 0 
trait 2 0.2 0 0 0 0 0 0 0 
trait 3 0.3 0 0 0 0 0 0 0 
node 1 2 1 3
node 2 2 1 1
node 3 2 1 1
node 4 1 0 2
node 10 1 0 0
gene 2 1 4 1.28597 0 1 1.28597 1
gene 3 2 4 -4.58555 0 2 -4.58555 1
gene 3 3 4 -1.02533 0 3 -1.02533 0
gene 3 3 10 -5.09224 0 14 -5.09224 1
gene 3 10 4 8 0 15 8 1
gene 3 2 10 2.87439 0 112 2.87439 1
gene 1 1 10 2.25019 0 127 2.25019 1
genomeend 74

/* Organism #75 Fitness: 4 Error: 2 */
genomestart 75
trait 1 0.0875 0 0.317881 0 0 0 0 0 
trait 2 0.2 0 0 0 0 0 0 0 
trait 3 0.3 0 0 0 0 0 0 0 
node 1 2 1 3
node 2 2 1 1
node 3 2 1 1
node 4 1 0 2
node 10 1 0 0
gene 2 1 4 5.82049 0 1 5.82049 1
gene 3 2 4 -4.63361 0 2 -4.63361 1
gene 3 3 4 -1.7316 0 3 -1.7316 0
gene 3 3 10 -8 0 14 -8 1
gene 3 10 4 5.89639 0 15 5.89639 1
gene 3 2 10 2.44469 0 112 2.44469 1
gene 1 1 10 5.50604 0 127 5.50604 1
genomeend 75

/* Organism #76 Fitness: 4.00052 Error: 1.99987 */
genomestart 76
trait 1 0.0875 0 0.317881 0 0 0 0 0 
trait 2 0.2 0 0 0 0 0 0 0 
trait 3 0.3 0 0 0 0 0 0 0 
node 1 2 1 3
node 2 2 1 1
node 3 2 1 1
node 4 1 0 2
node 10 1 0 0
gene 2 1 4 3.85044 0 1 3.85044 1
gene 3 2 4 -8 0 2 -8 1
gene 3 3 4 -2.29551 0 3 -2.29551 0
gene 3 3 10 -5.08347 0 14 -5.08347 1
gene 3 10 4 -2.03413 0 15 -2.03413 1
gene 3 2 10 -0.386059 0 112 -0.386059 1
gene 1 1 10 2.97338 0 127 2.97338 1
genomeend 76

/* Species #15 : (Size 6) (AF 6.66506) (Age 15)  */


/* Organism #77 Fitness: 8.81823 Error: 1.03045 */
genomestart 77
trait 1 0.1 0 0 0 0 0 0 0 
trait 2 0 0 0.34608 0 0 0 0 0 
trait 3 0.3 0 0 0 0 0 0 0 
node 1 3 1 3
node 2 1 1 1
node 3 1 1 1
node 4 3 0 2
node 8 1 0 0
node 22 1 0 0
node 41 1 0 0
node 45 1 0 0
gene 3 1 4 1.01732 0 1 1.01732 1
gene 1 2 4 2.63581 0 2 2.63581 1
gene 1 3 4 -5.83611 0 3 -5.83611 1
gene 1 2 8 -0.298471 0 10 -0.298471 1
gene 1 8 4 5.13131 0 11 5.13131 0
gene 3 1 8 3.5342 0 29 3.5342 1
gene 1 8 22 -0.539438 0 48 -0.539438 1
gene 2 22 4 5.658 0 49 5.658 0
gene 1 22 41 5.4509 0 117 5.4509 1
gene 1 41 4 -0.422964 0 118 -0.422964 0
gene 1 41 45 3.74857 0 130 3.74857 1
gene 1 45 4 -2.94982 0 131 -2.94982 1
genomeend 77

/* Organism #78 Fitness: 4.80963 Error: 1.80691 */
genomestart 78
trait 1 0.1 0 0 0 0 0 0 0 
trait 2 0 0 0.34608 0 0 0 0 0 
trait 3 0.3 0 0 0 0 0 0 0 
node 1 3 1 3
node 2 1 1 1
node 3 1 1 1
node 4 3 0 2
node 8 1 0 0
node 22 1 0 0
node 41 1 0 0
node 45 1 0 0
gene 3 1 4 2.90947 0 1 2.90947 1
gene 1 2 4 0.160375 0 2 0.160375 1
gene 1 3 4 -4.56837 0 3 -4.56837 1
gene 1 2 8 0.703604 0 10 0.703604 1
gene 1 8 4 5.21874 0 11 5.21874 0
gene 3 1 8 1.45604 0 29 1.45604 1
gene 1 8 22 -1.97625 0 48 -1.97625 1
gene 2 22 4 7.26579 0 49 7.26579 0
gene 1 22 41 5.61524 0 117 5.61524 1
gene 1 41 4 1.62544 0 118 1.62544 0
gene 1 41 45 3.74857 0 130 3.74857 1
gene 1 45 4 -2.94982 0 131 -2.94982 1
genomeend 78

/* Organism #79 Fitness: 5.29992 Error: 1.69785 */
genomestart 79
trait 1 0.1 0 0 0 0 0 0 0 
trait 2 0 0 0 0 0 0 0 0 
trait 3 0.3 0 0 0 0 0 0 0 
node 1 3 1 3
node 2 1 1 1
node 3 1 1 1
node 4 3 0 2
node 8 1 0 0
node 22 1 0 0
node 41 1 0 0
node 45 1 0 0
gene 3 1 4 1.46609 0 1 1.46609 1
gene 1 2 4 1.741 0 2 1.741 1
gene 1 3 4 -8 0 3 -8 1
gene 1 2 8 -1.38516 0 10 -1.38516 1
gene 1 8 4 2.51549 0 11 2.51549 0
gene 3 1 8 4.97063 0 29 4.97063 1
gene 1 8 22 -2.75928 0 48 -2.75928 1
gene 2 22 4 4.1539 0 49 4.1539 0
gene 1 22 41 3.79717 0 117 3.79717 1
gene 1 41 4 -3.20045 0 118 -3.20045 0
gene 1 41 45 2.60497 0 130 2.60497 1
gene 1 45 4 -1.29831 0 131 -1.29831 1
genomeend 79

/* Organism #80 Fitness: 8.99513 Error: 1.00081 */
genomestart 80
trait 1 0.1 0 0 0 0 0 0 0 
trait 2 0 0 0.34608 0 0 0 0 0 
trait 3 0.3 0 0 0 0 0 0 0 
node 1 3 1 3
node 2 1 1 1
node 3 1 1 1
node 4 3 0 2
node 8 1 0 0
node 22 1 0 0
node 41 1 0 0
node 45 1 0 0
gene 3 1 4 0.687948 0 1 0.687948 1
gene 1 2 4 4.65861 0 2 4.65861 1
gene 1 3 4 -6.81144 0 3 -6.81144 1
gene 1 2 8 2.24052 0 10 2.24052 1
gene 1 8 4 2.91959 0 11 2.91959 0
gene 3 1 8 1.80265 0 29 1.80265 1
gene 1 8 22 -1.40227 0 48 -1.40227 1
gene 2 22 4 4.63769 0 49 4.63769 0
gene 1 22 41 7.47427 0 117 7.47427 1
gene 1 41 4 -0.633541 0 118 -0.633541 0
gene 1 41 45 3.17677 0 130 3.17677 1
gene 1 45 4 -3.90276 0 131 -3.90276 1
genomeend 80

/* Organism #81 Fitness: 4 Error: 2 */
genomestart 81
trait 1 0.1 0 0 0 0 0 0 0 
trait 2 0 0 0.34608 0 0 0 0 0 
trait 3 0.3 0 0 0 0 0 0 0 
node 1 3 1 3
node 2 1 1 1
node 3 1 1 1
node 4 3 0 2
node 8 1 0 0
node 22 1 0 0
node 41 1 0 0
node 45 1 0 0
gene 3 1 4 -1.14873 0 1 -1.14873 1
gene 1 2 4 1.74642 0 2 1.74642 1
gene 1 3 4 -6.15991 0 3 -6.15991 1
gene 1 2 8 -0.363628 0 10 -0.363628 1
gene 1 8 4 5.02762 0 11 5.02762 0
gene 3 1 8 4.72556 0 29 4.72556 1
gene 1 8 22 0.737609 0 48 0.737609 1
gene 2 22 4 6.65718 0 49 6.65718 0
gene 1 22 41 4.62217 0 117 4.62217 1
gene 1 41 4 -0.0247734 0 118 -0.0247734 0
gene 1 41 45 1.70292 0 130 1.70292 1
gene 1 45 4 -4.02064 0 131 -4.02064 1
genomeend 81

/* Organism #82 Fitness: 8.06743 Error: 1.15968 */
genomestart 82
trait 1 0.1 0 0 0 0 0 0 0 
trait 2 0 0 0.34608 0 0 0 0 0 
trait 3 0.3 0 0 0 0 0 0 0 
node 1 3 1 3
node 2 1 1 1
node 3 1 1 1
node 4 3 0 2
node 8 1 0 0
node 22 1 0 0
node 41 1 0 0
node 45 1 0 0
gene 3 1 4 1.01732 0 1 1.01732 1
gene 1 2 4 2.26966 0 2 2.26966 1
gene 1 3 4 -5.83611 0 3 -5.83611 1
gene 1 2 8 -0.298471 0 10 -0.298471 1
gene 1 8 4 4.4792 0 11 4.4792 0
gene 3 1 8 3.5342 0 29 3.5342 1
gene 1 8 22 -1.1022 0 48 -1.1022 1
gene 2 22 4 6.43989 0 49 6.43989 0
gene 1 22 41 4.53687 0 117 4.53687 1
gene 1 41 4 -2.08515 0 118 -2.08515 0
gene 1 41 45 3.74857 0 130 3.74857 1
gene 1 45 4 -2.94982 0 131 -2.94982 1
genomeend 82

/* Species #16 : (Size 4) (AF 4.67723) (Age 13)  */


/* Organism #83 Fitness: 3.9995 Error: 2.00012 */
genomestart 83
trait 1 0.1 0.404126 0.777795 0.558916 0 0 0 0.0132756 
trait 2 0.332847 0 0 0 0 0 0 0 
trait 3 0.3 0 0 0 0 0 0 0 
node 1 3 1 3
node 2 1 1 1
node 3 2 1 1
node 4 3 0 2
node 14 1 0 0
node 35 2 0 0
gene 2 1 4 -0.626232 0 1 -0.626232 1
gene 1 2 4 -2.29466 0 2 -2.29466 1
gene 3 3 4 -3.21718 0 3 -3.21718 1
gene 3 3 14 -1.25866 0 25 -1.25866 1
gene 3 14 4 -2.99821 0 26 -2.99821 1
gene 2 2 14 2.07259 0 52 2.07259 1
gene 2 1 14 -5.24751 0 77 -5.24751 1
gene 2 2 35 -1.05907 0 97 -1.05907 1
gene 2 35 14 -6.70061 0 98 -6.70061 1
gene 1 3 35 0.0315867 0 126 0.0315867 1
gene 3 35 4 -2.39647 0 141 -2.39647 1
genomeend 83

/* Organism #84 Fitness: 3.45517 Error: 2.14119 */
genomestart 84
trait 1 0.1 0.404126 0.777795 0.558916 0 0 0 0.0132756 
trait 2 0.332847 0 0 0 0 0 0 0 
trait 3 0.3 0 0 0 0 0.416028 0 0.907834 
node 1 3 1 3
node 2 1 1 1
node 3 2 1 1
node 4 3 0 2
node 14 1 0 0
node 35 2 0 0
gene 2 1 4 -0.164258 0 1 -0.164258 1
gene 1 2 4 -2.26157 0 2 -2.26157 1
gene 3 3 4 -0.346767 0 3 -0.346767 1
gene 3 3 14 -1.94121 0 25 -1.94121 1
gene 3 14 4 -3.8123 0 26 -3.8123 1
gene 2 2 14 -1.15856 0 52 -1.15856 1
gene 2 1 14 -2.06381 0 77 -2.06381 1
gene 2 2 35 -4.20797 0 97 -4.20797 1
gene 2 35 14 -3.67638 0 98 -3.67638 1
gene 1 3 35 2.10593 0 126 2.10593 1
gene 3 35 4 -0.361415 0 141 -0.361415 1
genomeend 84

/* Organism #85 Fitness: 7.14648 Error: 1.32671 */
genomestart 85
trait 1 0.1 0.404126 0.777795 0.558916 0 0 0 0.0132756 
trait 2 0.332847 0 0 0 0 0 0 0 
trait 3 0.3 0 0 0 0 0 0 0 
node 1 3 1 3
node 2 1 1 1
node 3 2 1 1
node 4 3 0 2
node 14 1 0 0
node 35 2 0 0
gene 2 1 4 0.411626 0 1 0.411626 1
gene 1 2 4 0.772149 0 2 0.772149 1
gene 3 3 4 -3.80596 0 3 -3.80596 1
gene 3 3 14 -3.49086 0 25 -3.49086 1
gene 3 14 4 0.486847 0 26 0.486847 1
gene 2 2 14 0.911283 0 52 0.911283 1
gene 2 1 14 -2.02361 0 77 -2.02361 1
gene 2 2 35 -2.52297 0 97 -2.52297 1
gene 2 35 14 -4.39074 0 98 -4.39074 1
gene 1 3 35 1.22272 0 126 1.22272 1
gene 3 35 4 -1.12232 0 141 -1.12232 1
genomeend 85

/* Organism #86 Fitness: 4.10776 Error: 1.97324 */
genomestart 86
trait 1 0.1 0.404126 0.777795 0.558916 0 0 0 0.0132756 
trait 2 0.332847 0 0 0 0 0 0 0 
trait 3 0.3 0 0 0 0 0 0 0 
node 1 3 1 3
node 2 1 1 1
node 3 2 1 1
node 4 3 0 2
node 14 1 0 0
node 35 2 0 0
gene 2 1 4 -0.070719 0 1 -0.070719 1
gene 1 2 4 0.259056 0 2 0.259056 1
gene 3 3 4 -2.15621 0 3 -2.15621 1
gene 3 3 14 -4.18546 0 25 -4.18546 1
gene 3 14 4 -3.5741 0 26 -3.5741 1
gene 2 2 14 0.301752 0 52 0.301752 1
gene 2 1 14 -5.66546 0 77 -5.66546 1
gene 2 2 35 0.521027 0 97 0.521027 1
gene 2 35 14 -4.94404 0 98 -4.94404 1
gene 1 3 35 2.08556 0 126 2.08556 1
gene 3 35 4 -0.51767 0 141 -0.51767 1
genomeend 86

/* Species #18 : (Size 4) (AF 6.61216) (Age 11)  */


/* Organism #87 Fitness: 4.12533 Error: 1.96891 */
genomestart 87
trait 1 0.0875 0 0 0 0 0 0.0801073 0 
trait 2 0.229037 0 0.0558002 0 0.226569 0.497345 0 0 
trait 3 0.333078 0.0924596 0.116279 0 0.140691 0 0 0.0799308 
node 1 2 1 3
node 2 2 1 1
node 3 2 1 1
node 4 1 0 2
node 10 1 0 0
node 33 1 0 0
node 56 1 0 0
gene 2 1 4 3.10401 0 1 3.10401 1
gene 2 2 4 4.65224 0 2 4.65224 1
gene 3 3 4 2.3806 0 3 2.3806 1
gene 3 3 10 3.67991 0 14 3.67991 0
gene 3 10 4 -4.80663 0 15 -4.80663 1
gene 3 3 33 -0.181524 0 90 -0.181524 1
gene 3 33 10 3.06519 0 91 3.06519 1
gene 1 2 33 -6.69664 0 149 -6.69664 0
gene 1 2 56 -0.118259 0 160 -0.118259 1
gene 1 56 33 -3.64817 0 161 -3.64817 1
genomeend 87

/* Organism #88 Fitness: 8.32309 Error: 1.11502 */
genomestart 88
trait 1 0.0875 0 0 0 0 0 0.0801073 0 
trait 2 0.229037 0 0.0558002 0 0.226569 0.497345 0 0 
trait 3 0.333078 0.0924596 0.116279 0 0.140691 0 0 0.0799308 
node 1 2 1 3
node 2 2 1 1
node 3 2 1 1
node 4 1 0 2
node 10 1 0 0
node 33 1 0 0
node 56 1 0 0
gene 2 1 4 1.32776 0 1 1.32776 1
gene 3 2 4 3.26914 0 2 3.26914 1
gene 3 3 4 -1.24622 0 3 -1.24622 1
gene 3 3 10 4.13365 0 14 4.13365 0
gene 3 10 4 -5.08694 0 15 -5.08694 1
gene 3 3 33 0.984069 0 90 0.984069 1
gene 3 33 10 0.299295 0 91 0.299295 1
gene 1 2 33 -3.59245 0 149 -3.59245 0
gene 1 2 56 1.70204 0 160 1.70204 1
gene 1 56 33 1.76809 0 161 1.76809 1
genomeend 88

/* Organism #89 Fitness: 8.7162 Error: 1.04768 */
genomestart 89
trait 1 0.0875 0 0 0 0 0 0.0801073 0 
trait 2 0.229037 0 0.0558002 0 0.226569 0.497345 0 0 
trait 3 0.333078 0.0924596 0.116279 0 0.140691 0 0 0.0799308 
node 1 2 1 3
node 2 2 1 1
node 3 2 1 1
node 4 1 0 2
node 10 1 0 0
node 33 1 0 0
node 56 1 0 0
gene 2 1 4 -0.132551 0 1 -0.132551 1
gene 3 2 4 -2.74383 0 2 -2.74383 1
gene 3 3 4 5.80935 0 3 5.80935 1
gene 3 3 10 1.69591 0 14 1.69591 0
gene 3 10 4 -7.08476 0 15 -7.08476 1
gene 3 3 33 0.925626 0 90 0.925626 1
gene 3 33 10 -2.12325 0 91 -2.12325 1
gene 1 2 33 -2.83933 0 149 -2.83933 0
gene 1 2 56 3.60846 0 160 3.60846 1
gene 1 56 33 -2.8656 0 161 -2.8656 1
genomeend 89

/* Organism #90 Fitness: 5.28399 Error: 1.70131 */
genomestart 90
trait 1 0.0875 0 0 0 0 0 0.0801073 0 
trait 2 0.229037 0 0.0558002 0 0.226569 0.497345 0 0 
trait 3 0.333078 0.0924596 0.116279 0 0.140691 0 0 0.0799308 
node 1 2 1 3
node 2 2 1 1
node 3 2 1 1
node 4 1 0 2
node 10 1 0 0
node 33 1 0 0
node 56 1 0 0
gene 2 1 4 3.24295 0 1 3.24295 1
gene 3 2 4 -2.03442 0 2 -2.03442 1
gene 3 3 4 4.60379 0 3 4.60379 1
gene 3 3 10 1.38301 0 14 1.38301 0
gene 3 10 4 -5.6391 0 15 -5.6391 1
gene 3 3 33 2.63167 0 90 2.63167 1
gene 3 33 10 2.25935 0 91 2.25935 1
gene 1 2 33 -5.50169 0 149 -5.50169 0
gene 1 2 56 1.76239 0 160 1.76239 1
gene 1 56 33 0.706442 0 161 0.706442 1
genomeend 90

/* Species #19 : (Size 7) (AF 8.28571) (Age 11)  */


/* Organism #91 Fitness: 9 Error: 1 */
genomestart 91
trait 1 0.1 0 0 0 0 0 0 0 
trait 2 0.2 0 0 0 0 0 0 0 
trait 3 0.3 0 0.0470748 0.394498 0.368343 0 0 0.260979 
node 1 3 1 3
node 2 1 1 1
node 3 2 1 1
node 4 3 0 2
node 14 1 0 0
node 35 1 0 0
gene 2 1 4 -3.48334 0 1 -3.48334 1
gene 1 2 4 -7.79343 0 2 -7.79343 1
gene 3 3 4 7.44546 0 3 7.44546 1
gene 3 3 14 0.272568 0 25 0.272568 1
gene 3 14 4 2.68761 0 26 2.68761 1
gene 2 2 14 -0.706809 0 52 -0.706809 0
gene 2 1 14 -4.15522 0 77 -4.15522 1
gene 2 2 35 0.34299 0 97 0.34299 1
gene 2 35 14 -0.691023 0 98 -0.691023 1
gene 1 35 4 -4.55898 0 116 -4.55898 1
gene 1 3 35 -2.88007 0 163 -2.88007 1
genomeend 91

/* Organism #92 Fitness: 9 Error: 1 */
genomestart 92
trait 1 0.1 0 0 0 0 0 0 0 
trait 2 0.2 0 0 0 0 0 0 0 
trait 3 0.3 0 0 0.394498 0 0 0 0 
node 1 3 1 3
node 2 1 1 1
node 3 2 1 1
node 4 3 0 2
node 14 1 0 0
node 35 1 0 0
gene 2 1 4 -3.23649 0 1 -3.23649 1
gene 1 2 4 -8 0 2 -8 1
gene 3 3 4 6.89093 0 3 6.89093 1
gene 3 3 14 0.913343 0 25 0.913343 1
gene 3 14 4 1.67554 0 26 1.67554 1
gene 2 2 14 -1.292 0 52 -1.292 0
gene 2 1 14 -3.67333 0 77 -3.67333 1
gene 2 2 35 0.391018 0 97 0.391018 1
gene 2 35 14 -0.547243 0 98 -0.547243 1
gene 1 35 4 -4.55898 0 116 -4.55898 1
gene 2 3 35 -4.08025 0 163 -4.08025 1
genomeend 92

/* Organism #93 Fitness: 9 Error: 1 */
genomestart 93
trait 1 0.1 0 0 0 0 0 0 0 
trait 2 0.2 0 0 0 0 0 0 0 
trait 3 0.3 0 0.0235374 0.394498 0.184172 0 0 0.13049 
node 1 3 1 3
node 2 1 1 1
node 3 2 1 1
node 4 3 0 2
node 14 1 0 0
node 35 1 0 0
gene 2 1 4 -2.04718 0 1 -2.04718 1
gene 1 2 4 -8 0 2 -8 1
gene 3 3 4 8 0 3 8 1
gene 3 3 14 -1.47748 0 25 -1.47748 1
gene 3 14 4 0.987732 0 26 0.987732 1
gene 2 2 14 0.807138 0 52 0.807138 0
gene 2 1 14 -4.02139 0 77 -4.02139 1
gene 2 2 35 1.11141 0 97 1.11141 1
gene 2 35 14 0.167196 0 98 0.167196 1
gene 1 35 4 -2.79058 0 116 -2.79058 1
gene 2 3 35 2.11814 0 163 2.11814 1
genomeend 93

/* Organism #94 Fitness: 9 Error: 1 */
genomestart 94
trait 1 0.1 0 0 0 0 0 0 0 
trait 2 0.2 0 0 0 0 0 0 0 
trait 3 0.3 0 0 0.394498 0 0 0 0 
node 1 3 1 3
node 2 1 1 1
node 3 2 1 1
node 4 3 0 2
node 14 1 0 0
node 35 1 0 0
gene 2 1 4 -3.23649 0 1 -3.23649 1
gene 1 2 4 -8 0 2 -8 1
gene 3 3 4 6.89093 0 3 6.89093 1
gene 3 3 14 0.913343 0 25 0.913343 1
gene 3 14 4 1.67554 0 26 1.67554 1
gene 2 2 14 -1.292 0 52 -1.292 0
gene 2 1 14 -3.67333 0 77 -3.67333 1
gene 2 2 35 0.391018 0 97 0.391018 1
gene 2 35 14 -0.547243 0 98 -0.547243 1
gene 1 35 4 -4.55898 0 116 -4.55898 1
gene 2 3 35 -4.08025 0 163 -4.08025 1
genomeend 94

/* Organism #95 Fitness: 4 Error: 2 */
genomestart 95
trait 1 0.1 0 0 0 0 0 0 0 
trait 2 0.2 0 0 0 0 0 0 0 
trait 3 0.3 0 0 0.394498 0 0 0 0 
node 1 3 1 3
node 2 1 1 1
node 3 2 1 1
node 4 3 0 2
node 14 1 0 0
node 35 1 0 0
gene 2 1 4 -4.45143 0 1 -4.45143 1
gene 1 2 4 -8 0 2 -8 1
gene 3 3 4 0.871227 0 3 0.871227 1
gene 3 3 14 0.480972 0 25 0.480972 1
gene 1 14 4 -0.682394 0 26 -0.682394 1
gene 2 2 14 -1.97943 0 52 -1.97943 0
gene 2 1 14 -1.99405 0 77 -1.99405 1
gene 2 2 35 0.877026 0 97 0.877026 1
gene 2 35 14 -0.844646 0 98 -0.844646 1
gene 1 35 4 -2.23965 0 116 -2.23965 1
gene 2 3 35 -2.61399 0 163 -2.61399 1
genomeend 95

/* Organism #96 Fitness: 9 Error: 1 */
genomestart 96
trait 1 0.1 0 0 0 0 0 0 0 
trait 2 0.2 0 0 0 0 0 0 0 
trait 3 0.3 0 0.0470748 0.394498 0.368343 0 0 0.260979 
node 1 3 1 3
node 2 1 1 1
node 3 2 1 1
node 4 3 0 2
node 14 1 0 0
node 35 1 0 0
gene 2 1 4 -3.48334 0 1 -3.48334 1
gene 1 2 4 -7.79343 0 2 -7.79343 1
gene 3 3 4 7.44546 0 3 7.44546 1
gene 3 3 14 0.272568 0 25 0.272568 1
gene 3 14 4 2.68761 0 26 2.68761 1
gene 2 2 14 -0.706809 0 52 -0.706809 0
gene 2 1 14 -4.15522 0 77 -4.15522 1
gene 2 2 35 0.34299 0 97 0.34299 1
gene 2 35 14 -0.691023 0 98 -0.691023 1
gene 1 35 4 -4.55898 0 116 -4.55898 1
gene 1 3 35 -2.88007 0 163 -2.88007 1
gene 3 1 35 -0.418195 0 284 -0.418195 1
genomeend 96

/* Organism #97 Fitness: 9 Error: 1 */
genomestart 97
trait 1 0.1 0 0 0 0 0 0 0 
trait 2 0.2 0 0 0 0 0 0 0 
trait 3 0.3 0 0.0235374 0.394498 0.184172 0 0 0.13049 
node 1 3 1 3
node 2 1 1 1
node 3 2 1 1
node 4 3 0 2
node 14 1 0 0
node 35 1 0 0
gene 2 1 4 -3.35992 0 1 -3.35992 1
gene 1 2 4 -7.89671 0 2 -7.89671 1
gene 3 3 4 7.1682 0 3 7.1682 1
gene 3 3 14 0.592956 0 25 0.592956 1
gene 3 14 4 2.18158 0 26 2.18158 1
gene 2 2 14 -0.999405 0 52 -0.999405 1
gene 2 1 14 -3.91427 0 77 -3.91427 1
gene 2 2 35 0.367004 0 97 0.367004 1
gene 2 35 14 -0.619133 0 98 -0.619133 1
gene 1 35 4 -4.55898 0 116 -4.55898 1
gene 2 3 35 -3.48016 0 163 -3.48016 1
gene 3 1 35 -0.418195 0 284 0 1
genomeend 97

/* Species #20 : (Size 7) (AF 6.89768) (Age 11)  */


/* Organism #98 Fitness: 8.99983 Error: 1.00003 */
genomestart 98
trait 1 0.1 0 0 0 0 0 0 0 
trait 2 0.2 0 0 0 0 0 0 0 
trait 3 0.3 0 0 0 0 0 0 0 
node 1 3 1 3
node 2 1 1 1
node 3 2 1 1
node 4 3 0 2
node 14 1 0 0
node 35 1 0 0
node 53 1 0 0
node 61 1 0 0
gene 2 1 4 -6.25312 0 1 -6.25312 1
gene 1 2 4 -5.82027 0 2 -5.82027 1
gene 3 3 4 6.75779 0 3 6.75779 1
gene 3 3 14 -1.75665 0 25 -1.75665 1
gene 3 14 4 3.19048 0 26 3.19048 1
gene 2 2 14 -2.76666 0 52 -2.76666 0
gene 2 1 14 1.00256 0 77 1.00256 1
gene 2 2 35 0.327372 0 97 0.327372 1
gene 2 35 14 -2.36836 0 98 -2.36836 0
gene 1 35 4 1.72437 0 116 1.72437 0
gene 2 35 53 4.16431 0 154 4.16431 1
gene 2 53 14 2.03001 0 155 2.03001 1
gene 1 35 61 -1.99179 0 177 -1.99179 1
gene 1 61 4 -4.24822 0 178 -4.24822 1
genomeend 98

/* Organism #99 Fitness: 2.10509 Error: 2.54911 */
genomestart 99
trait 1 0.1 0 0 0 0 0 0 0 
trait 2 0.2 0 0 0 0 0 0 0 
trait 3 0.3 0 0 0 0 0 0 0 
node 1 3 1 3
node 2 3 1 1
node 3 2 1 1
node 4 3 0 2
node 14 1 0 0
node 35 1 0 0
node 53 1 0 0
node 61 1 0 0
gene 2 1 4 -4.87017 0 1 -4.87017 1
gene 1 2 4 -5.94791 0 2 -5.94791 1
gene 3 3 4 5.44885 0 3 5.44885 1
gene 3 3 14 -1.25416 0 25 -1.25416 1
gene 3 14 4 5.46213 0 26 5.46213 1
gene 2 2 14 -1.32596 0 52 -1.32596 0
gene 2 1 14 -1.49591 0 77 -1.49591 1
gene 2 2 35 0.305246 0 97 0.305246 1
gene 2 35 14 -0.605914 0 98 -0.605914 0
gene 1 35 4 4.00433 0 116 4.00433 0
gene 2 35 53 2.88948 0 154 2.88948 1
gene 2 53 14 4.02882 0 155 4.02882 1
gene 1 35 61 -3.93231 0 177 -3.93231 1
gene 1 61 4 -4.24822 0 178 -4.24822 1
genomeend 99

/* Organism #100 Fitness: 8.9992 Error: 1.00013 */
genomestart 100
trait 1 0.1 0 0 0 0 0 0 0 
trait 2 0.2 0 0 0 0 0 0 0 
trait 3 0.3 0 0 0 0 0 0 0 
node 1 3 1 3
node 2 1 1 1
node 3 2 1 1
node 4 3 0 2
node 14 1 0 0
node 35 1 0 0
node 53 1 0 0
node 61 1 0 0
gene 2 1 4 -6.42441 0 1 -6.42441 1
gene 1 2 4 -7.87012 0 2 -7.87012 1
gene 3 3 4 6.99629 0 3 6.99629 1
gene 3 3 14 -1.39576 0 25 -1.39576 1
gene 3 14 4 4.60997 0 26 4.60997 1
gene 2 2 14 -3.29242 0 52 -3.29242 0
gene 2 1 14 1.08977 0 77 1.08977 1
gene 3 2 35 4.2899 0 97 4.2899 1
gene 2 35 14 -0.34048 0 98 -0.34048 0
gene 1 35 4 -1.75954 0 116 -1.75954 0
gene 2 35 53 3.25463 0 154 3.25463 1
gene 2 53 14 2.16338 0 155 2.16338 1
gene 1 35 61 -4.37185 0 177 -4.37185 1
gene 1 61 4 -1.75985 0 178 -1.75985 1
genomeend 100

/* Organism #101 Fitness: 8.9964 Error: 1.0006 */
genomestart 101
trait 1 0.1 0 0 0 0 0 0 0 
trait 2 0.2 0 0 0 0 0 0 0 
trait 3 0.3 0 0 0 0 0 0 0 
node 1 1 1 3
node 2 1 1 1
node 3 2 1 1
node 4 3 0 2
node 14 1 0 0
node 35 1 0 0
node 53 1 0 0
node 61 1 0 0
gene 2 1 4 -5.08975 0 1 -5.08975 1
gene 1 2 4 -5.82027 0 2 -5.82027 1
gene 3 3 4 6.59642 0 3 6.59642 1
gene 3 3 14 -4.21682 0 25 -4.21682 1
gene 3 14 4 0.924329 0 26 0.924329 1
gene 2 2 14 -2.76666 0 52 -2.76666 0
gene 2 1 14 1.00256 0 77 1.00256 1
gene 2 2 35 -2.16782 0 97 -2.16782 1
gene 2 35 14 0.605976 0 98 0.605976 0
gene 1 35 4 2.02307 0 116 2.02307 0
gene 2 35 53 3.57752 0 154 3.57752 1
gene 3 53 14 0.396435 0 155 0.396435 1
gene 1 35 61 -3.77636 0 177 -3.77636 1
gene 1 61 4 -5.80757 0 178 -5.80757 1
genomeend 101

/* Organism #102 Fitness: 8.99998 Error: 1 */
genomestart 102
trait 1 0.1 0 0 0 0 0 0 0 
trait 2 0.2 0 0 0 0 0 0 0 
trait 3 0.3 0 0 0 0 0 0 0 
node 1 3 1 3
node 2 1 1 1
node 3 2 1 1
node 4 3 0 2
node 14 1 0 0
node 35 1 0 0
node 53 1 0 0
node 61 1 0 0
gene 2 1 4 -6.25312 0 1 -6.25312 1
gene 1 2 4 -5.52615 0 2 -5.52615 1
gene 3 3 4 6.75779 0 3 6.75779 1
gene 3 3 14 -2.43698 0 25 -2.43698 1
gene 3 14 4 2.11554 0 26 2.11554 1
gene 2 2 14 -2.17186 0 52 -2.17186 0
gene 2 1 14 3.31121 0 77 3.31121 1
gene 2 2 35 0.327372 0 97 0.327372 1
gene 2 35 14 -2.36836 0 98 -2.36836 0
gene 1 35 4 1.72437 0 116 1.72437 0
gene 2 35 53 4.16431 0 154 4.16431 1
gene 2 53 14 2.03001 0 155 2.03001 1
gene 1 35 61 -1.99179 0 177 -1.99179 1
gene 1 61 4 -4.24822 0 178 -4.24822 1
genomeend 102

/* Organism #103 Fitness: 1.18557 Error: 2.91116 */
genomestart 103
trait 1 0.1 0 0 0 0 0 0 0 
trait 2 0.2 0 0 0 0 0 0 0 
trait 3 0.3 0 0 0 0 0 0 0 
node 1 3 1 3
node 2 1 1 1
node 3 2 1 1
node 4 3 0 2
node 14 1 0 0
node 35 1 0 0
node 53 1 0 0
node 61 1 0 0
gene 2 1 4 0.364238 0 1 0.364238 1
gene 1 2 4 -3.86235 0 2 -3.86235 1
gene 3 3 4 6.45535 0 3 6.45535 1
gene 3 3 14 -2.96136 0 25 -2.96136 1
gene 3 14 4 0.556124 0 26 0.556124 1
gene 2 2 14 -1.53089 0 52 -1.53089 0
gene 2 1 14 1.00256 0 77 1.00256 1
gene 2 2 35 2.58155 0 97 2.58155 1
gene 2 35 14 -2.36836 0 98 -2.36836 1
gene 1 35 4 -0.447325 0 116 -0.447325 0
gene 2 35 53 1.87886 0 154 1.87886 1
gene 2 53 14 -0.106357 0 155 -0.106357 1
gene 1 35 61 -3.95108 0 177 -3.95108 1
gene 1 61 4 -6.07979 0 178 -6.07979 1
genomeend 103

/* Organism #104 Fitness: 8.99771 Error: 1.00038 */
genomestart 104
trait 1 0.1 0 0 0 0 0 0 0 
trait 2 0.2 0 0 0 0 0 0 0 
trait 3 0.3 0 0 0 0 0 0 0 
node 1 3 1 3
node 2 1 1 1
node 3 2 1 1
node 4 3 0 2
node 14 1 0 0
node 35 1 0 0
node 53 1 0 0
node 61 1 0 0
gene 2 1 4 -6.2551 0 1 -6.2551 1
gene 1 2 4 -6.39066 0 2 -6.39066 1
gene 3 3 4 5.69407 0 3 5.69407 1
gene 3 3 14 -3.61049 0 25 -3.61049 1
gene 3 14 4 4.68436 0 26 4.68436 1
gene 2 2 14 -1.13926 0 52 -1.13926 0
gene 2 1 14 1.84938 0 77 1.84938 1
gene 2 2 35 1.34631 0 97 1.34631 1
gene 2 35 14 -3.20869 0 98 -3.20869 0
gene 1 35 4 1.58322 0 116 1.58322 0
gene 2 35 53 1.96316 0 154 1.96316 1
gene 2 53 14 2.12348 0 155 2.12348 1
gene 1 35 61 -1.86293 0 177 -1.86293 1
gene 1 61 4 -2.77967 0 178 -2.77967 1
genomeend 104

/* Species #21 : (Size 4) (AF 3.93108) (Age 9)  */


/* Organism #105 Fitness: 3.99994 Error: 2.00002 */
genomestart 105
trait 1 0.0875 0 0 0 0 0 0.0801073 0 
trait 2 0.229037 0 0.0558002 0 0 0 0 0 
trait 3 0.333078 0.0924596 0.116279 0 0.140691 0 0 0.0799308 
node 1 2 1 3
node 2 2 1 1
node 3 2 1 1
node 4 2 0 2
node 10 1 0 0
node 33 1 0 0
gene 2 1 4 -1.99171 0 1 -1.99171 1
gene 3 2 4 -3.28957 0 2 -3.28957 1
gene 3 3 4 -4.7513 0 3 -4.7513 0
gene 3 3 10 -0.821997 0 14 -0.821997 0
gene 3 10 4 -0.383889 0 15 -0.383889 1
gene 3 3 33 -1.5018 0 90 -1.5018 1
gene 3 33 10 -0.53003 0 91 -0.53003 1
gene 1 2 33 -4.12818 0 223 -4.12818 1
genomeend 105

/* Organism #106 Fitness: 3.72399 Error: 2.07024 */
genomestart 106
trait 1 0.0875 0 0 0 0 0 0.0801073 0 
trait 2 0.229037 0 0.0558002 0 0 0 0 0 
trait 3 0.333078 0.0924596 0.116279 0 0.140691 0 0 0.0799308 
node 1 2 1 3
node 2 2 1 1
node 3 2 1 1
node 4 2 0 2
node 10 1 0 0
node 33 2 0 0
gene 2 1 4 4.21125 0 1 4.21125 1
gene 3 2 4 -3.83305 0 2 -3.83305 1
gene 3 3 4 -5.44652 0 3 -5.44652 0
gene 3 3 10 -2.71481 0 14 -2.71481 0
gene 3 10 4 -1.74032 0 15 -1.74032 1
gene 3 3 33 -2.19695 0 90 -2.19695 1
gene 3 33 10 8 0 91 8 1
gene 1 2 33 0.900105 0 223 0.900105 1
genomeend 106

/* Organism #107 Fitness: 4.00002 Error: 2 */
genomestart 107
trait 1 0.0875 0 0 0 0 0 0.0801073 0 
trait 2 0.229037 0 0.0558002 0 0 0 0 0 
trait 3 0.333078 0.0924596 0.116279 0 0.140691 0 0 0.0799308 
node 1 2 1 3
node 2 2 1 1
node 3 2 1 1
node 4 2 0 2
node 10 1 0 0
node 33 1 0 0
gene 2 1 4 -1.16338 0 1 -1.16338 1
gene 3 2 4 -5.12371 0 2 -5.12371 1
gene 3 3 4 -8 0 3 -8 0
gene 3 3 10 -1.4032 0 14 -1.4032 0
gene 3 10 4 -2.71371 0 15 -2.71371 1
gene 3 3 33 -8 0 90 -8 1
gene 3 33 10 8 0 91 8 1
gene 1 2 33 1.59455 0 223 1.59455 1
genomeend 107

/* Organism #108 Fitness: 4.00039 Error: 1.9999 */
genomestart 108
trait 1 0.0875 0 0 0 0 0 0.0801073 0 
trait 2 0.229037 0 0.0558002 0 0 0 0 0 
trait 3 0.333078 0.0924596 0.116279 0 0.140691 0 0 0.0799308 
node 1 2 1 3
node 2 2 1 1
node 3 2 1 1
node 4 1 0 2
node 10 1 0 0
node 33 2 0 0
gene 2 1 4 2.18482 0 1 2.18482 1
gene 3 2 4 -6.40706 0 2 -6.40706 1
gene 3 3 4 -4.88421 0 3 -4.88421 0
gene 3 3 10 -1.23974 0 14 -1.23974 1
gene 2 10 4 -0.347457 0 15 -0.347457 1
gene 3 3 33 -1.10485 0 90 -1.10485 1
gene 3 33 10 4.23246 0 91 4.23246 1
gene 1 2 33 -3.44653 0 223 -3.44653 1
genomeend 108

/* Species #22 : (Size 7) (AF 7.80316) (Age 9)  */


/* Organism #109 Fitness: 8.99766 Error: 1.00039 */
genomestart 109
trait 1 0.1 0 0 0 0 0 0 0 
trait 2 0.2 0 0 0 0 0 0 0 
trait 3 0.3 0 0 0 0 0 0 0 
node 1 3 1 3
node 2 1 1 1
node 3 2 1 1
node 4 3 0 2
node 14 2 0 0
node 35 1 0 0
node 53 1 0 0
gene 2 1 4 -2.80911 0 1 -2.80911 1
gene 1 2 4 -3.22017 0 2 -3.22017 1
gene 3 3 4 1.43315 0 3 1.43315 1
gene 3 3 14 2.42599 0 25 2.42599 1
gene 3 14 4 3.35902 0 26 3.35902 1
gene 2 2 14 -2.6135 0 52 -2.6135 0
gene 2 1 14 -2.13858 0 77 -2.13858 1
gene 2 2 35 0.0211188 0 97 0.0211188 1
gene 2 35 14 -3.27613 0 98 -3.27613 0
gene 1 35 4 -0.688849 0 116 -0.688849 1
gene 2 35 53 1.4796 0 154 1.4796 1
gene 2 53 14 0.646077 0 155 0.646077 1
gene 1 2 53 -1.90107 0 182 -1.90107 1
genomeend 109

/* Organism #110 Fitness: 8.99499 Error: 1.00083 */
genomestart 110
trait 1 0.1 0 0 0 0 0 0 0 
trait 2 0.2 0 0 0 0 0 0 0 
trait 3 0.3 0 0 0 0 0 0 0 
node 1 3 1 3
node 2 1 1 1
node 3 3 1 1
node 4 3 0 2
node 14 2 0 0
node 35 1 0 0
node 53 1 0 0
gene 2 1 4 -2.95293 0 1 -2.95293 1
gene 1 2 4 -2.87035 0 2 -2.87035 1
gene 3 3 4 1.61168 0 3 1.61168 1
gene 3 3 14 2.42599 0 25 2.42599 1
gene 3 14 4 3.3244 0 26 3.3244 1
gene 2 2 14 -2.98397 0 52 -2.98397 0
gene 2 1 14 -1.63066 0 77 -1.63066 1
gene 2 2 35 0.331282 0 97 0.331282 1
gene 2 35 14 -3.16642 0 98 -3.16642 0
gene 1 35 4 -0.89729 0 116 -0.89729 1
gene 2 35 53 1.4796 0 154 1.4796 1
gene 2 53 14 0.168939 0 155 0.168939 1
gene 1 2 53 -1.85679 0 182 -1.85679 1
genomeend 110

/* Organism #111 Fitness: 8.97562 Error: 1.00407 */
genomestart 111
trait 1 0.1 0 0 0 0 0 0 0 
trait 2 0.2 0 0 0 0 0 0 0 
trait 3 0.3 0 0 0 0 0 0 0 
node 1 3 1 3
node 2 1 1 1
node 3 2 1 1
node 4 3 0 2
node 14 2 0 0
node 35 1 0 0
node 53 1 0 0
gene 2 1 4 -3.09676 0 1 -3.09676 1
gene 1 2 4 -3.22017 0 2 -3.22017 1
gene 3 3 4 1.43315 0 3 1.43315 1
gene 3 3 14 2.42599 0 25 2.42599 1
gene 3 14 4 3.35902 0 26 3.35902 1
gene 2 2 14 -3.35445 0 52 -3.35445 0
gene 2 1 14 -1.12274 0 77 -1.12274 1
gene 2 2 35 0.0211188 0 97 0.0211188 1
gene 2 35 14 -3.0567 0 98 -3.0567 0
gene 1 35 4 -1.10573 0 116 -1.10573 1
gene 2 35 53 1.4796 0 154 1.4796 1
gene 2 53 14 -0.308199 0 155 -0.308199 1
gene 1 2 53 -1.8125 0 182 -1.8125 1
genomeend 111

/* Organism #112 Fitness: 5.70872 Error: 1.61071 */
genomestart 112
trait 1 0.1 0 0 0 0 0 0 0 
trait 2 0.2 0 0 0 0 0 0 0 
trait 3 0.3 0 0 0 0 0 0 0 
node 1 3 1 3
node 2 1 1 1
node 3 2 1 1
node 4 3 0 2
node 14 2 0 0
node 35 1 0 0
node 53 1 0 0
gene 2 1 4 -0.701346 0 1 -0.701346 1
gene 1 2 4 -5.6866 0 2 -5.6866 1
gene 3 3 4 -0.15038 0 3 -0.15038 1
gene 3 3 14 3.14768 0 25 3.14768 1
gene 3 14 4 2.45659 0 26 2.45659 1
gene 2 2 14 -0.195898 0 52 -0.195898 0
gene 2 1 14 -0.58504 0 77 -0.58504 1
gene 2 2 35 -1.45918 0 97 -1.45918 1
gene 2 35 14 -3.78434 0 98 -3.78434 0
gene 1 35 4 1.47827 0 116 1.47827 1
gene 2 35 53 1.17136 0 154 1.17136 1
gene 2 53 14 -0.197531 0 155 -0.197531 1
gene 1 2 53 -2.00758 0 182 -2.00758 1
genomeend 112

/* Organism #113 Fitness: 8.94742 Error: 1.00878 */
genomestart 113
trait 1 0.1 0 0 0 0 0 0 0 
trait 2 0.2 0 0 0 0 0 0 0 
trait 3 0.3 0 0 0 0 0 0 0 
node 1 3 1 3
node 2 1 1 1
node 3 2 1 1
node 4 3 0 2
node 14 2 0 0
node 35 1 0 0
node 53 1 0 0
gene 2 1 4 -2.36049 0 1 -2.36049 1
gene 1 2 4 -2.80878 0 2 -2.80878 1
gene 3 3 4 2.35641 0 3 2.35641 1
gene 3 3 14 2.27271 0 25 2.27271 1
gene 3 14 4 1.78627 0 26 1.78627 1
gene 2 2 14 -4.85201 0 52 -4.85201 0
gene 2 1 14 0.234096 0 77 0.234096 1
gene 2 2 35 0.37706 0 97 0.37706 1
gene 2 35 14 -4.64657 0 98 -4.64657 0
gene 1 35 4 -1.60509 0 116 -1.60509 1
gene 2 35 53 -0.54912 0 154 -0.54912 1
gene 2 53 14 2.00173 0 155 2.00173 1
gene 1 2 53 0.458349 0 182 0.458349 1
genomeend 113

/* Organism #114 Fitness: 4.00001 Error: 2 */
genomestart 114
trait 1 0.1 0 0 0 0 0 0 0 
trait 2 0.2 0 0 0 0 0 0 0 
trait 3 0.3 0 0 0 0 0 0 0 
node 1 3 1 3
node 2 1 1 1
node 3 3 1 1
node 4 3 0 2
node 14 2 0 0
node 35 1 0 0
node 53 1 0 0
gene 2 1 4 -4.21923 0 1 -4.21923 1
gene 1 2 4 -2.47422 0 2 -2.47422 1
gene 3 3 4 4.23582 0 3 4.23582 1
gene 3 3 14 3.68969 0 25 3.68969 1
gene 3 14 4 5.25586 0 26 5.25586 1
gene 2 2 14 -1.18939 0 52 -1.18939 1
gene 2 1 14 -1.08291 0 77 -1.08291 1
gene 2 2 35 0.70706 0 97 0.70706 1
gene 2 35 14 -2.23934 0 98 -2.23934 0
gene 1 35 4 -0.240455 0 116 -0.240455 1
gene 2 35 53 1.50577 0 154 1.50577 1
gene 2 53 14 -1.98527 0 155 -1.98527 1
gene 1 2 53 -1.8125 0 182 -1.8125 1
genomeend 114

/* Organism #115 Fitness: 8.99766 Error: 1.00039 */
genomestart 115
trait 1 0.1 0 0 0 0 0 0 0 
trait 2 0.2 0 0 0 0 0 0 0 
trait 3 0.3 0 0 0 0 0 0 0 
node 1 3 1 3
node 2 1 1 1
node 3 2 1 1
node 4 3 0 2
node 14 2 0 0
node 35 1 0 0
node 53 1 0 0
gene 2 1 4 -2.80911 0 1 -2.80911 1
gene 1 2 4 -3.22017 0 2 -3.22017 1
gene 3 3 4 1.43315 0 3 1.43315 1
gene 3 3 14 2.42599 0 25 2.42599 1
gene 3 14 4 3.35902 0 26 3.35902 1
gene 2 2 14 -2.6135 0 52 -2.6135 0
gene 2 1 14 -2.13858 0 77 -2.13858 1
gene 2 2 35 0.0211188 0 97 0.0211188 1
gene 2 35 14 -3.27613 0 98 -3.27613 0
gene 1 35 4 -0.688849 0 116 -0.688849 1
gene 2 35 53 1.4796 0 154 1.4796 1
gene 2 53 14 0.646077 0 155 0.646077 1
gene 1 2 53 -1.90107 0 182 -1.90107 1
genomeend 115

/* Species #23 : (Size 6) (AF 6.00223) (Age 6)  */


/* Organism #116 Fitness: 8.99484 Error: 1.00086 */
genomestart 116
trait 1 0.1 0 0 0 0 0 0 0 
trait 2 0.175372 0.727378 0.788537 0 0 0 1 1 
trait 3 0.3 0 0 0 0 0 0 0 
node 1 3 1 3
node 2 1 1 1
node 3 3 1 1
node 4 2 0 2
node 8 1 0 0
node 22 1 0 0
node 62 1 0 0
gene 3 1 4 -0.691473 0 1 -0.691473 1
gene 1 2 4 3.22884 0 2 3.22884 1
gene 1 3 4 -5.46567 0 3 -5.46567 1
gene 1 2 8 1.02668 0 10 1.02668 1
gene 1 8 4 2.19839 0 11 2.19839 0
gene 2 1 8 0.941069 0 29 0.941069 1
gene 3 8 22 5.37387 0 48 5.37387 0
gene 1 22 4 -0.790693 0 49 -0.790693 1
gene 3 8 62 3.43019 0 183 3.43019 1
gene 3 62 22 7.97435 0 184 7.97435 1
gene 3 1 22 2.21014 0 209 2.21014 1
genomeend 116

/* Organism #117 Fitness: 3.28693 Error: 2.18701 */
genomestart 117
trait 1 0.1 0 0 0 0 0 0 0 
trait 2 0.175372 0.727378 0.788537 0 0 0 1 1 
trait 3 0.3 0 0 0 0 0 0 0 
node 1 3 1 3
node 2 1 1 1
node 3 3 1 1
node 4 3 0 2
node 8 1 0 0
node 22 1 0 0
node 62 1 0 0
gene 3 1 4 3.73844 0 1 3.73844 1
gene 1 2 4 -0.261254 0 2 -0.261254 1
gene 1 3 4 -6.47415 0 3 -6.47415 1
gene 1 2 8 1.63423 0 10 1.63423 1
gene 1 8 4 0.509957 0 11 0.509957 0
gene 2 1 8 3.187 0 29 3.187 1
gene 3 8 22 5.02039 0 48 5.02039 0
gene 1 22 4 -3.29252 0 49 -3.29252 1
gene 3 8 62 4.82076 0 183 4.82076 1
gene 3 62 22 2.44125 0 184 2.44125 1
gene 3 1 22 3.87233 0 209 3.87233 1
genomeend 117

/* Organism #118 Fitness: 4.1251 Error: 1.96897 */
genomestart 118
trait 1 0.1 0 0 0 0 0 0 0 
trait 2 0.175372 0.727378 0.788537 0 0 0 1 1 
trait 3 0.3 0 0 0 0 0 0 0 
node 1 3 1 3
node 2 1 1 1
node 3 3 1 1
node 4 2 0 2
node 8 1 0 0
node 22 1 0 0
node 62 1 0 0
gene 3 1 4 -0.691473 0 1 -0.691473 1
gene 1 2 4 3.22884 0 2 3.22884 1
gene 1 3 4 -5.46567 0 3 -5.46567 1
gene 1 2 8 1.02668 0 10 1.02668 1
gene 1 8 4 2.19839 0 11 2.19839 1
gene 2 1 8 0.941069 0 29 0.941069 1
gene 3 8 22 5.37387 0 48 5.37387 1
gene 1 22 4 -0.790693 0 49 -0.790693 1
gene 3 8 62 3.43019 0 183 3.43019 1
gene 3 62 22 7.97435 0 184 7.97435 1
gene 3 1 22 2.21014 0 209 2.21014 1
gene 2 2 22 -0.782647 0 285 -0.782647 1
genomeend 118

/* Organism #119 Fitness: 1.87376 Error: 2.63115 */
genomestart 119
trait 1 0.1 0 0 0 0 0 0 0 
trait 2 0.0728599 0.727378 0.788537 0 0.189642 0 1 1 
trait 3 0.3 0 0 0 0 0 0 0 
node 1 3 1 3
node 2 1 1 1
node 3 3 1 1
node 4 3 0 2
node 8 1 0 0
node 22 1 0 0
node 62 1 0 0
gene 3 1 4 2.04733 0 1 2.04733 1
gene 1 2 4 3.59362 0 2 3.59362 1
gene 1 3 4 -4.9303 0 3 -4.9303 1
gene 1 2 8 -1.29188 0 10 -1.29188 1
gene 1 8 4 3.33742 0 11 3.33742 0
gene 2 1 8 1.42265 0 29 1.42265 1
gene 3 8 22 0.0440229 0 48 0.0440229 0
gene 1 22 4 -0.600867 0 49 -0.600867 1
gene 3 8 62 2.73078 0 183 2.73078 1
gene 3 62 22 2.62459 0 184 2.62459 1
gene 3 1 22 1.40292 0 209 1.40292 1
genomeend 119

/* Organism #120 Fitness: 8.96701 Error: 1.0055 */
genomestart 120
trait 1 0.1 0 0 0 0 0 0 0 
trait 2 0.175372 0.727378 0.788537 0 0 0 1 1 
trait 3 0.3 0 0 0 0 0 0 0 
node 1 3 1 3
node 2 1 1 1
node 3 3 1 1
node 4 2 0 2
node 8 1 0 0
node 22 1 0 0
node 62 1 0 0
gene 3 1 4 0.677931 0 1 0.677931 1
gene 1 2 4 2.7106 0 2 2.7106 1
gene 1 3 4 -6.09496 0 3 -6.09496 1
gene 1 2 8 0.40136 0 10 0.40136 1
gene 1 8 4 3.78696 0 11 3.78696 0
gene 2 1 8 1.45729 0 29 1.45729 1
gene 3 8 22 5.23974 0 48 5.23974 0
gene 1 22 4 -1.74493 0 49 -1.74493 1
gene 3 8 62 3.08048 0 183 3.08048 1
gene 3 62 22 4.9994 0 184 4.9994 1
gene 3 1 22 2.21014 0 209 2.21014 1
genomeend 120

/* Organism #121 Fitness: 8.76571 Error: 1.03931 */
genomestart 121
trait 1 0.1 0 0 0 0 0 0 0 
trait 2 0.175372 0.727378 0.788537 0 0 0 1 1 
trait 3 0.3 0 0 0 0 0 0 0 
node 1 3 1 3
node 2 1 1 1
node 3 3 1 1
node 4 3 0 2
node 8 1 0 0
node 22 1 0 0
node 62 1 0 0
gene 3 1 4 2.04733 0 1 2.04733 1
gene 1 2 4 2.19236 0 2 2.19236 1
gene 1 3 4 -6.72425 0 3 -6.72425 1
gene 1 2 8 -0.223964 0 10 -0.223964 1
gene 1 8 4 5.37552 0 11 5.37552 0
gene 2 1 8 1.97351 0 29 1.97351 1
gene 3 8 22 5.10561 0 48 5.10561 0
gene 1 22 4 -2.69917 0 49 -2.69917 1
gene 3 8 62 2.73078 0 183 2.73078 1
gene 3 62 22 2.02445 0 184 2.02445 1
gene 3 1 22 2.21014 0 209 2.21014 1
genomeend 121

/* Species #24 : (Size 4) (AF 4.96169) (Age 6)  */


/* Organism #122 Fitness: 3.41162 Error: 2.15294 */
genomestart 122
trait 1 0.0875 0 0 0 0 0 0.0801073 0 
trait 2 0.229037 0 0.0558002 0 0 0 0 0 
trait 3 0.538773 1 0.0170331 0.372936 0 0 0 0.420395 
node 1 2 1 3
node 2 2 1 1
node 3 1 1 1
node 4 1 0 2
node 10 1 0 0
node 33 1 0 0
node 74 1 0 0
gene 2 1 4 1.50098 0 1 1.50098 1
gene 3 2 4 3.4208 0 2 3.4208 1
gene 3 3 4 4.05156 0 3 4.05156 0
gene 3 3 10 0.571604 0 14 0.571604 0
gene 3 10 4 -2.40181 0 15 -2.40181 1
gene 3 3 33 -1.06655 0 90 -1.06655 1
gene 3 33 10 -0.490738 0 91 -0.490738 1
gene 1 2 33 -2.84242 0 149 -2.84242 0
gene 3 33 4 -0.421232 0 162 -0.421232 1
gene 1 2 74 -1.56163 0 217 -1.56163 1
gene 1 74 33 0.660649 0 218 0.660649 1
genomeend 122

/* Organism #123 Fitness: 8.55641 Error: 1.07487 */
genomestart 123
trait 1 0.0875 0 0 0 0 0 0.0801073 0 
trait 2 0.229037 0 0.0558002 0 0 0 0 0 
trait 3 0.538773 1 0.0170331 0.372936 0 0 0 0.420395 
node 1 2 1 3
node 2 2 1 1
node 3 1 1 1
node 4 3 0 2
node 10 1 0 0
node 33 1 0 0
node 74 1 0 0
gene 2 1 4 1.19709 0 1 1.19709 1
gene 3 2 4 6.62165 0 2 6.62165 1
gene 3 3 4 0.674078 0 3 0.674078 0
gene 3 3 10 2.36411 0 14 2.36411 0
gene 3 10 4 -1.1327 0 15 -1.1327 1
gene 3 3 33 -2.65137 0 90 -2.65137 1
gene 3 33 10 0.374386 0 91 0.374386 1
gene 1 2 33 -2.32521 0 149 -2.32521 0
gene 3 33 4 -1.06853 0 162 -1.06853 1
gene 1 2 74 2.13468 0 217 2.13468 1
gene 1 74 33 0.818506 0 218 0.818506 1
genomeend 123

/* Organism #124 Fitness: 3.99867 Error: 2.00033 */
genomestart 124
trait 1 0.0875 0 0 0 0 0 0.0801073 0 
trait 2 0.229037 0 0.0558002 0 0 0 0 0 
trait 3 0.538773 1 0.0170331 0.372936 0 0 0 0.420395 
node 1 2 1 3
node 2 2 1 1
node 3 2 1 1
node 4 1 0 2
node 10 1 0 0
node 33 1 0 0
node 74 1 0 0
gene 2 1 4 0.378048 0 1 0.378048 1
gene 3 2 4 3.63214 0 2 3.63214 1
gene 3 3 4 0.235298 0 3 0.235298 0
gene 3 3 10 2.60688 0 14 2.60688 0
gene 3 10 4 -5.16114 0 15 -5.16114 1
gene 3 3 33 -1.80815 0 90 -1.80815 1
gene 3 33 10 0.822626 0 91 0.822626 1
gene 1 2 33 0.50943 0 149 0.50943 0
gene 3 33 4 -4.39879 0 162 -4.39879 1
gene 1 2 74 1.99673 0 217 1.99673 1
gene 1 74 33 1.67493 0 218 1.67493 1
genomeend 124

/* Organism #125 Fitness: 3.88005 Error: 2.03021 */
genomestart 125
trait 1 0.0875 0 0 0 0 0 0.0801073 0 
trait 2 0.229037 0 0.0558002 0 0 0 0 0 
trait 3 0.538773 1 0.0170331 0.372936 0 0 0 0.420395 
node 1 2 1 3
node 2 2 1 1
node 3 1 1 1
node 4 2 0 2
node 10 1 0 0
node 33 1 0 0
node 74 1 0 0
gene 2 1 4 -0.137715 0 1 -0.137715 1
gene 3 2 4 4.38335 0 2 4.38335 1
gene 3 3 4 0.663396 0 3 0.663396 0
gene 3 3 10 1.57604 0 14 1.57604 0
gene 3 10 4 -2.64657 0 15 -2.64657 1
gene 3 3 33 -3.86059 0 90 -3.86059 1
gene 3 33 10 -2.72279 0 91 -2.72279 1
gene 1 2 33 -1.96753 0 149 -1.96753 0
gene 3 33 4 -0.665914 0 162 -0.665914 1
gene 1 2 74 2.432 0 217 2.432 1
gene 1 74 33 0.683386 0 218 0.683386 1
genomeend 125

/* Species #25 : (Size 8) (AF 8.27253) (Age 6)  */


/* Organism #126 Fitness: 9 Error: 1 */
genomestart 126
trait 1 0.869494 0 0 0 0 0 0 0 
trait 2 0.2 0 0 0 0 0 0 0 
trait 3 0.3 0 0 0 0 0 0 0 
node 1 3 1 3
node 2 1 1 1
node 3 2 1 1
node 4 3 0 2
node 14 1 0 0
node 35 1 0 0
node 53 1 0 0
node 70 1 0 0
gene 2 1 4 -3.7786 0 1 -3.7786 1
gene 1 2 4 -5.31507 0 2 -5.31507 1
gene 3 3 4 2.34794 0 3 2.34794 1
gene 3 3 14 3.59336 0 25 3.59336 1
gene 3 14 4 4.61798 0 26 4.61798 1
gene 2 2 14 -6.6894 0 52 -6.6894 1
gene 2 1 14 -0.824229 0 77 -0.824229 1
gene 2 2 35 -1.50004 0 97 -1.50004 0
gene 2 35 14 -0.132153 0 98 -0.132153 1
gene 1 35 4 0.276452 0 116 0.276452 1
gene 2 35 53 -2.99571 0 154 -2.99571 1
gene 2 53 14 1.08258 0 155 1.08258 1
gene 1 2 53 0.443579 0 182 0.443579 1
gene 2 2 70 1 0 203 1 1
gene 2 70 35 3.65332 0 204 3.65332 1
gene 1 1 35 0.883816 0 224 0.883816 1
genomeend 126

/* Organism #127 Fitness: 9 Error: 1 */
genomestart 127
trait 1 0.869494 0 0 0 0 0 0 0 
trait 2 0.2 0 0 0 0 0 0 0 
trait 3 0.3 0 0 0 0 0 0 0 
node 1 3 1 3
node 2 1 1 1
node 3 2 1 1
node 4 3 0 2
node 14 1 0 0
node 35 1 0 0
node 53 1 0 0
node 70 1 0 0
node 95 1 0 0
gene 2 1 4 -3.7786 0 1 -3.7786 1
gene 1 2 4 -5.31507 0 2 -5.31507 1
gene 3 3 4 2.34794 0 3 2.34794 1
gene 3 3 14 3.59336 0 25 3.59336 1
gene 3 14 4 4.61798 0 26 4.61798 1
gene 2 2 14 -6.6894 0 52 -6.6894 1
gene 2 1 14 -0.824229 0 77 -0.824229 1
gene 2 2 35 -1.50004 0 97 -1.50004 0
gene 2 35 14 -0.132153 0 98 -0.132153 0
gene 1 35 4 0.276452 0 116 0.276452 1
gene 2 35 53 -2.99571 0 154 -2.99571 1
gene 2 53 14 1.08258 0 155 1.08258 1
gene 1 2 53 0.443579 0 182 0.443579 1
gene 2 2 70 1 0 203 1 1
gene 2 70 35 3.65332 0 204 3.65332 1
gene 1 1 35 0.883816 0 224 0.883816 1
gene 2 35 95 1 0 286 0 1
gene 2 95 14 -0.132153 0 287 0 1
genomeend 127

/* Organism #128 Fitness: 8.18776 Error: 1.13857 */
genomestart 128
trait 1 0.869494 0 0 0 0 0 0 0 
trait 2 0.2 0 0 0 0 0 0 0 
trait 3 0.3 0 0 0 0 0 0 0 
node 1 3 1 3
node 2 1 1 1
node 3 2 1 1
node 4 3 0 2
node 14 2 0 0
node 35 1 0 0
node 53 1 0 0
node 70 1 0 0
gene 2 1 4 -2.03203 0 1 -2.03203 1
gene 1 2 4 -5.31507 0 2 -5.31507 1
gene 3 3 4 4.40291 0 3 4.40291 1
gene 3 3 14 1.68473 0 25 1.68473 1
gene 3 14 4 5.5562 0 26 5.5562 1
gene 2 2 14 -6.51079 0 52 -6.51079 0
gene 2 1 14 -3.25434 0 77 -3.25434 1
gene 2 2 35 0.686079 0 97 0.686079 0
gene 2 35 14 0.145108 0 98 0.145108 1
gene 1 35 4 -2.00481 0 116 -2.00481 1
gene 2 35 53 -4.74419 0 154 -4.74419 1
gene 2 53 14 1.95624 0 155 1.95624 1
gene 1 2 53 2.63549 0 182 2.63549 1
gene 2 2 70 -1.45268 0 203 -1.45268 1
gene 2 70 35 4.49677 0 204 4.49677 1
gene 1 1 35 0.883816 0 224 0.883816 1
gene 3 1 53 0.327158 0 273 0.327158 1
genomeend 128

/* Organism #129 Fitness: 4.00036 Error: 1.99991 */
genomestart 129
trait 1 0.869494 0 0 0 0 0 0 0 
trait 2 0.2 0 0 0 0 0 0 0 
trait 3 0.3 0 0 0 0 0 0 0 
node 1 3 1 3
node 2 1 1 1
node 3 2 1 1
node 4 3 0 2
node 14 1 0 0
node 35 1 0 0
node 53 1 0 0
node 70 1 0 0
gene 2 1 4 -5.6442 0 1 -5.6442 1
gene 1 2 4 -3.39363 0 2 -3.39363 1
gene 3 3 4 1.04007 0 3 1.04007 1
gene 3 3 14 0.953246 0 25 0.953246 1
gene 3 14 4 5.0985 0 26 5.0985 1
gene 2 2 14 -6.38711 0 52 -6.38711 1
gene 2 1 14 -2.69936 0 77 -2.69936 1
gene 2 2 35 0.438574 0 97 0.438574 0
gene 2 35 14 -2.21374 0 98 -2.21374 1
gene 1 35 4 2.71267 0 116 2.71267 1
gene 2 35 53 -5.41232 0 154 -5.41232 1
gene 2 53 14 0.442686 0 155 0.442686 1
gene 1 2 53 2.19321 0 182 2.19321 1
gene 2 2 70 -0.725745 0 203 -0.725745 1
gene 2 70 35 4.21661 0 204 4.21661 1
gene 1 1 35 0.204627 0 224 0.204627 1
genomeend 129

/* Organism #130 Fitness: 9 Error: 1 */
genomestart 130
trait 1 0.869494 0 0 0 0 0 0 0 
trait 2 0.2 0 0 0 0 0 0 0 
trait 3 0.3 0 0 0 0 0 0 0 
node 1 3 1 3
node 2 1 1 1
node 3 2 1 1
node 4 3 0 2
node 14 1 0 0
node 35 1 0 0
node 53 1 0 0
node 70 1 0 0
node 95 1 0 0
gene 2 1 4 -3.7786 0 1 -3.7786 1
gene 1 2 4 -5.31507 0 2 -5.31507 1
gene 3 3 4 2.34794 0 3 2.34794 1
gene 3 3 14 3.59336 0 25 3.59336 1
gene 3 14 4 4.61798 0 26 4.61798 1
gene 2 2 14 -6.6894 0 52 -6.6894 1
gene 2 1 14 -0.824229 0 77 -0.824229 1
gene 2 2 35 -1.50004 0 97 -1.50004 0
gene 2 35 14 -0.132153 0 98 -0.132153 0
gene 1 35 4 0.276452 0 116 0.276452 1
gene 2 35 53 -2.99571 0 154 -2.99571 1
gene 2 53 14 1.08258 0 155 1.08258 1
gene 1 2 53 0.443579 0 182 0.443579 1
gene 2 2 70 1 0 203 1 1
gene 2 70 35 3.65332 0 204 3.65332 1
gene 1 1 35 0.883816 0 224 0.883816 1
gene 2 35 95 1 0 286 0 1
gene 2 95 14 -0.132153 0 287 0 1
genomeend 130

/* Organism #131 Fitness: 8.99731 Error: 1.00045 */
genomestart 131
trait 1 0.869494 0 0 0 0 0 0 0 
trait 2 0.2 0 0 0 0 0 0 0 
trait 3 0.3 0 0 0 0 0 0 0 
node 1 3 1 3
node 2 1 1 1
node 3 2 1 1
node 4 3 0 2
node 14 1 0 0
node 35 1 0 0
node 53 1 0 0
node 70 1 0 0
gene 2 1 4 -2.38337 0 1 -2.38337 1
gene 1 2 4 -7.10323 0 2 -7.10323 1
gene 3 3 4 -0.0178533 0 3 -0.0178533 1
gene 3 3 14 4.08478 0 25 4.08478 1
gene 3 14 4 3.7096 0 26 3.7096 1
gene 2 2 14 -6.6894 0 52 -6.6894 1
gene 2 1 14 -2.73537 0 77 -2.73537 1
gene 2 2 35 -0.597987 0 97 -0.597987 0
gene 2 35 14 0.0250252 0 98 0.0250252 1
gene 1 35 4 0.276452 0 116 0.276452 1
gene 2 35 53 -2.61263 0 154 -2.61263 1
gene 2 53 14 0.883969 0 155 0.883969 1
gene 1 2 53 -1.60307 0 182 -1.60307 1
gene 2 2 70 1.45343 0 203 1.45343 1
gene 2 70 35 4.76259 0 204 4.76259 1
gene 1 1 35 2.42569 0 224 2.42569 1
genomeend 131

/* Organism #132 Fitness: 8.99507 Error: 1.00082 */
genomestart 132
trait 1 0.869494 0 0 0 0 0 0 0 
trait 2 0.2 0 0 0 0 0 0 0 
trait 3 0.3 0 0 0 0 0 0 0 
node 1 3 1 3
node 2 1 1 1
node 3 2 1 1
node 4 3 0 2
node 14 1 0 0
node 35 1 0 0
node 53 1 0 0
node 70 1 0 0
gene 2 1 4 -4.04091 0 1 -4.04091 1
gene 1 2 4 -5.82763 0 2 -5.82763 1
gene 3 3 4 3.27799 0 3 3.27799 1
gene 3 3 14 4.39515 0 25 4.39515 1
gene 3 14 4 3.21329 0 26 3.21329 1
gene 2 2 14 -8 0 52 -8 1
gene 2 1 14 0.764946 0 77 0.764946 1
gene 2 2 35 -3.56454 0 97 -3.56454 0
gene 2 35 14 -0.78914 0 98 -0.78914 1
gene 1 35 4 1.08756 0 116 1.08756 1
gene 2 35 53 -2.6137 0 154 -2.6137 1
gene 2 53 14 -0.714194 0 155 -0.714194 1
gene 1 2 53 1.72459 0 182 1.72459 1
gene 2 2 70 1 0 203 1 1
gene 2 70 35 3.65332 0 204 3.65332 1
gene 1 1 35 0.97438 0 224 0.97438 1
genomeend 132

/* Organism #133 Fitness: 8.99973 Error: 1.00004 */
genomestart 133
trait 1 0.869494 0 0 0 0 0 0 0 
trait 2 0.2 0 0 0 0 0 0 0 
trait 3 0.3 0 0 0 0 0 0 0 
node 1 3 1 3
node 2 1 1 1
node 3 2 1 1
node 4 3 0 2
node 14 2 0 0
node 35 1 0 0
node 53 1 0 0
node 70 1 0 0
gene 2 1 4 -1.30935 0 1 -1.30935 1
gene 1 2 4 -6.46051 0 2 -6.46051 1
gene 3 3 4 1.53287 0 3 1.53287 1
gene 3 3 14 1.8432 0 25 1.8432 1
gene 3 14 4 3.09549 0 26 3.09549 1
gene 2 2 14 -5.12769 0 52 -5.12769 0
gene 2 1 14 1.27239 0 77 1.27239 1
gene 2 2 35 -0.315996 0 97 -0.315996 0
gene 2 35 14 -2.40983 0 98 -2.40983 1
gene 1 35 4 -0.763085 0 116 -0.763085 1
gene 2 35 53 -2.14737 0 154 -2.14737 1
gene 2 53 14 1.28942 0 155 1.28942 1
gene 1 2 53 1.94585 0 182 1.94585 1
gene 2 2 70 2.8215 0 203 2.8215 1
gene 2 70 35 3.65332 0 204 3.65332 1
gene 1 1 35 0.561769 0 224 0.561769 1
gene 3 1 53 -0.312693 0 273 -0.312693 1
genomeend 133

/* Species #26 : (Size 6) (AF 6.49834) (Age 5)  */


/* Organism #134 Fitness: 8.96831 Error: 1.00529 */
genomestart 134
trait 1 0.1 0 0 0 0 0 0 0 
trait 2 0.2 0 0 0 0 0 0 0 
trait 3 0.3 0 0 0 0 0 0 0 
node 1 3 1 3
node 2 1 1 1
node 3 2 1 1
node 4 3 0 2
node 14 1 0 0
node 35 1 0 0
node 53 1 0 0
node 61 1 0 0
node 79 1 0 0
gene 2 1 4 -2.36396 0 1 -2.36396 1
gene 1 2 4 2.44736 0 2 2.44736 1
gene 2 3 4 3.39526 0 3 3.39526 1
gene 3 3 14 2.06595 0 25 2.06595 1
gene 3 14 4 1.22791 0 26 1.22791 1
gene 2 2 14 0.983184 0 52 0.983184 0
gene 2 1 14 6.1698 0 77 6.1698 1
gene 2 2 35 -4.33975 0 97 -4.33975 0
gene 2 35 14 -4.02795 0 98 -4.02795 0
gene 1 35 4 -1.48897 0 116 -1.48897 0
gene 2 35 53 0.132908 0 154 0.132908 1
gene 2 53 14 -0.554415 0 155 -0.554415 1
gene 1 35 61 -3.72982 0 177 -3.72982 1
gene 1 61 4 2.61447 0 178 2.61447 1
gene 2 61 14 1.52532 0 202 1.52532 1
gene 2 2 79 2.04604 0 231 2.04604 1
gene 2 79 35 0.471358 0 232 0.471358 1
genomeend 134

/* Organism #135 Fitness: 4 Error: 2 */
genomestart 135
trait 1 0.1 0 0 0 0 0 0 0 
trait 2 0.2 0 0 0 0 0 0 0 
trait 3 0.3 0 0 0 0 0 0 0 
node 1 3 1 3
node 2 1 1 1
node 3 2 1 1
node 4 3 0 2
node 14 1 0 0
node 35 1 0 0
node 53 1 0 0
node 61 1 0 0
node 79 1 0 0
gene 2 1 4 -2.73518 0 1 -2.73518 1
gene 1 2 4 -8 0 2 -8 1
gene 2 3 4 -0.0192267 0 3 -0.0192267 1
gene 3 3 14 -0.00459304 0 25 -0.00459304 1
gene 3 14 4 -1.00879 0 26 -1.00879 1
gene 2 2 14 0.494583 0 52 0.494583 0
gene 2 1 14 2.89715 0 77 2.89715 1
gene 2 2 35 -4.33105 0 97 -4.33105 0
gene 2 35 14 -3.23562 0 98 -3.23562 0
gene 1 35 4 -1.09055 0 116 -1.09055 0
gene 2 35 53 -0.750923 0 154 -0.750923 1
gene 2 53 14 2.4604 0 155 2.4604 1
gene 1 35 61 -5.08538 0 177 -5.08538 1
gene 1 61 4 2.49561 0 178 2.49561 1
gene 2 61 14 -2.12081 0 202 -2.12081 1
gene 2 2 79 2.85783 0 231 2.85783 1
gene 2 79 35 -2.25167 0 232 -2.25167 1
gene 2 79 14 -1.57273 0 274 -1.57273 1
genomeend 135

/* Organism #136 Fitness: 4 Error: 2 */
genomestart 136
trait 1 0.1 0 0 0 0 0 0 0 
trait 2 0.2 0 0 0 0 0 0 0 
trait 3 0.3 0 0 0 0 0 0 0 
node 1 3 1 3
node 2 1 1 1
node 3 2 1 1
node 4 3 0 2
node 14 1 0 0
node 35 1 0 0
node 53 1 0 0
node 61 1 0 0
node 79 1 0 0
gene 2 1 4 -4.77244 0 1 -4.77244 1
gene 1 2 4 -8 0 2 -8 1
gene 2 3 4 -1.51364 0 3 -1.51364 1
gene 3 3 14 2.0622 0 25 2.0622 1
gene 3 14 4 -3.23855 0 26 -3.23855 1
gene 2 2 14 -2.24418 0 52 -2.24418 1
gene 2 1 14 2.58098 0 77 2.58098 1
gene 2 2 35 -1.50687 0 97 -1.50687 0
gene 2 35 14 -0.464919 0 98 -0.464919 1
gene 1 35 4 -1.8199 0 116 -1.8199 1
gene 2 35 53 -2.61187 0 154 -2.61187 1
gene 2 53 14 -1.19309 0 155 -1.19309 1
gene 1 35 61 1.88383 0 177 1.88383 1
gene 1 61 4 2.69909 0 178 2.69909 1
gene 2 61 14 -4.55405 0 202 -4.55405 1
gene 2 2 79 1.16855 0 231 1.16855 1
gene 2 79 35 1.09218 0 232 1.09218 1
gene 2 79 14 -0.732902 0 274 -0.732902 1
genomeend 136

/* Organism #137 Fitness: 4.02633 Error: 1.99343 */
genomestart 137
trait 1 0.1 0 0 0 0 0 0 0 
trait 2 0.2 0 0.118442 0.216163 0 0 0 0 
trait 3 0.3 0 0 0 0 0 0 0 
node 1 3 1 3
node 2 1 1 1
node 3 2 1 1
node 4 3 0 2
node 14 1 0 0
node 35 1 0 0
node 53 1 0 0
node 61 1 0 0
node 79 1 0 0
gene 2 1 4 0.0580615 0 1 0.0580615 1
gene 1 2 4 -6.55083 0 2 -6.55083 1
gene 2 3 4 2.21519 0 3 2.21519 1
gene 3 3 14 0.765618 0 25 0.765618 1
gene 3 14 4 -0.202643 0 26 -0.202643 1
gene 2 2 14 0.354579 0 52 0.354579 0
gene 2 1 14 3.0602 0 77 3.0602 1
gene 2 2 35 -1.37342 0 97 -1.37342 0
gene 2 35 14 -4.47162 0 98 -4.47162 0
gene 1 35 4 -1.32089 0 116 -1.32089 0
gene 2 35 53 -3.81178 0 154 -3.81178 1
gene 2 53 14 -2.58542 0 155 -2.58542 1
gene 1 35 61 -3.94108 0 177 -3.94108 1
gene 1 61 4 3.22645 0 178 3.22645 1
gene 2 61 14 -3.08695 0 202 -3.08695 1
gene 2 2 79 2.04604 0 231 2.04604 1
gene 2 79 35 -1.41745 0 232 -1.41745 1
genomeend 137

/* Organism #138 Fitness: 8.99662 Error: 1.00056 */
genomestart 138
trait 1 0.1 0 0 0 0 0 0 0 
trait 2 0.2 0 0 0 0 0 0 0 
trait 3 0.3 0 0 0 0 0 0 0 
node 1 3 1 3
node 2 1 1 1
node 3 2 1 1
node 4 3 0 2
node 14 1 0 0
node 35 1 0 0
node 53 1 0 0
node 61 1 0 0
node 79 1 0 0
gene 2 1 4 -2.64476 0 1 -2.64476 1
gene 1 2 4 -5.82083 0 2 -5.82083 1
gene 2 3 4 7.32139 0 3 7.32139 1
gene 3 3 14 2.26736 0 25 2.26736 1
gene 3 14 4 -3.03797 0 26 -3.03797 1
gene 2 2 14 0.346721 0 52 0.346721 0
gene 2 1 14 5.88308 0 77 5.88308 1
gene 2 2 35 -3.81178 0 97 -3.81178 0
gene 2 35 14 -1.0228 0 98 -1.0228 0
gene 1 35 4 -3.49854 0 116 -3.49854 0
gene 2 35 53 0.229408 0 154 0.229408 1
gene 2 53 14 0.97441 0 155 0.97441 1
gene 1 35 61 -4.93934 0 177 -4.93934 1
gene 1 61 4 -0.362682 0 178 -0.362682 1
gene 2 61 14 -2.51816 0 202 -2.51816 1
gene 1 2 79 -0.977126 0 231 -0.977126 1
gene 2 79 35 -1.42203 0 232 -1.42203 1
gene 2 79 14 -1.82427 0 274 -1.82427 1
genomeend 138

/* Organism #139 Fitness: 8.99879 Error: 1.0002 */
genomestart 139
trait 1 0.1 0 0 0 0 0 0 0 
trait 2 0.2 0 0 0 0 0 0 0 
trait 3 0.3 0 0 0 0 0 0 0 
node 1 3 1 3
node 2 1 1 1
node 3 2 1 1
node 4 3 0 2
node 14 1 0 0
node 35 1 0 0
node 53 1 0 0
node 61 1 0 0
node 79 1 0 0
gene 2 1 4 0.054857 0 1 0.054857 1
gene 1 2 4 -5.94954 0 2 -5.94954 1
gene 2 3 4 4.88762 0 3 4.88762 1
gene 3 3 14 2.6097 0 25 2.6097 1
gene 3 14 4 -2.05267 0 26 -2.05267 1
gene 2 2 14 1.18751 0 52 1.18751 0
gene 2 1 14 3.10422 0 77 3.10422 1
gene 2 2 35 -6.25707 0 97 -6.25707 0
gene 2 35 14 -2.35379 0 98 -2.35379 0
gene 1 35 4 -0.435698 0 116 -0.435698 0
gene 2 35 53 0.104892 0 154 0.104892 1
gene 2 53 14 -1.69611 0 155 -1.69611 1
gene 1 35 61 -3.45759 0 177 -3.45759 1
gene 1 61 4 1.45325 0 178 1.45325 1
gene 2 61 14 0.960341 0 202 0.960341 1
gene 2 2 79 -1.21426 0 231 -1.21426 1
gene 2 79 35 -0.955077 0 232 -0.955077 1
genomeend 139

/* Species #27 : (Size 6) (AF 5.36516) (Age 5)  */


/* Organism #140 Fitness: 8.99996 Error: 1.00001 */
genomestart 140
trait 1 0.1 0 0 0 0 0 0 0 
trait 2 0.2 0 0 0 0 0 0 0 
trait 3 0.3 0 0 0 0 0 0 0 
node 1 3 1 3
node 2 1 1 1
node 3 2 1 1
node 4 3 0 2
node 14 1 0 0
node 35 1 0 0
node 53 1 0 0
node 61 1 0 0
node 80 1 0 0
gene 2 1 4 0.474151 0 1 0.474151 1
gene 1 2 4 -8 0 2 -8 1
gene 3 3 4 3.549 0 3 3.549 1
gene 3 3 14 2.46443 0 25 2.46443 1
gene 3 14 4 5.37652 0 26 5.37652 1
gene 2 2 14 -0.506272 0 52 -0.506272 1
gene 2 1 14 -0.448668 0 77 -0.448668 1
gene 2 2 35 1.44496 0 97 1.44496 1
gene 2 35 14 -0.0430769 0 98 -0.0430769 0
gene 1 35 4 0.317194 0 116 0.317194 0
gene 2 35 53 4.57273 0 154 4.57273 1
gene 2 53 14 -2.02495 0 155 -2.02495 1
gene 1 35 61 -6.95906 0 177 -6.95906 1
gene 1 61 4 0.978988 0 178 0.978988 1
gene 2 61 14 -1.35029 0 202 -1.35029 1
gene 1 35 80 0.472488 0 233 0.472488 1
gene 1 80 4 -3.81573 0 234 -3.81573 1
genomeend 140

/* Organism #141 Fitness: 4.00009 Error: 1.99998 */
genomestart 141
trait 1 0.1 0 0 0 0 0 0 0 
trait 2 0.2 0 0 0 0 0 0 0 
trait 3 0.3 0 0 0 0 0 0 0 
node 1 3 1 3
node 2 1 1 1
node 3 2 1 1
node 4 3 0 2
node 14 1 0 0
node 35 1 0 0
node 53 1 0 0
node 61 1 0 0
node 80 1 0 0
gene 2 1 4 0.474151 0 1 0.474151 1
gene 1 2 4 -8 0 2 -8 1
gene 3 3 4 2.02788 0 3 2.02788 1
gene 3 3 14 1.94584 0 25 1.94584 1
gene 3 14 4 4.24657 0 26 4.24657 1
gene 2 2 14 -1.1642 0 52 -1.1642 1
gene 2 1 14 -2.86161 0 77 -2.86161 1
gene 2 2 35 1.91395 0 97 1.91395 1
gene 2 35 14 0.502976 0 98 0.502976 1
gene 1 35 4 1.74149 0 116 1.74149 0
gene 2 35 53 0.592059 0 154 0.592059 1
gene 2 53 14 -3.66166 0 155 -3.66166 1
gene 1 35 61 2.09815 0 177 2.09815 1
gene 1 61 4 0.16689 0 178 0.16689 1
gene 2 61 14 -2.37365 0 202 -2.37365 1
gene 1 35 80 1.32968 0 233 1.32968 1
gene 1 80 4 -5.03464 0 234 -5.03464 1
genomeend 141

/* Organism #142 Fitness: 6.07492 Error: 1.53526 */
genomestart 142
trait 1 0.1 0 0 0 0 0 0 0 
trait 2 0.2 0 0 0 0 0 0 0 
trait 3 0.3 0 0 0 0 0 0 0 
node 1 3 1 3
node 2 1 1 1
node 3 2 1 1
node 4 3 0 2
node 14 1 0 0
node 35 1 0 0
node 53 1 0 0
node 61 1 0 0
node 80 1 0 0
gene 2 1 4 1.87484 0 1 1.87484 1
gene 1 2 4 -6.18673 0 2 -6.18673 1
gene 3 3 4 1.91214 0 3 1.91214 1
gene 3 3 14 -2.08992 0 25 -2.08992 1
gene 3 14 4 3.37176 0 26 3.37176 1
gene 2 2 14 -2.4976 0 52 -2.4976 1
gene 2 1 14 -0.905835 0 77 -0.905835 1
gene 2 2 35 3.78382 0 97 3.78382 1
gene 2 35 14 1.22783 0 98 1.22783 1
gene 1 35 4 -1.86229 0 116 -1.86229 0
gene 2 35 53 6.20051 0 154 6.20051 1
gene 2 53 14 -1.22758 0 155 -1.22758 1
gene 1 35 61 -5.57863 0 177 -5.57863 1
gene 1 61 4 1.14982 0 178 1.14982 1
gene 2 61 14 -1.28498 0 202 -1.28498 1
gene 1 35 80 4.2102 0 233 4.2102 1
gene 1 80 4 -3.81573 0 234 -3.81573 1
genomeend 142

/* Organism #143 Fitness: 3.2682 Error: 2.19218 */
genomestart 143
trait 1 0.1 0 0 0 0 0 0 0 
trait 2 0.2 0 0 0 0 0 0 0 
trait 3 0.3 0 0 0 0 0 0 0 
node 1 3 1 3
node 2 1 1 1
node 3 2 1 1
node 4 3 0 2
node 14 1 0 0
node 35 1 0 0
node 53 1 0 0
node 61 1 0 0
node 80 1 0 0
gene 2 1 4 3.34377 0 1 3.34377 1
gene 1 2 4 -6.93314 0 2 -6.93314 1
gene 3 3 4 1.2542 0 3 1.2542 1
gene 3 3 14 -0.757241 0 25 -0.757241 1
gene 3 14 4 6.49071 0 26 6.49071 1
gene 2 2 14 -2.84025 0 52 -2.84025 1
gene 2 1 14 -2.84071 0 77 -2.84071 1
gene 2 2 35 3.49462 0 97 3.49462 1
gene 2 35 14 -0.778764 0 98 -0.778764 1
gene 1 35 4 0.0760216 0 116 0.0760216 0
gene 2 35 53 3.33009 0 154 3.33009 1
gene 2 53 14 2.20069 0 155 2.20069 1
gene 1 35 61 2.33001 0 177 2.33001 1
gene 1 61 4 4.17904 0 178 4.17904 1
gene 2 61 14 1.25774 0 202 1.25774 1
gene 1 35 80 1.00391 0 233 1.00391 1
gene 1 80 4 -2.14999 0 234 -2.14999 1
genomeend 143

/* Organism #144 Fitness: 3.9982 Error: 2.00045 */
genomestart 144
trait 1 0.1 0 0 0 0 0 0 0 
trait 2 0.2 0 0 0 0 0 0 0 
trait 3 0.3 0 0 0 0 0 0 0 
node 1 3 1 3
node 2 1 1 1
node 3 2 1 1
node 4 3 0 2
node 14 1 0 0
node 35 1 0 0
node 53 1 0 0
node 61 1 0 0
node 80 1 0 0
gene 2 1 4 2.67743 0 1 2.67743 1
gene 1 2 4 -6.39434 0 2 -6.39434 1
gene 3 3 4 2.05206 0 3 2.05206 1
gene 3 3 14 1.9415 0 25 1.9415 1
gene 3 14 4 5.31068 0 26 5.31068 1
gene 2 2 14 1.48239 0 52 1.48239 1
gene 2 1 14 1.73676 0 77 1.73676 1
gene 2 2 35 3.33512 0 97 3.33512 1
gene 2 35 14 2.40458 0 98 2.40458 0
gene 1 35 4 0.816248 0 116 0.816248 0
gene 2 35 53 6.35913 0 154 6.35913 1
gene 2 53 14 -1.49767 0 155 -1.49767 1
gene 1 35 61 -6.8939 0 177 -6.8939 1
gene 1 61 4 2.72541 0 178 2.72541 1
gene 2 61 14 -1.35029 0 202 -1.35029 1
gene 1 35 80 -0.516465 0 233 -0.516465 1
gene 1 80 4 -0.378658 0 234 -0.378658 1
genomeend 144

/* Organism #145 Fitness: 5.84961 Error: 1.5814 */
genomestart 145
trait 1 0.1 0 0 0 0 0 0 0 
trait 2 0.2 0 0 0 0 0 0 0 
trait 3 0.3 0 0 0 0 0 0 0 
node 1 3 1 3
node 2 1 1 1
node 3 2 1 1
node 4 3 0 2
node 14 1 0 0
node 35 1 0 0
node 53 1 0 0
node 61 1 0 0
node 80 1 0 0
gene 2 1 4 -0.355457 0 1 -0.355457 1
gene 1 2 4 -6.93993 0 2 -6.93993 1
gene 3 3 4 2.93172 0 3 2.93172 1
gene 3 3 14 0.0487381 0 25 0.0487381 1
gene 3 14 4 5.53686 0 26 5.53686 1
gene 2 2 14 -1.24108 0 52 -1.24108 1
gene 2 1 14 -3.12865 0 77 -3.12865 1
gene 2 2 35 2.71731 0 97 2.71731 1
gene 2 35 14 3.09228 0 98 3.09228 1
gene 1 35 4 -2.38789 0 116 -2.38789 0
gene 2 35 53 5.66895 0 154 5.66895 1
gene 2 53 14 -0.739776 0 155 -0.739776 1
gene 1 35 61 -6.14165 0 177 -6.14165 1
gene 1 61 4 0.69261 0 178 0.69261 1
gene 2 61 14 -0.425275 0 202 -0.425275 1
gene 1 35 80 3.6389 0 233 3.6389 1
gene 1 80 4 -2.6434 0 234 -2.6434 1
genomeend 145

/* Species #28 : (Size 4) (AF 3.76908) (Age 4)  */


/* Organism #146 Fitness: 3.66486 Error: 2.08562 */
genomestart 146
trait 1 0.0875 0 0 0 0 0 0.0801073 0 
trait 2 0.248396 0 0.0930004 0 0 0 0 0 
trait 3 0.347815 0.138689 0.174419 0 0.224314 0 0 0.133218 
node 1 2 1 3
node 2 2 1 1
node 3 3 1 1
node 4 1 0 2
node 10 1 0 0
node 72 1 0 0
gene 2 1 4 0.4017 0 1 0.4017 1
gene 3 2 4 1.62532 0 2 1.62532 1
gene 3 3 4 -0.242851 0 3 -0.242851 1
gene 3 3 10 -1.58155 0 14 -1.58155 1
gene 3 10 4 1.92015 0 15 1.92015 0
gene 3 2 10 -0.344554 0 195 -0.344554 1
gene 3 10 72 -1.5421 0 207 -1.5421 1
gene 3 72 4 -8 0 208 -8 1
genomeend 146

/* Organism #147 Fitness: 3.99976 Error: 2.00006 */
genomestart 147
trait 1 0.0875 0 0 0 0 0 0.0801073 0 
trait 2 0.248396 0 0.0930004 0 0 0 0 0 
trait 3 0.347815 0.138689 0.174419 0 0.224314 0 0 0.133218 
node 1 2 1 3
node 2 2 1 1
node 3 3 1 1
node 4 1 0 2
node 10 1 0 0
node 72 1 0 0
gene 2 1 4 -1.32885 0 1 -1.32885 1
gene 3 2 4 0.772553 0 2 0.772553 1
gene 3 3 4 -1.7835 0 3 -1.7835 1
gene 3 3 10 -2.56874 0 14 -2.56874 1
gene 3 10 4 2.3468 0 15 2.3468 0
gene 3 2 10 -0.859706 0 195 -0.859706 1
gene 3 10 72 -0.986435 0 207 -0.986435 1
gene 3 72 4 -8 0 208 -8 1
genomeend 147

/* Organism #148 Fitness: 6.26584 Error: 1.49683 */
genomestart 148
trait 1 0.0875 0 0 0 0 0 0.0801073 0 
trait 2 0.248396 0 0.0930004 0 0 0 0 0 
trait 3 0.347815 0.138689 0.174419 0 0.224314 0 0 0.133218 
node 1 2 1 3
node 2 2 1 1
node 3 3 1 1
node 4 1 0 2
node 10 1 0 0
node 72 1 0 0
gene 2 1 4 -0.529725 0 1 -0.529725 1
gene 3 2 4 0.588603 0 2 0.588603 1
gene 3 3 4 -0.994064 0 3 -0.994064 1
gene 3 3 10 -3.0179 0 14 -3.0179 1
gene 3 10 4 4.36323 0 15 4.36323 0
gene 3 2 10 0.0711844 0 195 0.0711844 1
gene 3 10 72 -2.91887 0 207 -2.91887 1
gene 3 72 4 -8 0 208 -8 1
genomeend 148

/* Organism #149 Fitness: 1.14587 Error: 2.92955 */
genomestart 149
trait 1 0.0875 0 0 0 0 0 0.0801073 0 
trait 2 0.248396 0 0.0930004 0 0 0 0 0 
trait 3 0.347815 0.138689 0.174419 0 0.224314 0 0 0.133218 
node 1 2 1 3
node 2 2 1 1
node 3 3 1 1
node 4 1 0 2
node 10 1 0 0
node 72 1 0 0
gene 2 1 4 1.15749 0 1 1.15749 1
gene 3 2 4 -0.64938 0 2 -0.64938 1
gene 3 3 4 1.48015 0 3 1.48015 1
gene 3 3 10 -3.44256 0 14 -3.44256 1
gene 3 10 4 3.98915 0 15 3.98915 0
gene 3 2 10 -1.41903 0 195 -1.41903 1
gene 3 10 72 -0.998947 0 207 -0.998947 1
gene 3 72 4 -8 0 208 -8 1
genomeend 149
