
/* Species #1 : (Size 15) (AF 8.12976) (Age 20)  */


/* Organism #0 Fitness: 9 Error: 1 */
genomestart 0
trait 1 0.985116 0 0 0 0.633503 0.673391 0.538741 0.846522 
trait 2 0.2 0 0 0 0 0 0 0 
trait 3 0.289453 0 0 0 0 0 0 0.0278711 
node 1 1 1 3
node 2 1 1 1
node 3 3 1 1
node 4 3 0 2
gene 2 1 4 -4.08029 0 1 -4.08029 1
gene 3 2 4 8 0 2 8 1
gene 2 3 4 -8 0 3 -8 1
genomeend 0

/* Organism #1 Fitness: 8.9978 Error: 1.00037 */
genomestart 1
trait 1 0.0921143 0 0 0 0 0 0.0505364 0 
trait 2 0.2 0 0 0 0 0 0 0 
trait 3 0.289453 0 0 0 0 0 0 0.0278711 
node 1 1 1 3
node 2 1 1 1
node 3 3 1 1
node 4 3 0 2
gene 1 1 4 -1.7473 0 1 -1.7473 1
gene 3 2 4 8 0 2 8 1
gene 2 3 4 -8 0 3 -8 1
genomeend 1

/* Organism #2 Fitness: 9 Error: 1 */
genomestart 2
trait 1 0.538701 0 0 0 0.316752 0.336695 0.294091 0.423261 
trait 2 0.2 0 0 0 0 0 0 0 
trait 3 0.287695 0 0 0 0 0 0 0.0325163 
node 1 1 1 3
node 2 1 1 1
node 3 3 1 1
node 4 3 0 2
gene 1 1 4 -4.0447 0 1 -4.0447 1
gene 3 2 4 8 0 2 8 1
gene 2 3 4 -8 0 3 -8 1
genomeend 2

/* Organism #3 Fitness: 9 Error: 1 */
genomestart 3
trait 1 0.0922852 0 0 0 0 0 0.0494412 0 
trait 2 0.2 0 0 0 0 0 0 0 
trait 3 0.285937 0 0 0 0 0 0 0.0371615 
node 1 1 1 3
node 2 1 1 1
node 3 3 1 1
node 4 3 0 2
gene 1 1 4 -4.00911 0 1 -4.00911 1
gene 3 2 4 8 0 2 8 1
gene 2 3 4 -8 0 3 -8 1
genomeend 3

/* Organism #4 Fitness: 9 Error: 1 */
genomestart 4
trait 1 0.0921997 0 0 0 0 0 0.0499888 0 
trait 2 0.2 0 0 0 0 0 0 0 
trait 3 0.287695 0 0 0 0 0 0 0.0325163 
node 1 1 1 3
node 2 1 1 1
node 3 3 1 1
node 4 3 0 2
gene 1 1 4 -4.00911 0 1 -4.00911 1
gene 3 2 4 8 0 2 8 1
gene 2 3 4 -8 0 3 -8 1
genomeend 4

/* Organism #5 Fitness: 9 Error: 1 */
genomestart 5
trait 1 0.538615 0 0 0 0.316752 0.336695 0.294639 0.423261 
trait 2 0.2 0 0 0 0 0 0 0 
trait 3 0.289453 0 0 0 0 0 0 0.0278711 
node 1 1 1 3
node 2 1 1 1
node 3 3 1 1
node 4 3 0 2
gene 2 1 4 -3.15443 0 1 -3.15443 1
gene 3 2 4 7.49713 0 2 7.49713 1
gene 2 3 4 -8 0 3 -8 1
genomeend 5

/* Organism #6 Fitness: 8.99967 Error: 1.00005 */
genomestart 6
trait 1 0.0921997 0 0 0 0 0 0.0499888 0 
trait 2 0.2 0 0 0 0 0 0 0 
trait 3 0.287695 0 0 0 0 0.79577 0 0 
node 1 1 1 3
node 2 1 1 1
node 3 3 1 1
node 4 3 0 2
gene 1 1 4 -3.62446 0 1 -3.62446 1
gene 3 2 4 5.61902 0 2 5.61902 1
gene 2 3 4 -8 0 3 -8 1
genomeend 6

/* Organism #7 Fitness: 1.43673 Error: 2.80136 */
genomestart 7
trait 1 0.538701 0 0 0 0.316752 0.336695 0.294091 0.423261 
trait 2 0.2 0 0 0 0 0 0 0 
trait 3 0.287695 0 0 0 0 0 0 0.0325163 
node 1 1 1 3
node 2 1 1 1
node 3 3 1 1
node 4 3 0 2
gene 2 1 4 0.283517 0 1 0.283517 1
gene 3 2 4 -2.09944 0 2 -2.09944 1
gene 2 3 4 -2.21595 0 3 -2.21595 1
genomeend 7

/* Organism #8 Fitness: 8.95451 Error: 1.00759 */
genomestart 8
trait 1 0.0921143 0 0 0 0 0 0.0505364 0 
trait 2 0.2 0 0 0 0 0 0 0 
trait 3 0.289453 0 0 0 0 0 0 0.0278711 
node 1 1 1 3
node 2 1 1 1
node 3 3 1 1
node 4 3 0 2
gene 1 1 4 -5.78413 0 1 -5.78413 1
gene 3 2 4 6.77377 0 2 6.77377 1
gene 2 3 4 -8 0 3 -8 1
genomeend 8

/* Organism #9 Fitness: 7.09192 Error: 1.33693 */
genomestart 9
trait 1 0.0921143 0 0 0 0 0 0.0505364 0 
trait 2 0.2 0 0 0 0 0 0 0 
trait 3 0.289453 0 0 0 0 0 0 0.0278711 
node 1 1 1 3
node 2 1 1 1
node 3 3 1 1
node 4 3 0 2
gene 1 1 4 -6.15532 0 1 -6.15532 1
gene 3 2 4 6.29279 0 2 6.29279 1
gene 2 3 4 -8 0 3 -8 1
genomeend 9

/* Organism #10 Fitness: 9 Error: 1 */
genomestart 10
trait 1 0.0922852 0 0 0 0 0 0.0494412 0 
trait 2 0.2 0 0 0 0 0 0 0 
trait 3 0.285937 0 0 0 0 0 0 0.0371615 
node 1 1 1 3
node 2 1 1 1
node 3 3 1 1
node 4 3 0 2
gene 1 1 4 -4.00911 0 1 -4.00911 1
gene 3 2 4 8 0 2 8 1
gene 2 3 4 -8 0 3 -8 1
genomeend 10

/* Organism #11 Fitness: 8.99911 Error: 1.00015 */
genomestart 11
trait 1 0.538615 0 0 0 0.316752 0.336695 0.294639 0.423261 
trait 2 0.2 0 0 0 0 0 0 0 
trait 3 0.289453 0 0 0 0 0 0 0.0278711 
node 1 1 1 3
node 2 1 1 1
node 3 3 1 1
node 4 3 0 2
gene 2 1 4 -4.73384 0 1 -4.73384 1
gene 3 2 4 6.52359 0 2 6.52359 1
gene 2 3 4 -8 0 3 -8 1
genomeend 11

/* Organism #12 Fitness: 8.99987 Error: 1.00002 */
genomestart 12
trait 1 0.0921143 0 0 0 0 0 0.0505364 0 
trait 2 0.2 0 0 0 0 0 0 0 
trait 3 0.289453 0 0 0 0 0 0 0.0278711 
node 1 1 1 3
node 2 1 1 1
node 3 3 1 1
node 4 3 0 2
gene 1 1 4 -2.1976 0 1 -2.1976 1
gene 3 2 4 7.48767 0 2 7.48767 1
gene 2 3 4 -8 0 3 -8 1
genomeend 12

/* Organism #13 Fitness: 8.99961 Error: 1.00006 */
genomestart 13
trait 1 0.0921997 0 0 0 0 0 0.0499888 0 
trait 2 0.2 0 0 0 0 0 0 0 
trait 3 0.287695 0 0 0 0 0 0 0.0325163 
node 1 1 1 3
node 2 1 1 1
node 3 3 1 1
node 4 3 0 2
gene 1 1 4 -5.42078 0 1 -5.42078 1
gene 3 2 4 7.37925 0 2 7.37925 1
gene 3 3 4 -8 0 3 -8 1
genomeend 13

/* Organism #14 Fitness: 5.46718 Error: 1.6618 */
genomestart 14
trait 1 0.0875 0 0 0 0 0 0.0801073 0 
trait 2 0.243556 0 0.0837004 0 0 0 0 0 
trait 3 0.360591 0.161804 0.203489 0 0.226294 0 0 0.119896 
node 1 2 1 3
node 2 2 1 1
node 3 3 1 1
node 4 1 0 2
node 10 1 0 0
gene 2 1 4 -4.13414 0 1 -4.13414 1
gene 3 2 4 6.7525 0 2 6.7525 1
gene 3 3 4 -2.98485 0 3 -2.98485 0
gene 3 3 10 4.70289 0 14 4.70289 1
gene 3 10 4 -5.50938 0 15 -5.50938 1
genomeend 14

/* Species #2 : (Size 8) (AF 5.93695) (Age 18)  */


/* Organism #15 Fitness: 8.99996 Error: 1.00001 */
genomestart 15
trait 1 0.1 0 0 0 0 0 0 0 
trait 2 0.2 0 0 0 0 0 0 0 
trait 3 0.170381 0 0 0 0 0 0 0.424904 
node 1 2 1 3
node 2 3 1 1
node 3 2 1 1
node 4 2 0 2
node 5 1 0 0
gene 2 1 4 2.42786 0 1 2.42786 1
gene 3 2 4 -1.52509 0 2 -1.52509 0
gene 1 3 4 -5.122 0 3 -5.122 1
gene 3 2 5 -2.10788 0 4 -2.10788 1
gene 3 5 4 5.87477 0 5 5.87477 1
gene 2 1 5 1.37098 0 89 1.37098 1
genomeend 15

/* Organism #16 Fitness: 4.62444 Error: 1.84955 */
genomestart 16
trait 1 0.1 0 0 0 0 0 0 0 
trait 2 0.2 0 0 0 0 0 0 0 
trait 3 0.170668 0 0 0 0 0 0 0.423964 
node 1 2 1 3
node 2 3 1 1
node 3 2 1 1
node 4 2 0 2
node 5 1 0 0
gene 2 1 4 3.19227 0 1 3.19227 1
gene 3 2 4 0.0498978 0 2 0.0498978 0
gene 1 3 4 -2.84074 0 3 -2.84074 1
gene 3 2 5 -3.1473 0 4 -3.1473 1
gene 3 5 4 8 0 5 8 1
gene 2 1 5 -0.14259 0 89 -0.14259 1
genomeend 16

/* Organism #17 Fitness: 4 Error: 2 */
genomestart 17
trait 1 0.1 0 0 0 0 0 0 0 
trait 2 0.2 0 0 0 0 0 0 0 
trait 3 0.171242 0 0 0 0 0 0 0.422084 
node 1 2 1 3
node 2 3 1 1
node 3 2 1 1
node 4 2 0 2
node 5 1 0 0
gene 2 1 4 4.44937 0 1 4.44937 1
gene 3 2 4 -1.05205 0 2 -1.05205 0
gene 1 3 4 -4.18742 0 3 -4.18742 1
gene 3 2 5 -0.586184 0 4 -0.586184 1
gene 3 5 4 6.30796 0 5 6.30796 1
gene 2 1 5 1.20987 0 89 1.20987 1
genomeend 17

/* Organism #18 Fitness: 4 Error: 2 */
genomestart 18
trait 1 0.1 0 0 0 0 0 0 0 
trait 2 0.2 0 0 0 0 0 0 0 
trait 3 0.170955 0 0 0 0 0 0 0.423024 
node 1 2 1 3
node 2 3 1 1
node 3 2 1 1
node 4 2 0 2
node 5 1 0 0
gene 2 1 4 2.63293 0 1 2.63293 1
gene 3 2 4 -1.06891 0 2 -1.06891 0
gene 1 3 4 -5.71463 0 3 -5.71463 1
gene 3 2 5 -3.73693 0 4 -3.73693 1
gene 3 5 4 6.30419 0 5 6.30419 1
gene 2 1 5 -1.17732 0 89 -1.17732 1
genomeend 18

/* Organism #19 Fitness: 4 Error: 2 */
genomestart 19
trait 1 0.1 0 0 0 0 0 0 0 
trait 2 0.2 0 0 0 0 0 0 0 
trait 3 0.170668 0 0 0 0 0 0 0.423964 
node 1 2 1 3
node 2 3 1 1
node 3 2 1 1
node 4 2 0 2
node 5 1 0 0
gene 2 1 4 1.36688 0 1 1.36688 1
gene 3 2 4 -1.41858 0 2 -1.41858 0
gene 1 3 4 -2.62772 0 3 -2.62772 1
gene 3 2 5 -0.988266 0 4 -0.988266 1
gene 3 5 4 6.30796 0 5 6.30796 1
gene 2 1 5 1.20987 0 89 1.20987 1
genomeend 19

/* Organism #20 Fitness: 3.88252 Error: 2.02959 */
genomestart 20
trait 1 0.1 0 0 0 0 0 0 0 
trait 2 0.2 0 0 0 0 0 0 0 
trait 3 0.170668 0 0 0 0 0 0 0.423964 
node 1 2 1 3
node 2 3 1 1
node 3 2 1 1
node 4 2 0 2
node 5 1 0 0
gene 2 1 4 0.706846 0 1 0.706846 1
gene 3 2 4 0.729544 0 2 0.729544 0
gene 1 3 4 -5.35667 0 3 -5.35667 1
gene 3 2 5 -2.23582 0 4 -2.23582 1
gene 3 5 4 4.36156 0 5 4.36156 1
gene 2 1 5 -0.257187 0 89 -0.257187 1
genomeend 20

/* Organism #21 Fitness: 8.98871 Error: 1.00188 */
genomestart 21
trait 1 0.1 0 0 0 0 0 0 0 
trait 2 0.2 0 0 0 0 0 0 0 
trait 3 0.170668 0 0 0 0 0 0 0.423964 
node 1 2 1 3
node 2 3 1 1
node 3 2 1 1
node 4 2 0 2
node 5 1 0 0
gene 2 1 4 1.23544 0 1 1.23544 1
gene 3 2 4 -1.28761 0 2 -1.28761 0
gene 1 3 4 -3.48043 0 3 -3.48043 1
gene 3 2 5 -3.33707 0 4 -3.33707 1
gene 3 5 4 5.1279 0 5 5.1279 1
gene 2 1 5 2.35651 0 89 2.35651 1
genomeend 21

/* Organism #22 Fitness: 8.99996 Error: 1.00001 */
genomestart 22
trait 1 0.1 0 0 0 0 0 0 0 
trait 2 0.2 0 0 0 0 0 0 0 
trait 3 0.170668 0 0 0 0 0 0 0.423964 
node 1 2 1 3
node 2 3 1 1
node 3 2 1 1
node 4 2 0 2
node 5 1 0 0
gene 2 1 4 2.42786 0 1 2.42786 1
gene 3 2 4 -1.98004 0 2 -1.98004 0
gene 1 3 4 -5.122 0 3 -5.122 1
gene 3 2 5 -2.10788 0 4 -2.10788 1
gene 3 5 4 5.87477 0 5 5.87477 1
gene 2 1 5 1.37098 0 89 1.37098 1
genomeend 22

/* Species #3 : (Size 10) (AF 7.00301) (Age 17)  */


/* Organism #23 Fitness: 8.99445 Error: 1.00092 */
genomestart 23
trait 1 0.0987061 0 0 0 0 0 0.00829235 0 
trait 2 0.2 0 0 0 0 0 0 0 
trait 3 0.3 0 0 0 0 0 0 0 
node 1 3 1 3
node 2 1 1 1
node 3 1 1 1
node 4 3 0 2
node 8 1 0 0
gene 3 1 4 -5.09325 0 1 -5.09325 1
gene 1 2 4 2.92793 0 2 2.92793 0
gene 2 3 4 3.51567 0 3 3.51567 1
gene 1 2 8 -0.947066 0 10 -0.947066 1
gene 1 8 4 6.60957 0 11 6.60957 1
genomeend 23

/* Organism #24 Fitness: 4 Error: 2 */
genomestart 24
trait 1 0.0987061 0 0 0 0 0 0.00829235 0 
trait 2 0.2 0 0 0 0 0 0 0 
trait 3 0.3 0 0 0 0 0 0 0 
node 1 3 1 3
node 2 1 1 1
node 3 1 1 1
node 4 3 0 2
node 8 1 0 0
gene 3 1 4 2.1408 0 1 2.1408 1
gene 1 2 4 1.40393 0 2 1.40393 0
gene 2 3 4 5.30939 0 3 5.30939 1
gene 1 2 8 2.06496 0 10 2.06496 1
gene 1 8 4 5.79801 0 11 5.79801 1
genomeend 24

/* Organism #25 Fitness: 8.78604 Error: 1.03587 */
genomestart 25
trait 1 0.0987061 0 0 0 0 0 0.00829235 0 
trait 2 0.2 0 0 0 0.333354 0.43582 0 0 
trait 3 0.3 0 0 0 0 0 0 0 
node 1 3 1 3
node 2 1 1 1
node 3 1 1 1
node 4 3 0 2
node 8 1 0 0
gene 3 1 4 -4.19273 0 1 -4.19273 1
gene 1 2 4 3.10768 0 2 3.10768 0
gene 2 3 4 2.34837 0 3 2.34837 1
gene 1 2 8 1.38913 0 10 1.38913 1
gene 1 8 4 7.04569 0 11 7.04569 1
genomeend 25

/* Organism #26 Fitness: 8.97666 Error: 1.00389 */
genomestart 26
trait 1 0.0987061 0 0 0 0 0 0.00829235 0 
trait 2 0.2 0 0 0 0.333354 0.43582 0 0 
trait 3 0.3 0 0 0 0 0 0 0 
node 1 3 1 3
node 2 1 1 1
node 3 1 1 1
node 4 3 0 2
node 8 1 0 0
gene 3 1 4 -5.5669 0 1 -5.5669 1
gene 1 2 4 3.06923 0 2 3.06923 0
gene 2 3 4 3.51567 0 3 3.51567 1
gene 1 2 8 0.337077 0 10 0.337077 1
gene 1 8 4 8 0 11 8 1
genomeend 26

/* Organism #27 Fitness: 3.98418 Error: 2.00396 */
genomestart 27
trait 1 0.0987061 0 0 0 0 0 0.00829235 0 
trait 2 0.2 0 0 0 0.333354 0.43582 0 0 
trait 3 0.3 0 0 0 0 0 0 0 
node 1 3 1 3
node 2 1 1 1
node 3 1 1 1
node 4 3 0 2
node 8 1 0 0
gene 3 1 4 -6.06939 0 1 -6.06939 1
gene 1 2 4 3.06809 0 2 3.06809 1
gene 2 3 4 1.80684 0 3 1.80684 1
gene 1 2 8 1.92713 0 10 1.92713 1
gene 1 8 4 0.0719474 0 11 0.0719474 1
genomeend 27

/* Organism #28 Fitness: 8.73497 Error: 1.0445 */
genomestart 28
trait 1 0.0987061 0 0 0 0 0 0.00829235 0 
trait 2 0.2 0 0 0 0 0 0 0 
trait 3 0.3 0 0 0 0 0 0 0 
node 1 3 1 3
node 2 1 1 1
node 3 1 1 1
node 4 1 0 2
node 8 1 0 0
gene 3 1 4 -3.75708 0 1 -3.75708 1
gene 1 2 4 4.46248 0 2 4.46248 0
gene 2 3 4 1.53806 0 3 1.53806 1
gene 1 2 8 -1.51234 0 10 -1.51234 1
gene 1 8 4 5.94068 0 11 5.94068 1
genomeend 28

/* Organism #29 Fitness: 7.69833 Error: 1.22541 */
genomestart 29
trait 1 0.0987061 0 0 0 0 0 0.00829235 0 
trait 2 0.2 0 0 0 0 0 0 0 
trait 3 0.3 0 0 0 0 0 0 0 
node 1 3 1 3
node 2 1 1 1
node 3 1 1 1
node 4 3 0 2
node 8 1 0 0
gene 3 1 4 -5.62908 0 1 -5.62908 1
gene 1 2 4 0.862743 0 2 0.862743 0
gene 2 3 4 4.95813 0 3 4.95813 1
gene 1 2 8 -0.509659 0 10 -0.509659 1
gene 1 8 4 5.5898 0 11 5.5898 1
genomeend 29

/* Organism #30 Fitness: 4.00279 Error: 1.9993 */
genomestart 30
trait 1 0.0987061 0 0 0 0 0 0.00829235 0 
trait 2 0.2 0 0 0 0.333354 0.43582 0 0 
trait 3 0.3 0 0 0 0 0 0 0 
node 1 3 1 3
node 2 1 1 1
node 3 1 1 1
node 4 3 0 2
node 8 1 0 0
gene 3 1 4 -5.98653 0 1 -5.98653 1
gene 1 2 4 4.39129 0 2 4.39129 0
gene 2 3 4 3.51567 0 3 3.51567 1
gene 1 2 8 -2.7797 0 10 -2.7797 1
gene 1 8 4 1.99255 0 11 1.99255 1
genomeend 30

/* Organism #31 Fitness: 8.94511 Error: 1.00916 */
genomestart 31
trait 1 0.0987061 0 0 0 0 0 0.00829235 0 
trait 2 0.2 0 0 0 0.333354 0.43582 0 0 
trait 3 0.3 0 0 0 0 0 0 0 
node 1 3 1 3
node 2 1 1 1
node 3 1 1 1
node 4 3 0 2
node 8 1 0 0
gene 3 1 4 -5.5669 0 1 -5.5669 1
gene 1 2 4 3.06923 0 2 3.06923 0
gene 2 3 4 4.53083 0 3 4.53083 1
gene 1 2 8 -0.947066 0 10 -0.947066 1
gene 1 8 4 8 0 11 8 1
genomeend 31

/* Organism #32 Fitness: 5.90759 Error: 1.56945 */
genomestart 32
trait 1 0.0987061 0 0 0 0 0 0.00829235 0 
trait 2 0.2 0 0 0 0 0 0 0 
trait 3 0.3 0 0 0 0 0 0 0 
node 1 3 1 3
node 2 1 1 1
node 3 1 1 1
node 4 3 0 2
node 8 1 0 0
gene 3 1 4 -4.11712 0 1 -4.11712 1
gene 1 2 4 3.3648 0 2 3.3648 0
gene 2 3 4 3.86823 0 3 3.86823 1
gene 1 2 8 -0.525529 0 10 -0.525529 1
gene 1 8 4 4.36959 0 11 4.36959 1
genomeend 32

/* Species #4 : (Size 10) (AF 6.47101) (Age 16)  */


/* Organism #33 Fitness: 8.98075 Error: 1.00321 */
genomestart 33
trait 1 0.0875 0 0 0 0 0 0.0801073 0 
trait 2 0.248396 0 0.0930004 0 0 0 0 0 
trait 3 0.347815 0.138689 0.174419 0 0.224314 0 0 0.133218 
node 1 2 1 3
node 2 2 1 1
node 3 3 1 1
node 4 1 0 2
node 10 1 0 0
gene 2 1 4 -1.9378 0 1 -1.9378 1
gene 3 2 4 5.44593 0 2 5.44593 1
gene 3 3 4 -0.986953 0 3 -0.986953 1
gene 3 3 10 2.57033 0 14 2.57033 1
gene 3 10 4 -4.68263 0 15 -4.68263 1
genomeend 33

/* Organism #34 Fitness: 4.00007 Error: 1.99998 */
genomestart 34
trait 1 0.0875 0 0 0 0 0 0.0801073 0 
trait 2 0.248396 0 0.0930004 0 0 0 0 0 
trait 3 0.347815 0.138689 0.174419 0 0.224314 0 0 0.133218 
node 1 2 1 3
node 2 2 1 1
node 3 3 1 1
node 4 1 0 2
node 10 1 0 0
gene 2 1 4 -3.00397 0 1 -3.00397 1
gene 3 2 4 4.33483 0 2 4.33483 1
gene 3 3 4 -0.986953 0 3 -0.986953 1
gene 3 3 10 0.764718 0 14 0.764718 1
gene 3 10 4 -7.11145 0 15 -7.11145 1
genomeend 34

/* Organism #35 Fitness: 8.70773 Error: 1.04911 */
genomestart 35
trait 1 0.0875 0 0 0 0 0 0.0801073 0 
trait 2 0.243556 0 0.0837004 0 0 0 0 0 
trait 3 0.360591 0.161804 0.203489 0 0.226294 0 0 0.119896 
node 1 2 1 3
node 2 2 1 1
node 3 3 1 1
node 4 1 0 2
node 10 1 0 0
gene 2 1 4 -2.2373 0 1 -2.2373 1
gene 3 2 4 5.44593 0 2 5.44593 1
gene 3 3 4 -0.986953 0 3 -0.986953 0
gene 3 3 10 2.21014 0 14 2.21014 1
gene 3 10 4 -5.21327 0 15 -5.21327 1
genomeend 35

/* Organism #36 Fitness: 4.00002 Error: 1.99999 */
genomestart 36
trait 1 0.0875 0 0 0 0 0 0.0801073 0 
trait 2 0.243556 0 0.0837004 0 0 0 0 0 
trait 3 0.360591 0.161804 0.203489 0 0.226294 0 0 0.119896 
node 1 2 1 3
node 2 2 1 1
node 3 3 1 1
node 4 1 0 2
node 10 1 0 0
gene 2 1 4 -2.08755 0 1 -2.08755 1
gene 3 2 4 4.24764 0 2 4.24764 1
gene 3 3 4 -1.66307 0 3 -1.66307 0
gene 3 3 10 0.0193258 0 14 0.0193258 1
gene 3 10 4 -0.562609 0 15 -0.562609 1
genomeend 36

/* Organism #37 Fitness: 8.99805 Error: 1.00032 */
genomestart 37
trait 1 0.0875 0 0 0 0 0 0.0801073 0 
trait 2 0.243556 0 0.0837004 0 0 0 0 0 
trait 3 0.360591 0.161804 0.203489 0 0.226294 0 0 0.119896 
node 1 2 1 3
node 2 2 1 1
node 3 3 1 1
node 4 1 0 2
node 10 1 0 0
gene 2 1 4 -2.1785 0 1 -2.1785 1
gene 3 2 4 7.06289 0 2 7.06289 1
gene 3 3 4 -0.927881 0 3 -0.927881 1
gene 3 3 10 0.506096 0 14 0.506096 1
gene 3 10 4 -6.42383 0 15 -6.42383 1
genomeend 37

/* Organism #38 Fitness: 4.05027 Error: 1.98747 */
genomestart 38
trait 1 0.0875 0 0 0 0 0 0.0801073 0 
trait 2 0.238717 0 0.0744003 0 0 0 0 0 
trait 3 0.373366 0.184919 0.232559 0 0.228275 0 0 0.106574 
node 1 2 1 3
node 2 2 1 1
node 3 3 1 1
node 4 1 0 2
node 10 1 0 0
node 54 1 0 0
gene 2 1 4 -2.2373 0 1 -2.2373 1
gene 3 2 4 6.19062 0 2 6.19062 1
gene 3 3 4 -2.33919 0 3 -2.33919 0
gene 3 3 10 2.21014 0 14 2.21014 1
gene 3 10 4 -5.21327 0 15 -5.21327 0
gene 3 10 54 1 0 156 0 1
gene 3 54 4 -5.21327 0 157 0 1
genomeend 38

/* Organism #39 Fitness: 8.98075 Error: 1.00321 */
genomestart 39
trait 1 0.0875 0 0 0 0 0 0.0801073 0 
trait 2 0.248396 0 0.0930004 0 0 0 0 0 
trait 3 0.347815 0.138689 0.174419 0 0.224314 0 0 0.133218 
node 1 2 1 3
node 2 2 1 1
node 3 3 1 1
node 4 1 0 2
node 10 1 0 0
gene 2 1 4 -1.9378 0 1 -1.9378 1
gene 3 2 4 5.44593 0 2 5.44593 1
gene 3 3 4 -0.986953 0 3 -0.986953 1
gene 3 3 10 2.57033 0 14 2.57033 1
gene 3 10 4 -4.68263 0 15 -4.68263 1
genomeend 39

/* Organism #40 Fitness: 3.99245 Error: 2.00189 */
genomestart 40
trait 1 0.0875 0 0 0 0 0 0.0801073 0 
trait 2 0.238717 0 0.0744003 0 0 0 0 0 
trait 3 0.373366 0.184919 0.232559 0 0.228275 0 0 0.106574 
node 1 2 1 3
node 2 2 1 1
node 3 3 1 1
node 4 1 0 2
node 10 1 0 0
gene 2 1 4 1.33335 0 1 1.33335 1
gene 3 2 4 8 0 2 8 1
gene 3 3 4 -0.0454955 0 3 -0.0454955 0
gene 3 3 10 4.27418 0 14 4.27418 1
gene 3 10 4 -5.21327 0 15 -5.21327 1
genomeend 40

/* Organism #41 Fitness: 4 Error: 2 */
genomestart 41
trait 1 0.0875 0 0 0 0 0 0.0801073 0 
trait 2 0.243556 0 0.0837004 0 0 0 0 0 
trait 3 0.360591 0.161804 0.203489 0 0.226294 0 0 0.119896 
node 1 2 1 3
node 2 2 1 1
node 3 3 1 1
node 4 1 0 2
node 10 1 0 0
gene 2 1 4 -2.08755 0 1 -2.08755 1
gene 3 2 4 0.71749 0 2 0.71749 1
gene 3 3 4 -0.22927 0 3 -0.22927 0
gene 3 3 10 2.7531 0 14 2.7531 1
gene 3 10 4 -4.94795 0 15 -4.94795 1
genomeend 41

/* Organism #42 Fitness: 8.99996 Error: 1.00001 */
genomestart 42
trait 1 0.0875 0 0 0 0 0 0.0801073 0 
trait 2 0.248396 0 0.0930004 0 0 0 0 0 
trait 3 0.347815 0.138689 0.174419 0 0.224314 0 0 0.133218 
node 1 2 1 3
node 2 2 1 1
node 3 3 1 1
node 4 1 0 2
node 10 1 0 0
gene 2 1 4 -0.13271 0 1 -0.13271 1
gene 3 2 4 5.2738 0 2 5.2738 1
gene 3 3 4 -2.75535 0 3 -2.75535 1
gene 3 3 10 2.21593 0 14 2.21593 1
gene 3 10 4 -5.05442 0 15 -5.05442 1
genomeend 42

/* Species #5 : (Size 10) (AF 5.71533) (Age 15)  */


/* Organism #43 Fitness: 8.99627 Error: 1.00062 */
genomestart 43
trait 1 0.1 0 0 0 0 0 0 0 
trait 2 0.2 0 0 0 0 0 0 0 
trait 3 0 0 0 0 0 0 0 0.475936 
node 1 3 1 3
node 2 1 1 1
node 3 3 1 1
node 4 1 0 2
node 14 1 0 0
gene 2 1 4 -3.10338 0 1 -3.10338 1
gene 1 2 4 -5.98276 0 2 -5.98276 1
gene 3 3 4 5.8337 0 3 5.8337 1
gene 3 3 14 -0.177694 0 25 -0.177694 1
gene 3 14 4 1.52489 0 26 1.52489 1
gene 2 2 14 1.55751 0 52 1.55751 1
gene 1 1 14 1.68084 0 113 1.68084 1
genomeend 43

/* Organism #44 Fitness: 4.00056 Error: 1.99986 */
genomestart 44
trait 1 0.1 0 0 0 0 0 0 0 
trait 2 0.2 0 0 0 0 0 0 0 
trait 3 0 0 0 0 0 0 0 0.475936 
node 1 3 1 3
node 2 1 1 1
node 3 3 1 1
node 4 3 0 2
node 14 1 0 0
gene 2 1 4 -3.78784 0 1 -3.78784 1
gene 1 2 4 -5.56046 0 2 -5.56046 1
gene 3 3 4 1.20998 0 3 1.20998 1
gene 3 3 14 4.09257 0 25 4.09257 1
gene 3 14 4 0.774747 0 26 0.774747 1
gene 2 2 14 1.65174 0 52 1.65174 1
gene 1 1 14 -1.67272 0 113 -1.67272 1
genomeend 44

/* Organism #45 Fitness: 3.49088 Error: 2.13161 */
genomestart 45
trait 1 0.1 0 0 0 0 0 0 0 
trait 2 0.2 0 0 0 0 0 0 0 
trait 3 0 0 0 0 0 0 0 0.475936 
node 1 3 1 3
node 2 1 1 1
node 3 3 1 1
node 4 1 0 2
node 14 1 0 0
gene 2 1 4 -2.57099 0 1 -2.57099 1
gene 1 2 4 -6.37111 0 2 -6.37111 1
gene 3 3 4 -0.130543 0 3 -0.130543 1
gene 3 3 14 1.37944 0 25 1.37944 1
gene 3 14 4 2.45365 0 26 2.45365 1
gene 2 2 14 0.681249 0 52 0.681249 1
gene 1 1 14 2.86557 0 113 2.86557 1
genomeend 45

/* Organism #46 Fitness: 8.99365 Error: 1.00106 */
genomestart 46
trait 1 0.1 0 0 0 0 0 0 0 
trait 2 0.2 0 0 0 0 0 0 0 
trait 3 0 0 0 0 0 0 0 0.475936 
node 1 3 1 3
node 2 1 1 1
node 3 3 1 1
node 4 3 0 2
node 14 1 0 0
gene 2 1 4 -3.61769 0 1 -3.61769 1
gene 1 2 4 -3.16712 0 2 -3.16712 1
gene 3 3 4 3.41168 0 3 3.41168 1
gene 3 3 14 3.76061 0 25 3.76061 1
gene 3 14 4 1.65307 0 26 1.65307 1
gene 2 2 14 3.24614 0 52 3.24614 1
gene 3 1 14 0.651448 0 113 0.651448 1
genomeend 46

/* Organism #47 Fitness: 1.00235 Error: 2.99882 */
genomestart 47
trait 1 0.1 0 0 0 0 0 0 0 
trait 2 0.2 0 0 0 0 0 0 0 
trait 3 0 0 0 0 0 0 0 0.475936 
node 1 3 1 3
node 2 1 1 1
node 3 3 1 1
node 4 1 0 2
node 14 1 0 0
gene 2 1 4 -2.66052 0 1 -2.66052 1
gene 1 2 4 -5.13152 0 2 -5.13152 1
gene 3 3 4 6.8642 0 3 6.8642 1
gene 3 3 14 -0.341636 0 25 -0.341636 1
gene 3 14 4 4.03031 0 26 4.03031 1
gene 2 2 14 0.548513 0 52 0.548513 1
gene 1 1 14 2.78042 0 113 2.78042 1
genomeend 47

/* Organism #48 Fitness: 4.13309 Error: 1.967 */
genomestart 48
trait 1 0.1 0 0 0 0 0 0 0 
trait 2 0.2 0 0 0 0 0 0 0 
trait 3 0 0 0 0 0 0 0 0.475936 
node 1 3 1 3
node 2 1 1 1
node 3 3 1 1
node 4 1 0 2
node 14 1 0 0
gene 2 1 4 -2.30479 0 1 -2.30479 1
gene 1 2 4 -4.73066 0 2 -4.73066 1
gene 3 3 4 4.07225 0 3 4.07225 1
gene 3 3 14 -1.15848 0 25 -1.15848 1
gene 3 14 4 3.03495 0 26 3.03495 1
gene 2 2 14 -0.807825 0 52 -0.807825 1
gene 1 1 14 0.855388 0 113 0.855388 1
genomeend 48

/* Organism #49 Fitness: 7.76178 Error: 1.214 */
genomestart 49
trait 1 0.1 0 0 0 0 0 0 0 
trait 2 0.2 0 0 0 0 0 0 0 
trait 3 0 0 0 0 0 0 0 0.475936 
node 1 3 1 3
node 2 1 1 1
node 3 3 1 1
node 4 1 0 2
node 14 1 0 0
gene 2 1 4 -2.52803 0 1 -2.52803 1
gene 1 2 4 -6.49456 0 2 -6.49456 1
gene 3 3 4 4.92143 0 3 4.92143 1
gene 3 3 14 -0.0545518 0 25 -0.0545518 1
gene 3 14 4 2.54963 0 26 2.54963 1
gene 2 2 14 3.49437 0 52 3.49437 1
gene 1 1 14 0.419813 0 113 0.419813 1
genomeend 49

/* Organism #50 Fitness: 8.97998 Error: 1.00334 */
genomestart 50
trait 1 0.1 0 0 0 0 0 0 0 
trait 2 0.2 0 0 0 0 0 0 0 
trait 3 0 0 0 0 0 0 0 0.475936 
node 1 3 1 3
node 2 1 1 1
node 3 3 1 1
node 4 3 0 2
node 14 1 0 0
gene 2 1 4 -3.10338 0 1 -3.10338 1
gene 1 2 4 -3.16712 0 2 -3.16712 1
gene 3 3 4 3.41168 0 3 3.41168 1
gene 3 3 14 -0.177694 0 25 -0.177694 1
gene 3 14 4 1.65307 0 26 1.65307 1
gene 2 2 14 1.55751 0 52 1.55751 1
gene 3 1 14 0.651448 0 113 0.651448 1
genomeend 50

/* Organism #51 Fitness: 5.81522 Error: 1.58852 */
genomestart 51
trait 1 0.1 0 0 0 0 0 0 0 
trait 2 0.2 0 0 0 0 0 0 0 
trait 3 0 0 0 0 0 0 0 0.475936 
node 1 3 1 3
node 2 1 1 1
node 3 3 1 1
node 4 1 0 2
node 14 1 0 0
gene 2 1 4 -0.992492 0 1 -0.992492 1
gene 1 2 4 -6.76991 0 2 -6.76991 1
gene 3 3 4 7.86181 0 3 7.86181 1
gene 3 3 14 1.42415 0 25 1.42415 1
gene 3 14 4 -0.0320864 0 26 -0.0320864 1
gene 2 2 14 3.95146 0 52 3.95146 1
gene 1 1 14 1.43883 0 113 1.43883 1
genomeend 51

/* Organism #52 Fitness: 3.97951 Error: 2.00513 */
genomestart 52
trait 1 0.1 0 0 0 0 0 0 0 
trait 2 0.2 0.279275 0 0.882656 0 0 0.829646 0.14243 
trait 3 0 0 0 0 0 0 0 0.475936 
node 1 3 1 3
node 2 1 1 1
node 3 3 1 1
node 4 3 0 2
node 14 1 0 0
gene 2 1 4 -1.13452 0 1 -1.13452 1
gene 1 2 4 -4.13662 0 2 -4.13662 1
gene 3 3 4 4.62269 0 3 4.62269 1
gene 3 3 14 1.79146 0 25 1.79146 1
gene 3 14 4 3.72154 0 26 3.72154 1
gene 2 2 14 -0.0598926 0 52 -0.0598926 1
gene 3 1 14 -0.81901 0 113 -0.81901 1
genomeend 52

/* Species #6 : (Size 8) (AF 5.20657) (Age 13)  */


/* Organism #53 Fitness: 8.69952 Error: 1.0505 */
genomestart 53
trait 1 0.1 0 0 0 0 0 0 0 
trait 2 0.2 0 0 0 0 0 0 0 
trait 3 0.3 0 0 0 0 0 0 0 
node 1 3 1 3
node 2 1 1 1
node 3 3 1 1
node 4 3 0 2
node 8 1 0 0
node 22 1 0 0
gene 3 1 4 2.24937 0 1 2.24937 1
gene 1 2 4 3.14316 0 2 3.14316 0
gene 1 3 4 -2.56639 0 3 -2.56639 1
gene 1 2 8 -1.34285 0 10 -1.34285 1
gene 1 8 4 4.20369 0 11 4.20369 0
gene 2 1 8 0.227546 0 29 0.227546 1
gene 1 8 22 1.68334 0 48 1.68334 1
gene 1 22 4 -3.07033 0 49 -3.07033 1
genomeend 53

/* Organism #54 Fitness: 4.00205 Error: 1.99949 */
genomestart 54
trait 1 0.1 0 0 0 0 0 0 0 
trait 2 0.2 0 0 0 0 0 0 0 
trait 3 0.3 0 0 0 0 0 0 0 
node 1 3 1 3
node 2 1 1 1
node 3 3 1 1
node 4 3 0 2
node 8 1 0 0
node 22 1 0 0
gene 3 1 4 3.63231 0 1 3.63231 1
gene 1 2 4 4.25602 0 2 4.25602 0
gene 1 3 4 -2.3965 0 3 -2.3965 1
gene 1 2 8 0.555021 0 10 0.555021 1
gene 1 8 4 5.31983 0 11 5.31983 0
gene 2 1 8 0.222663 0 29 0.222663 1
gene 1 8 22 1.47353 0 48 1.47353 1
gene 1 22 4 -0.636116 0 49 -0.636116 1
genomeend 54

/* Organism #55 Fitness: 4.75305 Error: 1.81985 */
genomestart 55
trait 1 0.1 0 0 0 0 0 0 0 
trait 2 0.2 0 0 0 0 0 0 0 
trait 3 0.3 0 0 0 0 0 0 0 
node 1 3 1 3
node 2 1 1 1
node 3 3 1 1
node 4 3 0 2
node 8 1 0 0
node 22 1 0 0
node 55 1 0 0
gene 3 1 4 2.24937 0 1 2.24937 1
gene 1 2 4 3.14316 0 2 3.14316 0
gene 1 3 4 -3.2064 0 3 -3.2064 1
gene 1 2 8 -1.34285 0 10 -1.34285 1
gene 1 8 4 4.20369 0 11 4.20369 0
gene 2 1 8 0.227546 0 29 0.227546 1
gene 1 8 22 1.68334 0 48 1.68334 1
gene 1 22 4 -2.25903 0 49 -2.25903 0
gene 1 22 55 1 0 158 0 1
gene 1 55 4 -2.25903 0 159 0 1
genomeend 55

/* Organism #56 Fitness: 4.00001 Error: 2 */
genomestart 56
trait 1 0.1 0 0 0 0 0 0 0 
trait 2 0.2 0 0 0 0 0 0 0 
trait 3 0.3 0 0 0 0 0 0 0 
node 1 3 1 3
node 2 1 1 1
node 3 3 1 1
node 4 3 0 2
node 8 1 0 0
node 22 1 0 0
gene 3 1 4 0.600146 0 1 0.600146 1
gene 1 2 4 1.05119 0 2 1.05119 0
gene 1 3 4 -1.6134 0 3 -1.6134 1
gene 1 2 8 -2.74708 0 10 -2.74708 1
gene 1 8 4 1.82218 0 11 1.82218 1
gene 2 1 8 -1.96475 0 29 -1.96475 1
gene 1 8 22 2.89912 0 48 2.89912 1
gene 1 22 4 -4.40637 0 49 -4.40637 1
genomeend 56

/* Organism #57 Fitness: 4.0032 Error: 1.9992 */
genomestart 57
trait 1 0.1 0 0 0 0 0 0 0 
trait 2 0.2 0 0 0 0 0 0 0 
trait 3 0.3 0 0 0 0 0 0 0 
node 1 3 1 3
node 2 1 1 1
node 3 3 1 1
node 4 3 0 2
node 8 1 0 0
node 22 1 0 0
gene 3 1 4 2.86752 0 1 2.86752 1
gene 1 2 4 1.97278 0 2 1.97278 0
gene 1 3 4 -3.2064 0 3 -3.2064 1
gene 1 2 8 -0.567145 0 10 -0.567145 1
gene 1 8 4 2.22884 0 11 2.22884 0
gene 2 1 8 1.07875 0 29 1.07875 1
gene 1 8 22 -1.13475 0 48 -1.13475 1
gene 1 22 4 -0.679418 0 49 -0.679418 1
genomeend 57

/* Organism #58 Fitness: 8.24111 Error: 1.12927 */
genomestart 58
trait 1 0.1 0 0 0 0 0 0 0 
trait 2 0.2 0.154485 0 0 0.240883 0 0.979705 0.433393 
trait 3 0.3 0 0 0 0 0 0 0 
node 1 3 1 3
node 2 1 1 1
node 3 3 1 1
node 4 2 0 2
node 8 1 0 0
node 22 1 0 0
gene 3 1 4 2.24937 0 1 2.24937 1
gene 1 2 4 3.14316 0 2 3.14316 0
gene 1 3 4 -2.8864 0 3 -2.8864 1
gene 1 2 8 -1.34285 0 10 -1.34285 1
gene 1 8 4 4.20369 0 11 4.20369 0
gene 2 1 8 0.227546 0 29 0.227546 1
gene 1 8 22 1.68334 0 48 1.68334 1
gene 1 22 4 -2.66468 0 49 -2.66468 1
genomeend 58

/* Organism #59 Fitness: 4.00007 Error: 1.99998 */
genomestart 59
trait 1 0.1 0 0 0 0 0 0 0 
trait 2 0.2 0 0 0 0 0 0 0 
trait 3 0.3 0 0 0 0 0 0 0 
node 1 3 1 3
node 2 1 1 1
node 3 3 1 1
node 4 3 0 2
node 8 1 0 0
node 22 1 0 0
gene 3 1 4 1.5125 0 1 1.5125 1
gene 1 2 4 1.20623 0 2 1.20623 0
gene 1 3 4 -2.90076 0 3 -2.90076 1
gene 1 2 8 -1.37321 0 10 -1.37321 1
gene 1 8 4 5.83086 0 11 5.83086 0
gene 2 1 8 1.67779 0 29 1.67779 1
gene 1 8 22 0.964553 0 48 0.964553 1
gene 1 22 4 -3.45769 0 49 -3.45769 1
genomeend 59

/* Organism #60 Fitness: 3.95357 Error: 2.01164 */
genomestart 60
trait 1 0.1 0 0 0 0 0 0 0 
trait 2 0.2 0 0 0 0 0 0 0 
trait 3 0.3 0 0 0 0 0 0 0 
node 1 3 1 3
node 2 1 1 1
node 3 3 1 1
node 4 3 0 2
node 8 1 0 0
node 22 1 0 0
gene 3 1 4 3.53275 0 1 3.53275 1
gene 1 2 4 0.962539 0 2 0.962539 0
gene 1 3 4 -3.84096 0 3 -3.84096 1
gene 1 2 8 -0.669153 0 10 -0.669153 1
gene 1 8 4 2.95098 0 11 2.95098 0
gene 2 1 8 -0.533586 0 29 -0.533586 1
gene 1 8 22 2.63422 0 48 2.63422 1
gene 1 22 4 -0.96131 0 49 -0.96131 1
genomeend 60

/* Species #7 : (Size 10) (AF 4.30277) (Age 12)  */


/* Organism #61 Fitness: 8.82196 Error: 1.02982 */
genomestart 61
trait 1 0 0 0.920469 0 0 0 0.636739 0 
trait 2 0.2 0 0 0 0 0 0 0 
trait 3 0.3 0 0 0 0 0 0 0 
node 1 3 1 3
node 2 1 1 1
node 3 1 1 1
node 4 3 0 2
node 8 1 0 0
node 23 1 0 0
gene 2 1 4 -3.45022 0 1 -3.45022 1
gene 1 2 4 4.33754 0 2 4.33754 0
gene 2 3 4 -2.2983 0 3 -2.2983 1
gene 1 2 8 4.39953 0 10 4.39953 1
gene 1 8 4 -1.2359 0 11 -1.2359 0
gene 2 1 8 -2.93513 0 29 -2.93513 1
gene 1 8 23 3.33116 0 54 3.33116 1
gene 1 23 4 4.16023 0 55 4.16023 1
gene 2 1 23 -0.268685 0 120 -0.268685 1
genomeend 61

/* Organism #62 Fitness: 4 Error: 2 */
genomestart 62
trait 1 0 0 0.920469 0 0 0 0.636739 0 
trait 2 0.2 0 0 0 0 0 0 0 
trait 3 0.3 0 0 0 0 0 0 0 
node 1 3 1 3
node 2 1 1 1
node 3 1 1 1
node 4 3 0 2
node 8 1 0 0
node 23 1 0 0
gene 2 1 4 -3.45022 0 1 -3.45022 1
gene 1 2 4 4.33754 0 2 4.33754 0
gene 2 3 4 -2.2983 0 3 -2.2983 1
gene 1 2 8 4.39953 0 10 4.39953 0
gene 1 8 4 -1.2359 0 11 -1.2359 0
gene 2 1 8 -2.93513 0 29 -2.93513 1
gene 1 8 23 3.33116 0 54 3.33116 1
gene 1 23 4 4.16023 0 55 4.16023 1
gene 2 1 23 -0.268685 0 120 -0.268685 1
genomeend 62

/* Organism #63 Fitness: 4 Error: 2 */
genomestart 63
trait 1 0 0 0.920469 0 0 0 0.636739 0 
trait 2 0.2 0 0 0 0 0 0 0 
trait 3 0.3 0 0 0 0 0 0 0 
node 1 3 1 3
node 2 1 1 1
node 3 1 1 1
node 4 3 0 2
node 8 1 0 0
node 23 1 0 0
node 50 1 0 0
gene 2 1 4 -1.573 0 1 -1.573 1
gene 1 2 4 5.17825 0 2 5.17825 0
gene 2 3 4 -4.64876 0 3 -4.64876 1
gene 1 2 8 6.07759 0 10 6.07759 0
gene 1 8 4 -0.229934 0 11 -0.229934 0
gene 2 1 8 -1.28376 0 29 -1.28376 1
gene 1 8 23 3.22877 0 54 3.22877 1
gene 1 23 4 -1.99904 0 55 -1.99904 1
gene 2 1 23 -0.670614 0 120 -0.670614 1
gene 3 2 50 0.0825373 0 146 0.0825373 1
gene 1 50 8 4.39953 0 147 4.39953 1
genomeend 63

/* Organism #64 Fitness: 2.86994 Error: 2.30591 */
genomestart 64
trait 1 0 0 0.920469 0 0 0 0.636739 0 
trait 2 0.2 0 0 0 0 0 0 0 
trait 3 0.3 0 0 0 0 0 0 0 
node 1 3 1 3
node 2 1 1 1
node 3 1 1 1
node 4 3 0 2
node 8 1 0 0
node 23 1 0 0
node 50 1 0 0
gene 2 1 4 0.498901 0 1 0.498901 1
gene 1 2 4 6.75186 0 2 6.75186 1
gene 2 3 4 -0.410962 0 3 -0.410962 1
gene 1 2 8 5.2925 0 10 5.2925 1
gene 1 8 4 0.330309 0 11 0.330309 0
gene 2 1 8 -2.92697 0 29 -2.92697 1
gene 1 8 23 3.56409 0 54 3.56409 1
gene 1 23 4 5.97967 0 55 5.97967 1
gene 2 1 23 -1.42557 0 120 -1.42557 1
gene 1 2 50 1.86497 0 146 1.86497 1
gene 1 50 8 4.54442 0 147 4.54442 1
genomeend 64

/* Organism #65 Fitness: 3.33579 Error: 2.17359 */
genomestart 65
trait 1 0 0 0.920469 0 0 0 0.636739 0 
trait 2 0.2 0 0 0 0 0 0 0 
trait 3 0.3 0 0 0 0 0 0 0 
node 1 3 1 3
node 2 1 1 1
node 3 1 1 1
node 4 3 0 2
node 8 1 0 0
node 23 1 0 0
node 50 1 0 0
gene 2 1 4 -3.25642 0 1 -3.25642 1
gene 1 2 4 3.67544 0 2 3.67544 1
gene 2 3 4 -2.4277 0 3 -2.4277 1
gene 1 2 8 2.60726 0 10 2.60726 0
gene 1 8 4 -3.38898 0 11 -3.38898 0
gene 2 1 8 -1.70135 0 29 -1.70135 1
gene 1 8 23 4.38557 0 54 4.38557 1
gene 1 23 4 2.95269 0 55 2.95269 1
gene 2 1 23 1.33644 0 120 1.33644 1
gene 1 2 50 0.954314 0 146 0.954314 1
gene 1 50 8 5.5542 0 147 5.5542 1
genomeend 65

/* Organism #66 Fitness: 4 Error: 2 */
genomestart 66
trait 1 0 0 0.920469 0 0 0 0.636739 0 
trait 2 0.2 0 0 0 0 0 0 0 
trait 3 0.3 0 0 0 0 0 0 0 
node 1 3 1 3
node 2 1 1 1
node 3 1 1 1
node 4 3 0 2
node 8 1 0 0
node 23 1 0 0
node 50 1 0 0
gene 2 1 4 -4.84438 0 1 -4.84438 1
gene 1 2 4 3.27809 0 2 3.27809 0
gene 2 3 4 -2.67887 0 3 -2.67887 1
gene 1 2 8 3.7839 0 10 3.7839 0
gene 1 8 4 -0.567087 0 11 -0.567087 0
gene 2 1 8 -1.89544 0 29 -1.89544 1
gene 1 8 23 5.79575 0 54 5.79575 1
gene 1 23 4 2.01859 0 55 2.01859 1
gene 2 1 23 1.41029 0 120 1.41029 1
gene 1 2 50 -1.08411 0 146 -1.08411 1
gene 1 50 8 -0.294809 0 147 -0.294809 1
genomeend 66

/* Organism #67 Fitness: 4 Error: 2 */
genomestart 67
trait 1 0 0 0.920469 0 0 0.393994 0 0 
trait 2 0.2 0 0 0 0 0 0 0 
trait 3 0.3 0 0 0 0 0 0 0 
node 1 3 1 3
node 2 1 1 1
node 3 1 1 1
node 4 3 0 2
node 8 1 0 0
node 23 2 0 0
gene 2 1 4 -3.7805 0 1 -3.7805 1
gene 1 2 4 4.0158 0 2 4.0158 0
gene 2 3 4 -1.54144 0 3 -1.54144 1
gene 1 2 8 3.01628 0 10 3.01628 1
gene 1 8 4 -1.55103 0 11 -1.55103 0
gene 2 1 8 -5.24241 0 29 -5.24241 1
gene 1 8 23 3.33116 0 54 3.33116 1
gene 1 23 4 4.32518 0 55 4.32518 1
gene 2 1 23 -0.268685 0 120 -0.268685 1
genomeend 67

/* Organism #68 Fitness: 4 Error: 2 */
genomestart 68
trait 1 0 0 0.920469 0 0 0 0.636739 0 
trait 2 0.2 0 0 0 0 0 0 0 
trait 3 0.3 0 0 0 0 0 0 0 
node 1 3 1 3
node 2 1 1 1
node 3 1 1 1
node 4 3 0 2
node 8 1 0 0
node 23 1 0 0
node 50 1 0 0
gene 2 1 4 -1.4511 0 1 -1.4511 1
gene 1 2 4 4.82752 0 2 4.82752 0
gene 2 3 4 -0.0838801 0 3 -0.0838801 1
gene 1 2 8 5.85626 0 10 5.85626 0
gene 1 8 4 0.954031 0 11 0.954031 0
gene 2 1 8 -3.08071 0 29 -3.08071 1
gene 1 8 23 3.33116 0 54 3.33116 1
gene 1 23 4 -1.17733 0 55 -1.17733 1
gene 2 1 23 0.955336 0 120 0.955336 1
gene 1 2 50 -0.357692 0 146 -0.357692 1
gene 1 50 8 2.21296 0 147 2.21296 1
genomeend 68

/* Organism #69 Fitness: 4 Error: 2 */
genomestart 69
trait 1 0 0 0.920469 0 0 0 0.636739 0 
trait 2 0.2 0 0 0 0 0 0 0 
trait 3 0.3 0 0 0 0 0 0 0 
node 1 3 1 3
node 2 1 1 1
node 3 1 1 1
node 4 3 0 2
node 8 1 0 0
node 23 1 0 0
gene 2 1 4 -4.74321 0 1 -4.74321 1
gene 1 2 4 4.35181 0 2 4.35181 0
gene 2 3 4 -2.89715 0 3 -2.89715 1
gene 1 2 8 5.56961 0 10 5.56961 0
gene 1 8 4 -0.236648 0 11 -0.236648 0
gene 2 1 8 -4.72275 0 29 -4.72275 1
gene 1 8 23 3.06954 0 54 3.06954 1
gene 1 23 4 6.32094 0 55 6.32094 1
gene 2 1 23 -1.71183 0 120 -1.71183 1
genomeend 69

/* Organism #70 Fitness: 4 Error: 2 */
genomestart 70
trait 1 0 0 0.920469 0 0 0 0.636739 0 
trait 2 0.2 0 0 0 0 0 0 0 
trait 3 0.3 0 0 0 0 0 0 0 
node 1 3 1 3
node 2 1 1 1
node 3 1 1 1
node 4 3 0 2
node 8 1 0 0
node 23 1 0 0
gene 2 1 4 -4.95478 0 1 -4.95478 1
gene 1 2 4 1.90285 0 2 1.90285 0
gene 2 3 4 -0.00521867 0 3 -0.00521867 1
gene 1 2 8 6.48311 0 10 6.48311 0
gene 1 8 4 -2.67851 0 11 -2.67851 0
gene 2 1 8 -2.66573 0 29 -2.66573 1
gene 1 8 23 1.32991 0 54 1.32991 1
gene 1 23 4 4.33502 0 55 4.33502 1
gene 2 1 23 -1.43388 0 120 -1.43388 1
genomeend 70

/* Species #8 : (Size 11) (AF 7.42975) (Age 12)  */


/* Organism #71 Fitness: 8.99885 Error: 1.00019 */
genomestart 71
trait 1 0.1 0 0 0 0 0 0 0 
trait 2 0.2 0 0 0 0 0 0 0 
trait 3 0.3 0 0.835841 0 0 0 0 0.762505 
node 1 3 1 3
node 2 1 1 1
node 3 3 1 1
node 4 3 0 2
node 14 1 0 0
node 24 1 0 0
gene 2 1 4 -1.04779 0 1 -1.04779 1
gene 2 2 4 4.02 0 2 4.02 1
gene 3 3 4 3.97442 0 3 3.97442 1
gene 3 3 14 0.144124 0 25 0.144124 1
gene 3 14 4 6.83194 0 26 6.83194 1
gene 1 2 24 -1.76824 0 58 -1.76824 1
gene 1 24 4 -2.35405 0 59 -2.35405 1
gene 2 1 14 -1.48923 0 71 -1.48923 1
genomeend 71

/* Organism #72 Fitness: 8.99949 Error: 1.00008 */
genomestart 72
trait 1 0.1 0 0 0 0 0 0 0 
trait 2 0.15 0.24485 0 0 0.0201727 0.189421 0 0 
trait 3 0.3 0 0.41792 0 0 0 0 0.381252 
node 1 3 1 3
node 2 1 1 1
node 3 3 1 1
node 4 3 0 2
node 14 1 0 0
node 24 1 0 0
gene 2 1 4 -1.04779 0 1 -1.04779 1
gene 2 2 4 5.15979 0 2 5.15979 1
gene 3 3 4 3.97442 0 3 3.97442 0
gene 3 3 14 2.27065 0 25 2.27065 1
gene 1 14 4 6.30229 0 26 6.30229 1
gene 1 2 24 0.61182 0 58 0.61182 1
gene 1 24 4 -2.24891 0 59 -2.24891 1
gene 2 1 14 -1.89978 0 71 -1.89978 1
genomeend 72

/* Organism #73 Fitness: 8.34787 Error: 1.11073 */
genomestart 73
trait 1 0.1 0 0 0 0 0 0 0 
trait 2 0.1 0.4897 0 0 0.0403455 0.378842 0 0 
trait 3 0.3 0 0.623524 0.0702536 0 0 0 0 
node 1 3 1 3
node 2 1 1 1
node 3 3 1 1
node 4 3 0 2
node 14 1 0 0
node 24 1 0 0
gene 2 1 4 -4.39235 0 1 -4.39235 1
gene 2 2 4 4.34556 0 2 4.34556 1
gene 3 3 4 0.73011 0 3 0.73011 0
gene 3 3 14 4.37828 0 25 4.37828 1
gene 3 14 4 6.66741 0 26 6.66741 1
gene 1 2 24 3.12815 0 58 3.12815 1
gene 1 24 4 0.366081 0 59 0.366081 1
gene 1 1 14 -0.842151 0 71 -0.842151 1
genomeend 73

/* Organism #74 Fitness: 8.99416 Error: 1.00097 */
genomestart 74
trait 1 0.1 0 0 0 0 0 0 0 
trait 2 0.05 0.73455 0 0 0.0605182 0.568262 0 0 
trait 3 0.3 0 0 0 0 0 0 0 
node 1 3 1 3
node 2 1 1 1
node 3 3 1 1
node 4 3 0 2
node 14 1 0 0
node 24 2 0 0
gene 2 1 4 -2.43157 0 1 -2.43157 1
gene 2 2 4 3.18479 0 2 3.18479 1
gene 3 3 4 3.14138 0 3 3.14138 0
gene 3 3 14 3.75296 0 25 3.75296 1
gene 3 14 4 5.34806 0 26 5.34806 1
gene 1 2 24 1.58803 0 58 1.58803 1
gene 1 24 4 0.660051 0 59 0.660051 1
gene 1 1 14 -1.61557 0 71 -1.61557 1
genomeend 74

/* Organism #75 Fitness: 3.99999 Error: 2 */
genomestart 75
trait 1 0.1 0 0 0 0 0 0 0 
trait 2 0.1 0.4897 0 0 0.0403455 0.378842 0 0 
trait 3 0.3 0 0 0 0 0 0 0 
node 1 3 1 3
node 2 1 1 1
node 3 3 1 1
node 4 3 0 2
node 14 1 0 0
node 24 1 0 0
gene 2 1 4 -1.91722 0 1 -1.91722 1
gene 2 2 4 4.63732 0 2 4.63732 1
gene 3 3 4 3.43527 0 3 3.43527 0
gene 3 3 14 2.35092 0 25 2.35092 1
gene 3 14 4 1.12079 0 26 1.12079 1
gene 1 2 24 0.345012 0 58 0.345012 1
gene 1 24 4 -1.23019 0 59 -1.23019 1
gene 1 1 14 -3.55837 0 71 -3.55837 1
genomeend 75

/* Organism #76 Fitness: 8.37738 Error: 1.10563 */
genomestart 76
trait 1 0.1 0 0 0 0 0 0 0 
trait 2 0 0.9794 0 0 0.0806909 0.757683 0 0 
trait 3 0.3 0 0 0 0 0 0 0 
node 1 3 1 3
node 2 1 1 1
node 3 3 1 1
node 4 3 0 2
node 14 1 0 0
node 24 2 0 0
gene 2 1 4 -0.458399 0 1 -0.458399 1
gene 2 2 4 1.31248 0 2 1.31248 1
gene 3 3 4 2.13255 0 3 2.13255 0
gene 3 3 14 6.87577 0 25 6.87577 1
gene 3 14 4 4.03179 0 26 4.03179 1
gene 1 2 24 0.344554 0 58 0.344554 1
gene 1 24 4 -0.0266541 0 59 -0.0266541 1
gene 1 1 14 -4.59207 0 71 -4.59207 1
genomeend 76

/* Organism #77 Fitness: 8.99885 Error: 1.00019 */
genomestart 77
trait 1 0.1 0 0 0 0 0 0 0 
trait 2 0.2 0 0 0 0 0 0 0 
trait 3 0.3 0 0.835841 0 0 0 0 0.762505 
node 1 3 1 3
node 2 1 1 1
node 3 3 1 1
node 4 3 0 2
node 14 1 0 0
node 24 3 0 0
gene 2 1 4 -1.04779 0 1 -1.04779 1
gene 2 2 4 4.02 0 2 4.02 1
gene 3 3 4 3.97442 0 3 3.97442 1
gene 3 3 14 0.144124 0 25 0.144124 1
gene 3 14 4 6.83194 0 26 6.83194 1
gene 1 2 24 -1.76824 0 58 -1.76824 1
gene 1 24 4 -2.35405 0 59 -2.35405 1
gene 2 1 14 -1.48923 0 71 -1.48923 1
genomeend 77

/* Organism #78 Fitness: 8.99885 Error: 1.00019 */
genomestart 78
trait 1 0.1 0 0 0 0 0 0 0 
trait 2 0.2 0 0 0 0 0 0 0 
trait 3 0.3 0 0.835841 0 0 0 0 0.762505 
node 1 3 1 3
node 2 1 1 1
node 3 3 1 1
node 4 3 0 2
node 14 1 0 0
node 24 1 0 0
gene 2 1 4 -1.04779 0 1 -1.04779 1
gene 2 2 4 4.02 0 2 4.02 1
gene 3 3 4 3.97442 0 3 3.97442 1
gene 3 3 14 0.144124 0 25 0.144124 1
gene 3 14 4 6.83194 0 26 6.83194 1
gene 1 2 24 -1.76824 0 58 -1.76824 1
gene 1 24 4 -2.35405 0 59 -2.35405 1
gene 2 1 14 -1.48923 0 71 -1.48923 1
genomeend 78

/* Organism #79 Fitness: 3.9862 Error: 2.00345 */
genomestart 79
trait 1 0.1 0 0 0 0 0 0 0 
trait 2 0 0.9794 0 0 0.0806909 0.757683 0 0 
trait 3 0.3 0 0 0 0 0 0 0 
node 1 3 1 3
node 2 1 1 1
node 3 3 1 1
node 4 3 0 2
node 14 1 0 0
node 24 2 0 0
gene 2 1 4 -3.86137 0 1 -3.86137 1
gene 2 2 4 3.84521 0 2 3.84521 1
gene 3 3 4 4.54931 0 3 4.54931 0
gene 3 3 14 2.47284 0 25 2.47284 1
gene 3 14 4 5.34806 0 26 5.34806 1
gene 1 2 24 -0.115436 0 58 -0.115436 1
gene 1 24 4 0.539388 0 59 0.539388 1
gene 1 1 14 -3.96767 0 71 -3.96767 1
genomeend 79

/* Organism #80 Fitness: 7.12541 Error: 1.33065 */
genomestart 80
trait 1 0.1 0 0 0 0 0 0 0 
trait 2 0 0.9794 0 0 0.0806909 0.757683 0 0 
trait 3 0.3 0 0 0 0 0 0 0 
node 1 3 1 3
node 2 1 1 1
node 3 3 1 1
node 4 3 0 2
node 14 1 0 0
node 24 2 0 0
gene 2 1 4 -0.995907 0 1 -0.995907 1
gene 2 2 4 1.69739 0 2 1.69739 1
gene 3 3 4 1.15566 0 3 1.15566 0
gene 3 3 14 4.62663 0 25 4.62663 1
gene 3 14 4 5.91662 0 26 5.91662 1
gene 1 2 24 0.00549333 0 58 0.00549333 1
gene 1 24 4 -1.10075 0 59 -1.10075 1
gene 1 1 14 -3.94333 0 71 -3.94333 1
genomeend 80

/* Organism #81 Fitness: 4.90024 Error: 1.78635 */
genomestart 81
trait 1 0.1 0 0 0 0 0 0 0 
trait 2 0 0.9794 0 0 0.0806909 0.757683 0 0 
trait 3 0.3 0 0 0 0 0 0 0 
node 1 3 1 3
node 2 1 1 1
node 3 3 1 1
node 4 3 0 2
node 14 1 0 0
node 24 2 0 0
gene 2 1 4 -3.84069 0 1 -3.84069 1
gene 2 2 4 4.17267 0 2 4.17267 1
gene 3 3 4 5.54696 0 3 5.54696 0
gene 3 3 14 6.15233 0 25 6.15233 1
gene 3 14 4 6.54926 0 26 6.54926 1
gene 1 2 24 0.707724 0 58 0.707724 1
gene 1 24 4 -0.629089 0 59 -0.629089 1
gene 1 1 14 -1.25129 0 71 -1.25129 1
genomeend 81

/* Species #9 : (Size 12) (AF 6.1244) (Age 10)  */


/* Organism #82 Fitness: 8.99999 Error: 1 */
genomestart 82
trait 1 0.226855 0.132939 0.0482574 0 0 0 0.0801073 0 
trait 2 0.277433 0 0.148801 0 0 0 0 0 
trait 3 0.27116 0 0 0 0.212432 0 0 0.213149 
node 1 2 1 3
node 2 2 1 1
node 3 3 1 1
node 4 1 0 2
node 10 1 0 0
gene 3 1 4 2.77128 0 1 2.77128 1
gene 3 2 4 4.79142 0 2 4.79142 1
gene 3 3 4 0.549944 0 3 0.549944 0
gene 3 3 10 -5.59879 0 14 -5.59879 1
gene 3 10 4 -7.64079 0 15 -7.64079 1
gene 3 2 10 -4.77111 0 66 -4.77111 1
gene 3 1 10 1.8203 0 76 1.8203 1
genomeend 82

/* Organism #83 Fitness: 4.07178 Error: 1.98214 */
genomestart 83
trait 1 0.244275 0.149556 0.0542896 0 0 0 0.0801073 0 
trait 2 0.277433 0 0.148801 0 0 0 0 0 
trait 3 0.27116 0 0 0 0.212432 0 0 0.213149 
node 1 2 1 3
node 2 2 1 1
node 3 3 1 1
node 4 1 0 2
node 10 1 0 0
gene 3 1 4 0.668592 0 1 0.668592 1
gene 3 2 4 7.14692 0 2 7.14692 1
gene 3 3 4 1.14463 0 3 1.14463 0
gene 3 3 10 -3.50833 0 14 -3.50833 1
gene 3 10 4 -0.33639 0 15 -0.33639 1
gene 3 2 10 -3.99367 0 66 -3.99367 1
gene 3 1 10 -0.217215 0 76 -0.217215 1
genomeend 83

/* Organism #84 Fitness: 8.97084 Error: 1.00486 */
genomestart 84
trait 1 0.226855 0.132939 0.0482574 0 0 0 0.0801073 0 
trait 2 0.277433 0 0.148801 0 0 0 0 0 
trait 3 0.27116 0 0 0 0.212432 0 0 0.213149 
node 1 2 1 3
node 2 2 1 1
node 3 3 1 1
node 4 1 0 2
node 10 1 0 0
gene 3 1 4 1.08055 0 1 1.08055 1
gene 3 2 4 4.79142 0 2 4.79142 1
gene 3 3 4 0.106357 0 3 0.106357 0
gene 3 3 10 -5.49869 0 14 -5.49869 1
gene 3 10 4 -8 0 15 -8 1
gene 3 2 10 -6.86949 0 66 -6.86949 1
gene 3 1 10 1.3291 0 76 1.3291 1
genomeend 84

/* Organism #85 Fitness: 9 Error: 1 */
genomestart 85
trait 1 0.244275 0.149556 0.0542896 0 0 0 0.0801073 0 
trait 2 0.277433 0 0.148801 0 0 0 0 0 
trait 3 0.27116 0 0 0 0.212432 0 0 0.213149 
node 1 2 1 3
node 2 2 1 1
node 3 3 1 1
node 4 1 0 2
node 10 1 0 0
gene 3 1 4 2.91933 0 1 2.91933 1
gene 3 2 4 4.79516 0 2 4.79516 1
gene 3 3 4 1.85091 0 3 1.85091 0
gene 3 3 10 -5.99666 0 14 -5.99666 1
gene 3 10 4 -6.17725 0 15 -6.17725 1
gene 3 2 10 -4.62861 0 66 -4.62861 1
gene 3 1 10 2.02588 0 76 2.02588 1
genomeend 85

/* Organism #86 Fitness: 8.99536 Error: 1.00077 */
genomestart 86
trait 1 0.244275 0.149556 0.0542896 0 0 0 0.0801073 0 
trait 2 0.277433 0 0.148801 0 0 0 0 0 
trait 3 0.27116 0 0 0 0.212432 0 0 0.213149 
node 1 2 1 3
node 2 2 1 1
node 3 3 1 1
node 4 1 0 2
node 10 1 0 0
gene 3 1 4 1.47966 0 1 1.47966 1
gene 3 2 4 5.45894 0 2 5.45894 1
gene 3 3 4 1.11843 0 3 1.11843 0
gene 3 3 10 -5.13178 0 14 -5.13178 1
gene 3 10 4 -3.37615 0 15 -3.37615 1
gene 3 2 10 -6.22238 0 66 -6.22238 1
gene 3 1 10 1.76544 0 76 1.76544 1
genomeend 86

/* Organism #87 Fitness: 4.13705 Error: 1.96603 */
genomestart 87
trait 1 0.244275 0.149556 0.0542896 0 0 0 0.0801073 0 
trait 2 0.277433 0 0.148801 0 0 0 0 0 
trait 3 0.27116 0 0 0 0.212432 0 0 0.213149 
node 1 2 1 3
node 2 2 1 1
node 3 3 1 1
node 4 1 0 2
node 10 2 0 0
gene 3 1 4 5.00722 0 1 5.00722 1
gene 3 2 4 3.44929 0 2 3.44929 1
gene 3 3 4 3.99693 0 3 3.99693 0
gene 3 3 10 -7.37825 0 14 -7.37825 1
gene 3 10 4 -4.93298 0 15 -4.93298 1
gene 3 2 10 -6.32813 0 66 -6.32813 1
gene 3 1 10 0.399358 0 76 0.399358 1
genomeend 87

/* Organism #88 Fitness: 4 Error: 2 */
genomestart 88
trait 1 0.261694 0.166173 0.0603217 0 0 0 0.0801073 0 
trait 2 0.277433 0 0.148801 0 0 0 0 0 
trait 3 0.27116 0 0 0 0.212432 0 0 0.213149 
node 1 2 1 3
node 2 2 1 1
node 3 3 1 1
node 4 1 0 2
node 10 1 0 0
gene 3 1 4 4.82693 0 1 4.82693 1
gene 3 2 4 4.65706 0 2 4.65706 1
gene 3 3 4 2.48428 0 3 2.48428 1
gene 3 3 10 -5.81605 0 14 -5.81605 1
gene 3 10 4 -2.06267 0 15 -2.06267 1
gene 3 2 10 -4.48611 0 66 -4.48611 1
gene 3 1 10 -1.56598 0 76 -1.56598 1
genomeend 88

/* Organism #89 Fitness: 4.00431 Error: 1.99892 */
genomestart 89
trait 1 0.226855 0.132939 0.0482574 0 0 0 0.0801073 0 
trait 2 0 0 0.148801 0 0 0 0 0.141118 
trait 3 0.27116 0 0 0 0.212432 0 0 0.213149 
node 1 2 1 3
node 2 2 1 1
node 3 3 1 1
node 4 1 0 2
node 10 1 0 0
gene 3 1 4 1.54093 0 1 1.54093 1
gene 3 2 4 4.14252 0 2 4.14252 1
gene 3 3 4 -0.700476 0 3 -0.700476 0
gene 3 3 10 -7.40182 0 14 -7.40182 1
gene 3 10 4 -6.07389 0 15 -6.07389 1
gene 3 2 10 -5.76907 0 66 -5.76907 1
gene 3 1 10 -0.65521 0 76 -0.65521 1
genomeend 89

/* Organism #90 Fitness: 4 Error: 2 */
genomestart 90
trait 1 0.261694 0.166173 0.0603217 0 0 0 0.0801073 0 
trait 2 0.277433 0 0.148801 0 0 0 0 0 
trait 3 0.27116 0 0 0 0.212432 0 0 0.213149 
node 1 2 1 3
node 2 2 1 1
node 3 3 1 1
node 4 1 0 2
node 10 1 0 0
gene 3 1 4 3.35098 0 1 3.35098 1
gene 3 2 4 4.7989 0 2 4.7989 1
gene 3 3 4 2.05557 0 3 2.05557 1
gene 3 3 10 -6.39453 0 14 -6.39453 1
gene 3 10 4 -3.23859 0 15 -3.23859 1
gene 3 2 10 -3.8086 0 66 -3.8086 1
gene 3 1 10 -0.955153 0 76 -0.955153 1
genomeend 90

/* Organism #91 Fitness: 4.20462 Error: 1.94948 */
genomestart 91
trait 1 0.261694 0.166173 0.0603217 0 0 0 0.0801073 0 
trait 2 0.277433 0 0.148801 0 0 0 0 0 
trait 3 0.27116 0 0 0 0.212432 0 0 0.213149 
node 1 3 1 3
node 2 2 1 1
node 3 3 1 1
node 4 1 0 2
node 10 1 0 0
gene 3 1 4 1.42949 0 1 1.42949 1
gene 3 2 4 7.14486 0 2 7.14486 1
gene 3 3 4 4.28152 0 3 4.28152 1
gene 3 3 10 0.243156 0 14 0.243156 1
gene 3 10 4 -6.30669 0 15 -6.30669 1
gene 3 2 10 0.296945 0 66 0.296945 1
gene 3 1 10 3.22118 0 76 3.22118 1
genomeend 91

/* Organism #92 Fitness: 9 Error: 1 */
genomestart 92
trait 1 0.226855 0.132939 0.0482574 0 0 0 0.0801073 0 
trait 2 0.277433 0 0.148801 0 0 0 0 0 
trait 3 0.27116 0 0 0 0.212432 0 0 0.213149 
node 1 2 1 3
node 2 2 1 1
node 3 3 1 1
node 4 1 0 2
node 10 1 0 0
gene 3 1 4 2.84567 0 1 2.84567 1
gene 3 2 4 5.63152 0 2 5.63152 1
gene 3 3 4 0.515 0 3 0.515 0
gene 3 3 10 -4.60442 0 14 -4.60442 1
gene 3 10 4 -7.56968 0 15 -7.56968 1
gene 3 2 10 -6.02397 0 66 -6.02397 1
gene 3 1 10 0.430944 0 76 0.430944 1
genomeend 92

/* Organism #93 Fitness: 4.10884 Error: 1.97297 */
genomestart 93
trait 1 0.261694 0.166173 0.0603217 0 0 0 0.0801073 0 
trait 2 0.277433 0 0.148801 0 0 0 0 0 
trait 3 0.27116 0 0 0 0.212432 0 0 0.213149 
node 1 2 1 3
node 2 2 1 1
node 3 3 1 1
node 4 1 0 2
node 10 1 0 0
gene 3 1 4 5.08184 0 1 5.08184 1
gene 3 2 4 1.28933 0 2 1.28933 1
gene 3 3 4 0.949049 0 3 0.949049 1
gene 3 3 10 -4.44081 0 14 -4.44081 1
gene 3 10 4 -4.35419 0 15 -4.35419 1
gene 3 2 10 -2.2208 0 66 -2.2208 1
gene 3 1 10 2.23146 0 76 2.23146 1
genomeend 93

/* Species #11 : (Size 7) (AF 4.80428) (Age 8)  */


/* Organism #94 Fitness: 6.4222 Error: 1.46579 */
genomestart 94
trait 1 0.0875 0 0 0 0 0 0.0801073 0 
trait 2 0.229037 0 0.0558002 0 0 0 0 0 
trait 3 0.333078 0.0924596 0.116279 0 0.140691 0 0 0.0799308 
node 1 2 1 3
node 2 2 1 1
node 3 2 1 1
node 4 3 0 2
node 10 1 0 0
node 33 1 0 0
gene 2 1 4 1.85514 0 1 1.85514 1
gene 3 2 4 0.506584 0 2 0.506584 1
gene 3 3 4 -8 0 3 -8 0
gene 3 3 10 0.919279 0 14 0.919279 0
gene 3 10 4 -2.11616 0 15 -2.11616 1
gene 3 3 33 -1.32864 0 90 -1.32864 1
gene 3 33 10 4.72944 0 91 4.72944 1
genomeend 94

/* Organism #95 Fitness: 5.52591 Error: 1.64928 */
genomestart 95
trait 1 0.0875 0 0 0 0 0 0.0801073 0 
trait 2 0.229037 0 0.0558002 0 0 0 0 0 
trait 3 0.333078 0.0924596 0.116279 0 0.140691 0 0 0.0799308 
node 1 2 1 3
node 2 2 1 1
node 3 2 1 1
node 4 3 0 2
node 10 1 0 0
node 33 1 0 0
gene 2 1 4 1.07091 0 1 1.07091 1
gene 3 2 4 -0.544549 0 2 -0.544549 1
gene 3 3 4 -8 0 3 -8 0
gene 3 3 10 1.36531 0 14 1.36531 0
gene 3 10 4 -2.27485 0 15 -2.27485 1
gene 3 3 33 -1.32864 0 90 -1.32864 1
gene 3 33 10 4.72944 0 91 4.72944 1
genomeend 95

/* Organism #96 Fitness: 4.05099 Error: 1.98729 */
genomestart 96
trait 1 0.0875 0 0 0 0 0 0.0801073 0 
trait 2 0.229037 0 0.0558002 0 0 0 0 0 
trait 3 0.333078 0.0924596 0.116279 0 0.140691 0 0 0.0799308 
node 1 2 1 3
node 2 2 1 1
node 3 2 1 1
node 4 1 0 2
node 10 1 0 0
node 33 1 0 0
gene 2 1 4 2.69037 0 1 2.69037 1
gene 3 2 4 1.90029 0 2 1.90029 1
gene 3 3 4 -8 0 3 -8 0
gene 3 3 10 2.40905 0 14 2.40905 0
gene 3 10 4 -1.81082 0 15 -1.81082 1
gene 3 3 33 -0.879406 0 90 -0.879406 1
gene 3 33 10 3.96796 0 91 3.96796 1
gene 1 2 33 0.188849 0 149 0.188849 1
genomeend 96

/* Organism #97 Fitness: 4.0002 Error: 1.99995 */
genomestart 97
trait 1 0.0875 0 0 0 0 0 0.0801073 0 
trait 2 0.229037 0 0.0558002 0 0 0 0 0 
trait 3 0.333078 0.0924596 0.116279 0 0.140691 0 0 0.0799308 
node 1 2 1 3
node 2 2 1 1
node 3 2 1 1
node 4 3 0 2
node 10 1 0 0
node 33 1 0 0
gene 2 1 4 -0.946913 0 1 -0.946913 1
gene 3 2 4 -1.02397 0 2 -1.02397 1
gene 3 3 4 -8 0 3 -8 0
gene 3 3 10 -1.26661 0 14 -1.26661 0
gene 3 10 4 -2.11616 0 15 -2.11616 1
gene 3 3 33 -2.79902 0 90 -2.79902 1
gene 3 33 10 7.15284 0 91 7.15284 1
genomeend 97

/* Organism #98 Fitness: 5.63056 Error: 1.62712 */
genomestart 98
trait 1 0.0875 0 0 0 0 0 0.0801073 0 
trait 2 0.229037 0 0.0558002 0 0 0 0 0 
trait 3 0.333078 0.0924596 0.116279 0 0.140691 0 0 0.0799308 
node 1 2 1 3
node 2 2 1 1
node 3 2 1 1
node 4 1 0 2
node 10 1 0 0
node 33 1 0 0
gene 2 1 4 1.07091 0 1 1.07091 1
gene 3 2 4 -0.544549 0 2 -0.544549 1
gene 3 3 4 -8 0 3 -8 0
gene 3 3 10 1.36531 0 14 1.36531 0
gene 3 10 4 -2.27485 0 15 -2.27485 1
gene 3 3 33 -1.74873 0 90 -1.74873 1
gene 3 33 10 4.79761 0 91 4.79761 1
gene 1 2 33 0.424299 0 149 0.424299 1
gene 3 33 4 -0.954924 0 162 -0.954924 1
genomeend 98

/* Organism #99 Fitness: 4.00012 Error: 1.99997 */
genomestart 99
trait 1 0.0875 0 0 0 0 0 0.0801073 0 
trait 2 0.229037 0 0.0558002 0 0 0 0 0 
trait 3 0.333078 0.0924596 0.116279 0 0.140691 0 0 0.0799308 
node 1 2 1 3
node 2 2 1 1
node 3 2 1 1
node 4 3 0 2
node 10 1 0 0
node 33 1 0 0
gene 2 1 4 4.24413 0 1 4.24413 1
gene 3 2 4 1.41512 0 2 1.41512 1
gene 3 3 4 -7.34927 0 3 -7.34927 0
gene 3 3 10 0.237495 0 14 0.237495 0
gene 3 10 4 -2.13523 0 15 -2.13523 1
gene 3 3 33 -2.33346 0 90 -2.33346 1
gene 3 33 10 6.00656 0 91 6.00656 1
genomeend 99

/* Organism #100 Fitness: 4 Error: 2 */
genomestart 100
trait 1 0.0875 0 0 0 0 0 0.0801073 0 
trait 2 0.229037 0 0.0558002 0 0 0 0 0 
trait 3 0.333078 0.0924596 0.116279 0 0.140691 0 0 0.0799308 
node 1 2 1 3
node 2 2 1 1
node 3 2 1 1
node 4 1 0 2
node 10 1 0 0
node 33 1 0 0
gene 2 1 4 3.49614 0 1 3.49614 1
gene 3 2 4 -0.40508 0 2 -0.40508 1
gene 3 3 4 -7.65583 0 3 -7.65583 0
gene 3 3 10 2.27301 0 14 2.27301 0
gene 3 10 4 -0.417192 0 15 -0.417192 1
gene 3 3 33 -1.67747 0 90 -1.67747 1
gene 3 33 10 4.36241 0 91 4.36241 1
gene 1 2 33 -0.628819 0 149 -0.628819 1
genomeend 100

/* Species #12 : (Size 13) (AF 5.98063) (Age 8)  */


/* Organism #101 Fitness: 9 Error: 1 */
genomestart 101
trait 1 0.1 0 0 0 0 0 0 0 
trait 2 0.2 0 0 0 0 0 0 0 
trait 3 0.3 0 0 0 0 0 0 0 
node 1 3 1 3
node 2 1 1 1
node 3 3 1 1
node 4 3 0 2
node 14 1 0 0
gene 2 1 4 -3.22919 0 1 -3.22919 1
gene 1 2 4 -5.12498 0 2 -5.12498 1
gene 3 3 4 4.43078 0 3 4.43078 0
gene 3 3 14 3.7451 0 25 3.7451 1
gene 3 14 4 6.97706 0 26 6.97706 1
gene 1 1 14 -1.99288 0 60 -1.99288 1
gene 2 2 14 4.74345 0 92 4.74345 1
genomeend 101

/* Organism #102 Fitness: 8.95133 Error: 1.00812 */
genomestart 102
trait 1 0.1 0 0 0 0 0 0 0 
trait 2 0.2 0.955657 0 0 0.754753 0 0.45204 0 
trait 3 0.3 0 0 0 0 0 0 0 
node 1 3 1 3
node 2 1 1 1
node 3 3 1 1
node 4 3 0 2
node 14 1 0 0
gene 2 1 4 -6.00127 0 1 -6.00127 1
gene 1 2 4 -2.73889 0 2 -2.73889 1
gene 3 3 4 4.34274 0 3 4.34274 0
gene 3 3 14 5.49839 0 25 5.49839 1
gene 3 14 4 6.97706 0 26 6.97706 1
gene 1 1 14 -0.0637303 0 60 -0.0637303 1
gene 2 2 14 6.19324 0 92 6.19324 1
genomeend 102

/* Organism #103 Fitness: 9 Error: 1 */
genomestart 103
trait 1 0.1 0 0 0 0 0 0 0 
trait 2 0.2 0 0 0 0 0 0 0 
trait 3 0.3 0 0 0 0 0 0 0 
node 1 3 1 3
node 2 1 1 1
node 3 3 1 1
node 4 3 0 2
node 14 1 0 0
gene 2 1 4 -3.22919 0 1 -3.22919 1
gene 1 2 4 -5.12498 0 2 -5.12498 1
gene 3 3 4 4.43078 0 3 4.43078 0
gene 3 3 14 3.7451 0 25 3.7451 1
gene 3 14 4 6.97706 0 26 6.97706 1
gene 1 1 14 -1.99288 0 60 -1.99288 1
gene 2 2 14 4.74345 0 92 4.74345 1
genomeend 103

/* Organism #104 Fitness: 8.99668 Error: 1.00055 */
genomestart 104
trait 1 0.1 0 0 0 0 0 0 0 
trait 2 0.2 0 0 0 0 0 0 0 
trait 3 0.0822504 0 0 0 0 0 0.28312 0 
node 1 3 1 3
node 2 1 1 1
node 3 3 1 1
node 4 3 0 2
node 14 1 0 0
gene 2 1 4 -4.56568 0 1 -4.56568 1
gene 1 2 4 -5.46625 0 2 -5.46625 1
gene 3 3 4 5.8193 0 3 5.8193 0
gene 3 3 14 5.67753 0 25 5.67753 1
gene 3 14 4 6.08882 0 26 6.08882 1
gene 1 1 14 -3.29434 0 60 -3.29434 1
gene 2 2 14 6.45356 0 92 6.45356 1
genomeend 104

/* Organism #105 Fitness: 3.99995 Error: 2.00001 */
genomestart 105
trait 1 0.1 0 0 0 0 0 0 0 
trait 2 0.2 0 0 0 0 0 0 0 
trait 3 0.3 0 0 0 0 0 0 0 
node 1 3 1 3
node 2 1 1 1
node 3 3 1 1
node 4 3 0 2
node 14 1 0 0
gene 2 1 4 -3.76426 0 1 -3.76426 1
gene 1 2 4 -6.18001 0 2 -6.18001 1
gene 3 3 4 6.88516 0 3 6.88516 0
gene 3 3 14 2.03111 0 25 2.03111 1
gene 3 14 4 7.64831 0 26 7.64831 1
gene 1 1 14 -3.77448 0 60 -3.77448 1
gene 2 2 14 3.25102 0 92 3.25102 1
genomeend 105

/* Organism #106 Fitness: 3.99905 Error: 2.00024 */
genomestart 106
trait 1 0.1 0 0 0 0 0 0 0 
trait 2 0.2 0 0 0 0 0 0 0 
trait 3 0.3 0 0 0 0 0 0 0 
node 1 3 1 3
node 2 1 1 1
node 3 3 1 1
node 4 3 0 2
node 14 1 0 0
gene 2 1 4 -0.201117 0 1 -0.201117 1
gene 1 2 4 -3.64239 0 2 -3.64239 1
gene 3 3 4 2.51613 0 3 2.51613 0
gene 3 3 14 -0.967132 0 25 -0.967132 1
gene 3 14 4 7.29666 0 26 7.29666 1
gene 1 1 14 0.75457 0 60 0.75457 1
gene 2 2 14 6.34453 0 92 6.34453 1
genomeend 106

/* Organism #107 Fitness: 4.01745 Error: 1.99564 */
genomestart 107
trait 1 0.1 0 0 0 0 0 0 0 
trait 2 0.2 0 0 0 0 0 0 0 
trait 3 0.3 0 0 0 0 0 0 0 
node 1 3 1 3
node 2 1 1 1
node 3 3 1 1
node 4 3 0 2
node 14 1 0 0
gene 2 1 4 1.09584 0 1 1.09584 1
gene 1 2 4 -5.12498 0 2 -5.12498 1
gene 3 3 4 2.39448 0 3 2.39448 0
gene 3 3 14 4.94372 0 25 4.94372 1
gene 3 14 4 4.66108 0 26 4.66108 1
gene 1 1 14 -1.99288 0 60 -1.99288 1
gene 2 2 14 3.76946 0 92 3.76946 1
genomeend 107

/* Organism #108 Fitness: 4 Error: 2 */
genomestart 108
trait 1 0.1 0 0 0 0 0 0 0 
trait 2 0.2 0 0 0 0 0 0 0 
trait 3 0.3 0 0 0 0 0 0 0 
node 1 3 1 3
node 2 1 1 1
node 3 3 1 1
node 4 3 0 2
node 14 1 0 0
gene 2 1 4 -4.12812 0 1 -4.12812 1
gene 1 2 4 -6.45147 0 2 -6.45147 1
gene 3 3 4 4.96593 0 3 4.96593 0
gene 3 3 14 3.48882 0 25 3.48882 1
gene 3 14 4 5.11581 0 26 5.11581 1
gene 1 1 14 -3.94065 0 60 -3.94065 1
gene 2 2 14 6.32485 0 92 6.32485 1
genomeend 108

/* Organism #109 Fitness: 4 Error: 2 */
genomestart 109
trait 1 0.1 0 0 0 0 0 0 0 
trait 2 0.2 0 0 0 0 0 0 0 
trait 3 0.3 0 0 0 0 0 0 0 
node 1 3 1 3
node 2 1 1 1
node 3 3 1 1
node 4 3 0 2
node 14 1 0 0
gene 2 1 4 -1.42135 0 1 -1.42135 1
gene 1 2 4 -3.91073 0 2 -3.91073 1
gene 3 3 4 -1.42476 0 3 -1.42476 0
gene 3 3 14 5.25493 0 25 5.25493 1
gene 3 14 4 5.96278 0 26 5.96278 1
gene 1 1 14 0.420675 0 60 0.420675 1
gene 2 2 14 6.65979 0 92 6.65979 1
genomeend 109

/* Organism #110 Fitness: 8.99544 Error: 1.00076 */
genomestart 110
trait 1 0.1 0 0 0 0 0 0 0 
trait 2 0.2 0 0 0 0 0 0 0 
trait 3 0.3 0 0 0 0 0 0 0 
node 1 3 1 3
node 2 1 1 1
node 3 2 1 1
node 4 3 0 2
node 14 1 0 0
gene 2 1 4 -2.25024 0 1 -2.25024 1
gene 1 2 4 -5.87085 0 2 -5.87085 1
gene 3 3 4 6.33171 0 3 6.33171 0
gene 3 3 14 3.28526 0 25 3.28526 1
gene 3 14 4 7.78221 0 26 7.78221 1
gene 1 1 14 -0.442236 0 60 -0.442236 1
gene 2 2 14 4.26546 0 92 4.26546 1
genomeend 110

/* Organism #111 Fitness: 4.35993 Error: 1.91196 */
genomestart 111
trait 1 0.1 0 0 0 0 0 0 0 
trait 2 0.2 0 0 0 0 0 0 0 
trait 3 0.3 0 0 0 0 0 0 0 
node 1 3 1 3
node 2 1 1 1
node 3 3 1 1
node 4 3 0 2
node 14 1 0 0
gene 2 1 4 -2.81155 0 1 -2.81155 1
gene 1 2 4 -4.74037 0 2 -4.74037 1
gene 3 3 4 5.29003 0 3 5.29003 0
gene 3 3 14 4.63083 0 25 4.63083 1
gene 3 14 4 7.80609 0 26 7.80609 1
gene 1 1 14 -0.0647221 0 60 -0.0647221 1
gene 2 2 14 5.61972 0 92 5.61972 1
genomeend 111

/* Organism #112 Fitness: 4.42704 Error: 1.89595 */
genomestart 112
trait 1 0.1 0 0 0 0 0 0 0 
trait 2 0.2 0 0 0 0 0 0 0 
trait 3 0.3 0 0 0 0 0 0 0 
node 1 3 1 3
node 2 1 1 1
node 3 3 1 1
node 4 3 0 2
node 14 1 0 0
gene 2 1 4 -4.32427 0 1 -4.32427 1
gene 1 2 4 -0.92349 0 2 -0.92349 1
gene 3 3 4 3.50378 0 3 3.50378 0
gene 3 3 14 4.03419 0 25 4.03419 1
gene 3 14 4 3.88706 0 26 3.88706 1
gene 1 1 14 -0.599788 0 60 -0.599788 1
gene 2 2 14 3.50867 0 92 3.50867 1
genomeend 112

/* Organism #113 Fitness: 4.00125 Error: 1.99969 */
genomestart 113
trait 1 0.1 0 0 0 0 0 0 0 
trait 2 0.2 0 0 0 0 0 0 0 
trait 3 0.3 0 0 0 0 0 0 0 
node 1 3 1 3
node 2 1 1 1
node 3 3 1 1
node 4 3 0 2
node 14 1 0 0
gene 2 1 4 -3.22919 0 1 -3.22919 1
gene 1 2 4 -4.06713 0 2 -4.06713 1
gene 3 3 4 2.89776 0 3 2.89776 0
gene 3 3 14 2.08367 0 25 2.08367 1
gene 3 14 4 1.59154 0 26 1.59154 1
gene 1 1 14 -0.25264 0 60 -0.25264 1
gene 2 2 14 3.61473 0 92 3.61473 1
genomeend 113

/* Species #13 : (Size 7) (AF 5.54331) (Age 7)  */


/* Organism #114 Fitness: 8.93488 Error: 1.01087 */
genomestart 114
trait 1 0.1 0 0 0 0 0 0 0 
trait 2 0.2 0 0 0 0 0 0 0 
trait 3 0.3 0 0 0 0 0 0 0 
node 1 3 1 3
node 2 1 1 1
node 3 2 1 1
node 4 3 0 2
node 14 1 0 0
node 35 1 0 0
node 52 1 0 0
gene 2 1 4 -0.754677 0 1 -0.754677 1
gene 1 2 4 -3.69061 0 2 -3.69061 1
gene 3 3 4 1.82745 0 3 1.82745 1
gene 3 3 14 3.78085 0 25 3.78085 1
gene 3 14 4 1.788 0 26 1.788 1
gene 2 2 14 -0.92964 0 52 -0.92964 0
gene 2 1 14 -0.496353 0 77 -0.496353 1
gene 2 2 35 1 0 97 0 1
gene 2 35 14 -0.92964 0 98 0 1
gene 1 35 4 -0.293558 0 116 -0.293558 0
gene 1 35 52 1 0 152 0 1
gene 1 52 4 -0.293558 0 153 0 1
genomeend 114

/* Organism #115 Fitness: 6.7822 Error: 1.39573 */
genomestart 115
trait 1 0.1 0 0 0 0 0 0 0 
trait 2 0.2 0 0 0 0 0 0 0 
trait 3 0.3 0 0 0 0 0 0 0 
node 1 3 1 3
node 2 1 1 1
node 3 2 1 1
node 4 3 0 2
node 14 1 0 0
node 35 1 0 0
gene 2 1 4 -0.331309 0 1 -0.331309 1
gene 1 2 4 -2.44164 0 2 -2.44164 1
gene 3 3 4 2.06458 0 3 2.06458 1
gene 3 3 14 1.65044 0 25 1.65044 1
gene 3 14 4 -0.427183 0 26 -0.427183 1
gene 2 2 14 -0.801614 0 52 -0.801614 0
gene 2 1 14 -0.761788 0 77 -0.761788 1
gene 2 2 35 1.62105 0 97 1.62105 1
gene 2 35 14 -0.92964 0 98 -0.92964 1
gene 1 35 4 0.370907 0 116 0.370907 1
genomeend 115

/* Organism #116 Fitness: 4.20025 Error: 1.95055 */
genomestart 116
trait 1 0.1 0 0 0 0 0 0 0 
trait 2 0.2 0 0 0 0 0 0 0 
trait 3 0.3 0 0 0 0 0 0 0 
node 1 3 1 3
node 2 1 1 1
node 3 2 1 1
node 4 3 0 2
node 14 1 0 0
node 35 1 0 0
node 52 1 0 0
gene 2 1 4 -0.360225 0 1 -0.360225 1
gene 1 2 4 1.80891 0 2 1.80891 1
gene 3 3 4 0.520722 0 3 0.520722 1
gene 3 3 14 0.166402 0 25 0.166402 1
gene 3 14 4 4.10413 0 26 4.10413 1
gene 2 2 14 -0.0502029 0 52 -0.0502029 0
gene 2 1 14 -2.91052 0 77 -2.91052 1
gene 2 2 35 0.786828 0 97 0.786828 1
gene 2 35 14 1.27204 0 98 1.27204 1
gene 1 35 4 -2.14415 0 116 -2.14415 0
gene 1 35 52 3.39677 0 152 3.39677 1
gene 1 52 4 -0.670614 0 153 -0.670614 1
genomeend 116

/* Organism #117 Fitness: 3.98556 Error: 2.00361 */
genomestart 117
trait 1 0.1 0 0 0 0 0 0 0 
trait 2 0.2 0 0 0 0 0 0 0 
trait 3 0.3 0 0 0 0 0 0 0 
node 1 3 1 3
node 2 1 1 1
node 3 2 1 1
node 4 3 0 2
node 14 1 0 0
node 35 1 0 0
node 52 3 0 0
gene 2 1 4 -3.13901 0 1 -3.13901 1
gene 1 2 4 -0.594729 0 2 -0.594729 1
gene 3 3 4 2.50748 0 3 2.50748 1
gene 3 3 14 5.6511 0 25 5.6511 1
gene 3 14 4 3.07581 0 26 3.07581 1
gene 2 2 14 -3.27163 0 52 -3.27163 0
gene 2 1 14 -0.496353 0 77 -0.496353 1
gene 2 2 35 2.2364 0 97 2.2364 1
gene 2 35 14 -1.50064 0 98 -1.50064 1
gene 1 35 4 1.36558 0 116 1.36558 0
gene 1 35 52 2.22938 0 152 2.22938 1
gene 1 52 4 2.01086 0 153 2.01086 1
genomeend 117

/* Organism #118 Fitness: 1.92619 Error: 2.61213 */
genomestart 118
trait 1 0.1 0 0 0 0 0 0 0 
trait 2 0.2 0 0 0 0 0 0 0 
trait 3 0.3 0 0 0 0 0 0 0 
node 1 3 1 3
node 2 1 1 1
node 3 2 1 1
node 4 3 0 2
node 14 1 0 0
node 35 1 0 0
gene 2 1 4 0.966872 0 1 0.966872 1
gene 1 2 4 -1.95785 0 2 -1.95785 1
gene 3 3 4 3.23534 0 3 3.23534 1
gene 3 3 14 3.78085 0 25 3.78085 1
gene 3 14 4 0.885723 0 26 0.885723 1
gene 2 2 14 -2.48695 0 52 -2.48695 0
gene 2 1 14 2.22922 0 77 2.22922 1
gene 2 2 35 -1.98271 0 97 -1.98271 1
gene 2 35 14 -3.13292 0 98 -3.13292 1
gene 1 35 4 -1.93385 0 116 -1.93385 1
genomeend 118

/* Organism #119 Fitness: 8.97415 Error: 1.00431 */
genomestart 119
trait 1 0.1 0 0 0 0 0 0 0 
trait 2 0.2 0 0 0 0 0 0 0 
trait 3 0.3 0 0 0 0 0 0 0 
node 1 3 1 3
node 2 1 1 1
node 3 2 1 1
node 4 3 0 2
node 14 1 0 0
node 35 1 0 0
node 52 1 0 0
gene 2 1 4 -0.754677 0 1 -0.754677 1
gene 1 2 4 -3.69061 0 2 -3.69061 1
gene 3 3 4 1.82745 0 3 1.82745 1
gene 3 3 14 3.78085 0 25 3.78085 1
gene 3 14 4 1.788 0 26 1.788 1
gene 2 2 14 -0.92964 0 52 -0.92964 0
gene 2 1 14 -0.496353 0 77 -0.496353 1
gene 2 2 35 1 0 97 0 1
gene 2 35 14 -0.92964 0 98 0 1
gene 1 35 4 -0.293558 0 116 -0.293558 1
gene 1 35 52 1 0 152 0 1
gene 1 52 4 -0.293558 0 153 0 1
genomeend 119

/* Organism #120 Fitness: 3.99992 Error: 2.00002 */
genomestart 120
trait 1 0.1 0 0 0 0 0 0 0 
trait 2 0.2 0 0 0 0 0 0 0 
trait 3 0.3 0 0 0 0 0 0 0 
node 1 3 1 3
node 2 1 1 1
node 3 2 1 1
node 4 3 0 2
node 14 1 0 0
node 35 1 0 0
node 52 1 0 0
gene 2 1 4 -0.43057 0 1 -0.43057 1
gene 1 2 4 -1.74681 0 2 -1.74681 1
gene 3 3 4 -0.385372 0 3 -0.385372 1
gene 3 3 14 4.18926 0 25 4.18926 1
gene 3 14 4 -0.684072 0 26 -0.684072 1
gene 2 2 14 -0.92964 0 52 -0.92964 1
gene 2 1 14 -0.496353 0 77 -0.496353 1
gene 2 2 35 2.12706 0 97 2.12706 1
gene 2 35 14 0.318491 0 98 0.318491 1
gene 1 35 4 -0.856243 0 116 -0.856243 0
gene 1 35 52 1.01587 0 152 1.01587 1
gene 1 52 4 -1.7898 0 153 -1.7898 1
genomeend 120

/* Species #14 : (Size 10) (AF 5.22718) (Age 6)  */


/* Organism #121 Fitness: 8.99962 Error: 1.00006 */
genomestart 121
trait 1 0.0875 0 0.317881 0 0 0 0 0 
trait 2 0.2 0 0 0 0 0 0 0 
trait 3 0.3 0 0 0 0 0 0 0 
node 1 2 1 3
node 2 2 1 1
node 3 2 1 1
node 4 1 0 2
node 10 1 0 0
gene 2 1 4 2.64119 0 1 2.64119 1
gene 3 2 4 -4.64902 0 2 -4.64902 1
gene 3 3 4 -2.68821 0 3 -2.68821 0
gene 3 3 10 -6.5248 0 14 -6.5248 1
gene 3 10 4 4.49539 0 15 4.49539 1
gene 3 2 10 -0.1339 0 112 -0.1339 1
gene 1 1 10 0.795419 0 127 0.795419 1
genomeend 121

/* Organism #122 Fitness: 3.99999 Error: 2 */
genomestart 122
trait 1 0.0875 0 0.317881 0 0 0 0 0 
trait 2 0.2 0 0 0 0 0 0 0 
trait 3 0.3 0 0 0 0 0 0 0 
node 1 2 1 3
node 2 2 1 1
node 3 2 1 1
node 4 1 0 2
node 10 2 0 0
gene 2 1 4 2.57897 0 1 2.57897 1
gene 3 2 4 -5.96937 0 2 -5.96937 1
gene 3 3 4 -4.23305 0 3 -4.23305 0
gene 3 3 10 -3.02841 0 14 -3.02841 1
gene 3 10 4 1.83341 0 15 1.83341 1
gene 3 2 10 -1.82974 0 112 -1.82974 1
gene 1 1 10 -0.553461 0 127 -0.553461 1
genomeend 122

/* Organism #123 Fitness: 1.25974 Error: 2.87762 */
genomestart 123
trait 1 0.0875 0 0.317881 0 0 0 0 0 
trait 2 0.2 0 0 0 0 0 0 0 
trait 3 0.3 0 0 0 0 0 0 0 
node 1 2 1 3
node 2 2 1 1
node 3 2 1 1
node 4 1 0 2
node 10 1 0 0
gene 2 1 4 2.53163 0 1 2.53163 1
gene 3 2 4 -4.80947 0 2 -4.80947 1
gene 3 3 4 -3.08281 0 3 -3.08281 1
gene 3 3 10 -5.12278 0 14 -5.12278 1
gene 3 10 4 2.61499 0 15 2.61499 1
gene 3 2 10 1.82516 0 112 1.82516 1
gene 1 1 10 -1.69253 0 127 -1.69253 1
genomeend 123

/* Organism #124 Fitness: 4.00907 Error: 1.99773 */
genomestart 124
trait 1 0.0875 0 0.317881 0 0 0 0 0 
trait 2 0.2 0 0 0 0 0 0 0 
trait 3 0.3 0 0 0 0 0 0 0 
node 1 2 1 3
node 2 2 1 1
node 3 2 1 1
node 4 1 0 2
node 10 1 0 0
gene 2 1 4 0.807947 0 1 0.807947 1
gene 3 2 4 0.780587 0 2 0.780587 1
gene 3 3 4 -3.71874 0 3 -3.71874 0
gene 3 3 10 -4.55803 0 14 -4.55803 1
gene 3 10 4 -0.039903 0 15 -0.039903 1
gene 3 2 10 -0.1339 0 112 -0.1339 1
gene 1 1 10 0.0932646 0 127 0.0932646 1
genomeend 124

/* Organism #125 Fitness: 4.02432 Error: 1.99393 */
genomestart 125
trait 1 0.0875 0 0.317881 0 0 0 0 0 
trait 2 0.2 0 0 0 0 0 0 0 
trait 3 0.3 0 0 0 0 0 0 0 
node 1 2 1 3
node 2 2 1 1
node 3 2 1 1
node 4 1 0 2
node 10 1 0 0
gene 2 1 4 3.84908 0 1 3.84908 1
gene 3 2 4 -2.81383 0 2 -2.81383 1
gene 3 3 4 -3.61437 0 3 -3.61437 0
gene 3 3 10 -7.46992 0 14 -7.46992 1
gene 3 10 4 1.72462 0 15 1.72462 1
gene 3 2 10 -0.502335 0 112 -0.502335 1
gene 1 1 10 1.48693 0 127 1.48693 1
genomeend 125

/* Organism #126 Fitness: 8.98986 Error: 1.00169 */
genomestart 126
trait 1 0.0875 0 0.317881 0 0 0 0 0 
trait 2 0.2 0 0 0 0 0 0 0 
trait 3 0.3 0 0 0 0 0 0 0 
node 1 2 1 3
node 2 2 1 1
node 3 2 1 1
node 4 1 0 2
node 10 1 0 0
gene 2 1 4 1.74485 0 1 1.74485 1
gene 3 2 4 -4.03444 0 2 -4.03444 1
gene 3 3 4 -2.58677 0 3 -2.58677 0
gene 3 3 10 -4.9353 0 14 -4.9353 1
gene 3 10 4 3.61079 0 15 3.61079 1
gene 3 2 10 1.85827 0 112 1.85827 1
gene 1 1 10 0.458018 0 127 0.458018 1
genomeend 126

/* Organism #127 Fitness: 8.98986 Error: 1.00169 */
genomestart 127
trait 1 0.0875 0 0.317881 0 0 0 0 0 
trait 2 0.2 0 0 0 0 0 0 0 
trait 3 0.3 0 0 0 0 0 0 0 
node 1 2 1 3
node 2 2 1 1
node 3 2 1 1
node 4 1 0 2
node 10 1 0 0
gene 2 1 4 1.74485 0 1 1.74485 1
gene 3 2 4 -4.03444 0 2 -4.03444 1
gene 3 3 4 -2.58677 0 3 -2.58677 0
gene 3 3 10 -4.9353 0 14 -4.9353 1
gene 3 10 4 3.61079 0 15 3.61079 1
gene 3 2 10 1.85827 0 112 1.85827 1
gene 1 1 10 0.458018 0 127 0.458018 1
genomeend 127

/* Organism #128 Fitness: 4 Error: 2 */
genomestart 128
trait 1 0.0875 0 0.317881 0 0 0 0 0 
trait 2 0.2 0 0 0 0 0 0 0 
trait 3 0.685815 0 0 0.99176 0.265389 0 0 0.460433 
node 1 2 1 3
node 2 2 1 1
node 3 2 1 1
node 4 1 0 2
node 10 1 0 0
gene 2 1 4 0.86681 0 1 0.86681 1
gene 3 2 4 -3.09178 0 2 -3.09178 1
gene 3 3 4 -1.06661 0 3 -1.06661 0
gene 3 3 10 -6.86725 0 14 -6.86725 1
gene 3 10 4 0.00618 0 15 0.00618 1
gene 3 2 10 1.88154 0 112 1.88154 1
gene 1 1 10 -1.12072 0 127 -1.12072 1
genomeend 128

/* Organism #129 Fitness: 3.99847 Error: 2.00038 */
genomestart 129
trait 1 0.0875 0 0.317881 0 0 0 0 0 
trait 2 0.2 0 0 0 0 0 0 0 
trait 3 0.3 0.0150456 0 0 0.402051 0 0 0.299417 
node 1 2 1 3
node 2 2 1 1
node 3 2 1 1
node 4 1 0 2
node 10 1 0 0
gene 2 1 4 1.46661 0 1 1.46661 1
gene 3 2 4 -6.60579 0 2 -6.60579 1
gene 3 3 4 -4.94787 0 3 -4.94787 0
gene 3 3 10 -5.4008 0 14 -5.4008 1
gene 3 10 4 3.52101 0 15 3.52101 1
gene 3 2 10 3.45065 0 112 3.45065 1
gene 1 1 10 1.0092 0 127 1.0092 1
genomeend 129

/* Organism #130 Fitness: 4.00085 Error: 1.99979 */
genomestart 130
trait 1 0.0875 0 0.317881 0 0 0 0 0 
trait 2 0.2 0 0 0 0 0 0 0 
trait 3 0.3 0 0 0 0 0 0 0 
node 1 2 1 3
node 2 2 1 1
node 3 2 1 1
node 4 1 0 2
node 10 1 0 0
gene 2 1 4 2.63356 0 1 2.63356 1
gene 3 2 4 -2.81692 0 2 -2.81692 1
gene 3 3 4 -2.60184 0 3 -2.60184 0
gene 3 3 10 -2.42616 0 14 -2.42616 1
gene 3 10 4 1.82075 0 15 1.82075 1
gene 3 2 10 0.589312 0 112 0.589312 1
gene 1 1 10 2.40435 0 127 2.40435 1
genomeend 130

/* Species #15 : (Size 7) (AF 4.0068) (Age 5)  */


/* Organism #131 Fitness: 4.03881 Error: 1.99032 */
genomestart 131
trait 1 0.1 0 0 0 0 0 0 0 
trait 2 0.2 0 0 0 0 0 0 0 
trait 3 0.3 0 0 0 0 0 0 0 
node 1 3 1 3
node 2 1 1 1
node 3 1 1 1
node 4 3 0 2
node 8 1 0 0
node 22 1 0 0
node 41 1 0 0
node 45 1 0 0
gene 3 1 4 -1.05489 0 1 -1.05489 1
gene 1 2 4 4.06406 0 2 4.06406 0
gene 1 3 4 -5.26717 0 3 -5.26717 1
gene 1 2 8 2.57666 0 10 2.57666 1
gene 1 8 4 -0.811716 0 11 -0.811716 0
gene 2 1 8 -1.31494 0 29 -1.31494 1
gene 1 8 22 0.446463 0 48 0.446463 1
gene 1 22 4 2.65819 0 49 2.65819 0
gene 1 22 41 0.0591906 0 117 0.0591906 1
gene 1 41 4 2.94842 0 118 2.94842 0
gene 1 41 45 1 0 130 1 1
gene 1 45 4 1.01431 0 131 1.01431 1
genomeend 131

/* Organism #132 Fitness: 4 Error: 2 */
genomestart 132
trait 1 0.1 0 0 0 0 0 0 0 
trait 2 0.2 0 0 0 0 0 0 0 
trait 3 0.3 0 0 0 0 0 0 0 
node 1 3 1 3
node 2 1 1 1
node 3 1 1 1
node 4 3 0 2
node 8 1 0 0
node 22 1 0 0
node 41 1 0 0
node 45 1 0 0
node 49 1 0 0
gene 3 1 4 -2.89775 0 1 -2.89775 1
gene 1 2 4 -1.54166 0 2 -1.54166 0
gene 1 3 4 -6.44556 0 3 -6.44556 1
gene 1 2 8 5.29632 0 10 5.29632 0
gene 1 8 4 -2.6397 0 11 -2.6397 0
gene 2 1 8 -5.4476 0 29 -5.4476 1
gene 1 8 22 -3.21232 0 48 -3.21232 1
gene 1 22 4 -1.86069 0 49 -1.86069 0
gene 1 22 41 -1.50458 0 117 -1.50458 1
gene 1 41 4 1.35876 0 118 1.35876 0
gene 1 41 45 0.0179907 0 130 0.0179907 1
gene 1 45 4 0.982185 0 131 0.982185 1
gene 1 2 49 1.45352 0 142 1.45352 1
gene 1 49 8 2.77648 0 143 2.77648 1
genomeend 132

/* Organism #133 Fitness: 4 Error: 2 */
genomestart 133
trait 1 0.1 0 0 0 0 0 0 0 
trait 2 0.2 0 0 0 0 0 0 0 
trait 3 0.3 0 0 0 0 0 0 0 
node 1 3 1 3
node 2 1 1 1
node 3 1 1 1
node 4 3 0 2
node 8 1 0 0
node 22 1 0 0
node 41 1 0 0
node 45 1 0 0
gene 3 1 4 -0.365093 0 1 -0.365093 1
gene 1 2 4 1.50188 0 2 1.50188 0
gene 1 3 4 -4.4788 0 3 -4.4788 1
gene 1 2 8 0.508576 0 10 0.508576 0
gene 1 8 4 -2.28622 0 11 -2.28622 0
gene 2 1 8 0.0744194 0 29 0.0744194 1
gene 1 8 22 0.349796 0 48 0.349796 1
gene 1 22 4 4.02671 0 49 4.02671 0
gene 1 22 41 -2.20002 0 117 -2.20002 1
gene 1 41 4 -0.416631 0 118 -0.416631 0
gene 1 41 45 2.27308 0 130 2.27308 1
gene 1 45 4 -0.256966 0 131 -0.256966 1
genomeend 133

/* Organism #134 Fitness: 4 Error: 2 */
genomestart 134
trait 1 0.1 0 0 0 0 0 0 0 
trait 2 0.2 0 0 0 0 0 0 0 
trait 3 0.3 0 0 0 0 0 0 0 
node 1 3 1 3
node 2 1 1 1
node 3 1 1 1
node 4 3 0 2
node 8 1 0 0
node 22 1 0 0
node 41 1 0 0
node 45 1 0 0
gene 3 1 4 0.272759 0 1 0.272759 1
gene 1 2 4 1.25983 0 2 1.25983 0
gene 1 3 4 -8 0 3 -8 1
gene 1 2 8 2.24432 0 10 2.24432 0
gene 1 8 4 -0.225303 0 11 -0.225303 1
gene 2 1 8 -0.992698 0 29 -0.992698 1
gene 1 8 22 -1.88772 0 48 -1.88772 1
gene 1 22 4 2.55545 0 49 2.55545 0
gene 1 22 41 -1.60773 0 117 -1.60773 1
gene 1 41 4 0.333819 0 118 0.333819 1
gene 1 41 45 0.961867 0 130 0.961867 1
gene 1 45 4 0.815287 0 131 0.815287 1
genomeend 134

/* Organism #135 Fitness: 4.00876 Error: 1.99781 */
genomestart 135
trait 1 0.1 0 0 0 0 0 0 0 
trait 2 0.2 0 0 0 0 0 0 0 
trait 3 0.3 0 0 0 0 0 0 0 
node 1 3 1 3
node 2 1 1 1
node 3 1 1 1
node 4 3 0 2
node 8 1 0 0
node 22 1 0 0
node 41 1 0 0
node 45 1 0 0
gene 3 1 4 -1.05489 0 1 -1.05489 1
gene 1 2 4 4.06406 0 2 4.06406 0
gene 1 3 4 -5.26717 0 3 -5.26717 1
gene 1 2 8 4.82488 0 10 4.82488 1
gene 1 8 4 -0.811716 0 11 -0.811716 0
gene 2 1 8 -5.53931 0 29 -5.53931 1
gene 1 8 22 -1.42158 0 48 -1.42158 1
gene 1 22 4 -0.749207 0 49 -0.749207 0
gene 1 22 41 -1.88034 0 117 -1.88034 1
gene 1 41 4 1.19137 0 118 1.19137 0
gene 1 41 45 1 0 130 1 1
gene 1 45 4 1.01431 0 131 1.01431 1
genomeend 135

/* Organism #136 Fitness: 4 Error: 2 */
genomestart 136
trait 1 0.1 0 0 0 0 0 0 0 
trait 2 0.2 0 0 0 0 0 0 0 
trait 3 0.323621 0.204871 0.895657 0 0 0 0 0 
node 1 3 1 3
node 2 1 1 1
node 3 1 1 1
node 4 3 0 2
node 8 1 0 0
node 22 1 0 0
node 41 1 0 0
node 45 1 0 0
node 49 1 0 0
gene 3 1 4 -0.538514 0 1 -0.538514 1
gene 1 2 4 2.02664 0 2 2.02664 0
gene 1 3 4 -7.02358 0 3 -7.02358 1
gene 1 2 8 2.18085 0 10 2.18085 0
gene 1 8 4 -0.902127 0 11 -0.902127 0
gene 2 1 8 -2.96698 0 29 -2.96698 1
gene 1 8 22 4.58996 0 48 4.58996 1
gene 1 22 4 4.77823 0 49 4.77823 0
gene 1 22 41 1.75724 0 117 1.75724 1
gene 1 41 4 -2.3335 0 118 -2.3335 1
gene 1 41 45 1.6502 0 130 1.6502 1
gene 1 45 4 -2.01559 0 131 -2.01559 1
gene 1 2 49 1.94845 0 142 1.94845 1
gene 1 49 8 1.21174 0 143 1.21174 1
genomeend 136

/* Organism #137 Fitness: 4 Error: 2 */
genomestart 137
trait 1 0.1 0 0 0 0 0 0 0 
trait 2 0.2 0 0 0 0 0 0 0 
trait 3 0.3 0 0 0 0 0 0 0 
node 1 3 1 3
node 2 1 1 1
node 3 1 1 1
node 4 3 0 2
node 8 1 0 0
node 22 1 0 0
node 41 1 0 0
node 45 1 0 0
node 49 1 0 0
gene 3 1 4 -1.12348 0 1 -1.12348 1
gene 1 2 4 -1.42538 0 2 -1.42538 0
gene 1 3 4 -3.76543 0 3 -3.76543 1
gene 1 2 8 5.29739 0 10 5.29739 0
gene 1 8 4 -2.47391 0 11 -2.47391 0
gene 2 1 8 -7.99384 0 29 -7.99384 1
gene 1 8 22 4.1717 0 48 4.1717 1
gene 1 22 4 0.162381 0 49 0.162381 0
gene 1 22 41 1.871 0 117 1.871 1
gene 1 41 4 1.64068 0 118 1.64068 0
gene 1 41 45 0.333018 0 130 0.333018 1
gene 1 45 4 1.98243 0 131 1.98243 1
gene 1 2 49 1.04579 0 142 1.04579 1
gene 1 49 8 4.53534 0 143 4.53534 1
genomeend 137

/* Species #16 : (Size 8) (AF 4.0832) (Age 3)  */


/* Organism #138 Fitness: 8.11026 Error: 1.15215 */
genomestart 138
trait 1 0.1 0 0 0 0 0 0 0 
trait 2 0.2 0 0 0 0 0 0 0 
trait 3 0.3 0 0 0 0 0 0 0 
node 1 3 1 3
node 2 1 1 1
node 3 2 1 1
node 4 3 0 2
node 14 1 0 0
node 35 1 0 0
gene 2 1 4 -0.511025 0 1 -0.511025 1
gene 1 2 4 -3.9124 0 2 -3.9124 1
gene 3 3 4 -0.224578 0 3 -0.224578 0
gene 3 3 14 3.11325 0 25 3.11325 1
gene 3 14 4 1.96749 0 26 1.96749 1
gene 2 2 14 -0.625713 0 52 -0.625713 0
gene 2 1 14 0.192488 0 77 0.192488 1
gene 2 2 35 -0.498833 0 97 -0.998833 1
gene 2 35 14 -1.87171 0 98 -1.40689 1
gene 1 3 35 -0.190527 0 126 -0.190527 1
gene 3 35 4 0.223884 0 141 0.223884 1
genomeend 138

/* Organism #139 Fitness: 1.01662 Error: 2.99172 */
genomestart 139
trait 1 0.1 0 0 0 0 0 0 0 
trait 2 0.2 0 0 0 0 0 0 0 
trait 3 0.3 0 0 0 0 0 0 0 
node 1 3 1 3
node 2 1 1 1
node 3 2 1 1
node 4 3 0 2
node 14 1 0 0
node 35 1 0 0
gene 2 1 4 1.24566 0 1 1.24566 1
gene 1 2 4 -4.66495 0 2 -4.66495 1
gene 3 3 4 -2.60292 0 3 -2.60292 1
gene 3 3 14 -1.07593 0 25 -1.07593 1
gene 3 14 4 2.21231 0 26 2.21231 1
gene 2 2 14 -1.75146 0 52 -1.75146 0
gene 2 1 14 1.32343 0 77 1.32343 1
gene 2 2 35 -0.666684 0 97 -0.666684 1
gene 2 35 14 -4.18463 0 98 -4.18463 1
gene 1 3 35 1.6534 0 126 1.6534 1
gene 3 35 4 -0.504471 0 141 -0.504471 1
genomeend 139

/* Organism #140 Fitness: 3.9625 Error: 2.0094 */
genomestart 140
trait 1 0.1 0 0 0 0 0 0 0 
trait 2 0.2 0 0 0 0 0 0 0 
trait 3 0.3 0 0 0 0 0 0 0 
node 1 3 1 3
node 2 1 1 1
node 3 2 1 1
node 4 3 0 2
node 14 1 0 0
node 35 1 0 0
gene 2 1 4 -1.31329 0 1 -1.31329 1
gene 1 2 4 -6.12793 0 2 -6.12793 1
gene 3 3 4 -1.15963 0 3 -1.15963 1
gene 3 3 14 4.67801 0 25 4.67801 1
gene 3 14 4 0.217463 0 26 0.217463 1
gene 2 2 14 -1.37334 0 52 -1.37334 1
gene 2 1 14 0.498901 0 77 0.498901 1
gene 2 2 35 -3.17065 0 97 -3.17065 1
gene 2 35 14 -4.13145 0 98 -4.13145 1
gene 1 3 35 2.49962 0 126 2.49962 1
gene 3 35 4 0.761315 0 141 0.761315 1
genomeend 140

/* Organism #141 Fitness: 4.00026 Error: 1.99993 */
genomestart 141
trait 1 0.1 0 0 0 0 0 0 0 
trait 2 0.2 0 0 0 0 0 0 0 
trait 3 0.3 0 0 0 0 0 0 0 
node 1 3 1 3
node 2 2 1 1
node 3 2 1 1
node 4 3 0 2
node 14 1 0 0
node 35 1 0 0
gene 2 1 4 0.392552 0 1 0.392552 1
gene 1 2 4 -3.4795 0 2 -3.4795 1
gene 3 3 4 1.7898 0 3 1.7898 0
gene 3 3 14 3.18581 0 25 3.18581 1
gene 3 14 4 1.47843 0 26 1.47843 1
gene 2 2 14 -2.51061 0 52 -2.51061 0
gene 2 1 14 1.00771 0 77 1.00771 1
gene 2 2 35 -1.76444 0 97 -1.76444 1
gene 2 35 14 -1.78137 0 98 -1.78137 1
gene 1 3 35 -0.769234 0 126 -0.769234 1
gene 3 35 4 0.837428 0 141 0.837428 1
genomeend 141

/* Organism #142 Fitness: 3.39396 Error: 2.15773 */
genomestart 142
trait 1 0.1 0 0 0 0 0 0 0 
trait 2 0.2 0 0 0 0 0 0 0 
trait 3 0.3 0 0 0 0 0 0 0 
node 1 3 1 3
node 2 1 1 1
node 3 2 1 1
node 4 3 0 2
node 14 1 0 0
node 35 1 0 0
gene 2 1 4 2.82427 0 1 2.82427 1
gene 1 2 4 -4.6611 0 2 -4.6611 1
gene 3 3 4 -2.67552 0 3 -2.67552 0
gene 3 3 14 0.791177 0 25 0.791177 1
gene 3 14 4 1.96749 0 26 1.96749 1
gene 2 2 14 1.29665 0 52 1.29665 0
gene 2 1 14 -0.556131 0 77 -0.556131 1
gene 2 2 35 -4.37888 0 97 -4.37888 1
gene 2 35 14 -0.327616 0 98 -0.327616 1
gene 1 3 35 -2.77804 0 126 -2.77804 1
gene 3 35 4 -1.42907 0 141 -1.42907 1
genomeend 142

/* Organism #143 Fitness: 4.18968 Error: 1.95313 */
genomestart 143
trait 1 0.1 0 0 0 0 0 0 0 
trait 2 0.2 0 0 0 0 0 0 0 
trait 3 0.3 0 0 0 0 0 0 0 
node 1 3 1 3
node 2 1 1 1
node 3 2 1 1
node 4 3 0 2
node 14 1 0 0
node 35 1 0 0
gene 2 1 4 0.766251 0 1 0.766251 1
gene 1 2 4 -4.6611 0 2 -4.6611 1
gene 3 3 4 -0.224578 0 3 -0.224578 0
gene 3 3 14 3.11325 0 25 3.11325 1
gene 3 14 4 1.96749 0 26 1.96749 1
gene 2 2 14 0.0112079 0 52 0.0112079 0
gene 2 1 14 -0.820879 0 77 -0.820879 1
gene 2 2 35 -1.99744 0 97 -1.99744 1
gene 2 35 14 -3.89814 0 98 -3.89814 1
gene 1 3 35 -0.190527 0 126 -0.190527 1
gene 3 35 4 -0.309732 0 141 -0.309732 1
genomeend 143

/* Organism #144 Fitness: 3.99217 Error: 2.00196 */
genomestart 144
trait 1 0.1 0 0 0 0 0 0 0 
trait 2 0.2 0 0 0 0 0 0 0 
trait 3 0.3 0 0 0 0 0 0 0 
node 1 3 1 3
node 2 1 1 1
node 3 2 1 1
node 4 3 0 2
node 14 1 0 0
node 35 1 0 0
gene 2 1 4 1.90177 0 1 1.90177 1
gene 1 2 4 -3.00509 0 2 -3.00509 1
gene 3 3 4 -1.15822 0 3 -1.15822 1
gene 3 3 14 1.646 0 25 1.646 1
gene 3 14 4 0.149655 0 26 0.149655 1
gene 2 2 14 1.51066 0 52 1.51066 0
gene 2 1 14 2.36502 0 77 2.36502 1
gene 2 2 35 -2.83991 0 97 -2.83991 1
gene 2 35 14 -1.47817 0 98 -1.47817 1
gene 1 3 35 -2.44188 0 126 -2.44188 1
gene 3 35 4 -1.36216 0 141 -1.36216 1
genomeend 144

/* Organism #145 Fitness: 4.00012 Error: 1.99997 */
genomestart 145
trait 1 0.1 0 0 0 0 0 0 0 
trait 2 0.2 0 0 0 0 0 0 0 
trait 3 0.3 0 0 0 0 0 0 0 
node 1 3 1 3
node 2 1 1 1
node 3 2 1 1
node 4 3 0 2
node 14 2 0 0
node 35 1 0 0
gene 2 1 4 1.50075 0 1 1.50075 1
gene 1 2 4 -6.17413 0 2 -6.17413 1
gene 3 3 4 0.00431074 0 3 0.00431074 0
gene 3 3 14 1.37027 0 25 1.37027 1
gene 3 14 4 0.922994 0 26 0.922994 1
gene 2 2 14 -1.88918 0 52 -1.88918 1
gene 2 1 14 1.0129 0 77 1.0129 1
gene 2 2 35 1.89695 0 97 1.89695 1
gene 2 35 14 -2.35268 0 98 -2.35268 1
gene 1 3 35 -2.19102 0 126 -2.19102 1
gene 3 35 4 0.591327 0 141 0.591327 1
genomeend 145

/* Species #18 : (Size 1) (AF 5.59392) (Age 1)  */


/* Organism #146 Fitness: 5.59392 Error: 1.63485 */
genomestart 146
trait 1 0.0875 0 0 0 0 0 0.0801073 0 
trait 2 0.229037 0 0.0558002 0 0 0 0 0 
trait 3 0.333078 0.0924596 0.116279 0 0.140691 0 0 0.0799308 
node 1 2 1 3
node 2 2 1 1
node 3 2 1 1
node 4 1 0 2
node 10 1 0 0
node 33 1 0 0
node 56 1 0 0
gene 2 1 4 1.07091 0 1 1.07091 1
gene 3 2 4 -0.544549 0 2 -0.544549 1
gene 3 3 4 -8 0 3 -8 0
gene 3 3 10 1.36531 0 14 1.36531 0
gene 3 10 4 -2.27485 0 15 -2.27485 1
gene 3 3 33 -1.74873 0 90 -1.74873 1
gene 3 33 10 4.79761 0 91 4.79761 1
gene 1 2 33 0.424299 0 149 0.424299 0
gene 1 2 56 1 0 160 0 1
gene 1 56 33 0.424299 0 161 0 1
genomeend 146

/* Species #19 : (Size 1) (AF 8.90082) (Age 1)  */


/* Organism #147 Fitness: 8.90082 Error: 1.01658 */
genomestart 147
trait 1 0.1 0 0 0 0 0 0 0 
trait 2 0.2 0 0 0 0 0 0 0 
trait 3 0.3 0 0 0 0 0 0 0 
node 1 3 1 3
node 2 1 1 1
node 3 2 1 1
node 4 3 0 2
node 14 1 0 0
node 35 1 0 0
gene 2 1 4 -0.754677 0 1 -0.754677 1
gene 1 2 4 -3.69061 0 2 -3.69061 1
gene 3 3 4 1.82745 0 3 1.82745 1
gene 3 3 14 3.78085 0 25 3.78085 1
gene 3 14 4 1.788 0 26 1.788 1
gene 2 2 14 -0.92964 0 52 -0.92964 0
gene 2 1 14 -0.496353 0 77 -0.496353 1
gene 2 2 35 1 0 97 0 1
gene 2 35 14 -0.92964 0 98 0 1
gene 1 35 4 -0.293558 0 116 -0.293558 1
gene 2 3 35 -0.00585955 0 163 -0.00585955 1
genomeend 147

/* Species #20 : (Size 2) (AF 3.42838) (Age 1)  */


/* Organism #148 Fitness: 2.24905 Error: 2.50032 */
genomestart 148
trait 1 0.1 0 0 0 0 0 0 0 
trait 2 0.2 0 0 0 0 0 0 0 
trait 3 0.3 0 0 0 0 0 0 0 
node 1 3 1 3
node 2 1 1 1
node 3 2 1 1
node 4 3 0 2
node 14 1 0 0
node 35 1 0 0
node 53 1 0 0
gene 2 1 4 0.844142 0 1 0.844142 1
gene 1 2 4 -3.213 0 2 -3.213 1
gene 3 3 4 -0.449919 0 3 -0.449919 1
gene 3 3 14 3.78085 0 25 3.78085 1
gene 3 14 4 -0.387738 0 26 -0.387738 1
gene 2 2 14 -1.51834 0 52 -1.51834 0
gene 2 1 14 -0.690374 0 77 -0.690374 1
gene 2 2 35 -0.157949 0 97 -0.157949 1
gene 2 35 14 1.65456 0 98 1.65456 0
gene 1 35 4 -0.0549791 0 116 -0.0549791 1
gene 2 35 53 0.389172 0 154 0.389172 1
gene 2 53 14 0.562792 0 155 0.562792 1
genomeend 148

/* Organism #149 Fitness: 4.60771 Error: 1.85344 */
genomestart 149
trait 1 0.1 0 0 0 0 0 0 0 
trait 2 0.2 0 0 0 0 0 0 0 
trait 3 0.3 0 0 0 0 0 0 0 
node 1 3 1 3
node 2 1 1 1
node 3 2 1 1
node 4 3 0 2
node 14 1 0 0
node 35 1 0 0
node 53 1 0 0
gene 2 1 4 -2.10207 0 1 -2.10207 1
gene 1 2 4 -2.84983 0 2 -2.84983 1
gene 3 3 4 0.664769 0 3 0.664769 1
gene 3 3 14 2.01367 0 25 2.01367 1
gene 3 14 4 3.19895 0 26 3.19895 1
gene 2 2 14 -0.670003 0 52 -0.670003 0
gene 2 1 14 1.22855 0 77 1.22855 1
gene 2 2 35 0.950865 0 97 0.950865 1
gene 2 35 14 -1.83238 0 98 -1.83238 0
gene 1 35 4 -1.30296 0 116 -1.30296 1
gene 2 35 53 0.0363781 0 154 0.0363781 1
gene 2 53 14 -0.993805 0 155 -0.993805 1
genomeend 149
